<?xml version="1.0" encoding="UTF-8" standalone="yes"?>
<PMML xmlns="http://www.dmg.org/PMML-4_4" xmlns:data="http://jpmml.org/jpmml-model/InlineTable" version="4.3">
	<Header>
		<Application name="JPMML-SkLearn" version="1.6.4"/>
		<Timestamp>2020-08-12T15:04:34Z</Timestamp>
	</Header>
	<MiningBuildTask>
		<Extension>PMMLPipeline(steps=[('mapper', DataFrameMapper(features=[(['FLAG_OWN_CAR', 'FLAG_OWN_REALTY',
                            'FLAG_WORK_PHONE'],
                           OrdinalEncoder()),
                          (['CNT_CHILDREN', 'AMT_INCOME_TOTAL', 'AGE',
                            'DAYS_EMPLOYED'],
                           None)])),
       ('classifier', RandomForestClassifier(max_depth=7, min_samples_leaf=2, min_samples_split=4,
                       n_estimators=83))])</Extension>
	</MiningBuildTask>
	<DataDictionary>
		<DataField name="APPROVED" optype="categorical" dataType="integer">
			<Value value="0"/>
			<Value value="1"/>
		</DataField>
		<DataField name="FLAG_OWN_CAR" optype="categorical" dataType="integer">
			<Value value="0"/>
			<Value value="1"/>
		</DataField>
		<DataField name="FLAG_OWN_REALTY" optype="categorical" dataType="integer">
			<Value value="0"/>
			<Value value="1"/>
		</DataField>
		<DataField name="FLAG_WORK_PHONE" optype="categorical" dataType="integer">
			<Value value="0"/>
			<Value value="1"/>
		</DataField>
		<DataField name="CNT_CHILDREN" optype="continuous" dataType="double"/>
		<DataField name="AMT_INCOME_TOTAL" optype="continuous" dataType="double"/>
		<DataField name="AGE" optype="continuous" dataType="double"/>
		<DataField name="DAYS_EMPLOYED" optype="continuous" dataType="double"/>
	</DataDictionary>
	<TransformationDictionary/>
	<MiningModel functionName="classification">
		<MiningSchema>
			<MiningField name="APPROVED" usageType="target"/>
			<MiningField name="AGE"/>
			<MiningField name="CNT_CHILDREN"/>
			<MiningField name="AMT_INCOME_TOTAL"/>
			<MiningField name="DAYS_EMPLOYED"/>
			<MiningField name="FLAG_WORK_PHONE"/>
			<MiningField name="FLAG_OWN_CAR"/>
			<MiningField name="FLAG_OWN_REALTY"/>
		</MiningSchema>
		<Output>
			<OutputField name="probability(0)" optype="continuous" dataType="double" feature="probability" value="0"/>
			<OutputField name="probability(1)" optype="continuous" dataType="double" feature="probability" value="1"/>
		</Output>
		<LocalTransformations>
			<DerivedField name="encoder(FLAG_OWN_CAR)" optype="categorical" dataType="double">
				<MapValues outputColumn="data:output">
					<FieldColumnPair field="FLAG_OWN_CAR" column="data:input"/>
					<InlineTable>
						<row>
							<data:input>0</data:input>
							<data:output>0.0</data:output>
						</row>
						<row>
							<data:input>1</data:input>
							<data:output>1.0</data:output>
						</row>
					</InlineTable>
				</MapValues>
			</DerivedField>
			<DerivedField name="encoder(FLAG_OWN_REALTY)" optype="categorical" dataType="double">
				<MapValues outputColumn="data:output">
					<FieldColumnPair field="FLAG_OWN_REALTY" column="data:input"/>
					<InlineTable>
						<row>
							<data:input>0</data:input>
							<data:output>0.0</data:output>
						</row>
						<row>
							<data:input>1</data:input>
							<data:output>1.0</data:output>
						</row>
					</InlineTable>
				</MapValues>
			</DerivedField>
			<DerivedField name="encoder(FLAG_WORK_PHONE)" optype="categorical" dataType="double">
				<MapValues outputColumn="data:output">
					<FieldColumnPair field="FLAG_WORK_PHONE" column="data:input"/>
					<InlineTable>
						<row>
							<data:input>0</data:input>
							<data:output>0.0</data:output>
						</row>
						<row>
							<data:input>1</data:input>
							<data:output>1.0</data:output>
						</row>
					</InlineTable>
				</MapValues>
			</DerivedField>
			<DerivedField name="continuous(encoder(FLAG_OWN_CAR))" optype="continuous" dataType="double">
				<FieldRef field="encoder(FLAG_OWN_CAR)"/>
			</DerivedField>
			<DerivedField name="float(continuous(encoder(FLAG_OWN_CAR)))" optype="continuous" dataType="float">
				<FieldRef field="continuous(encoder(FLAG_OWN_CAR))"/>
			</DerivedField>
			<DerivedField name="continuous(encoder(FLAG_OWN_REALTY))" optype="continuous" dataType="double">
				<FieldRef field="encoder(FLAG_OWN_REALTY)"/>
			</DerivedField>
			<DerivedField name="float(continuous(encoder(FLAG_OWN_REALTY)))" optype="continuous" dataType="float">
				<FieldRef field="continuous(encoder(FLAG_OWN_REALTY))"/>
			</DerivedField>
			<DerivedField name="continuous(encoder(FLAG_WORK_PHONE))" optype="continuous" dataType="double">
				<FieldRef field="encoder(FLAG_WORK_PHONE)"/>
			</DerivedField>
			<DerivedField name="float(continuous(encoder(FLAG_WORK_PHONE)))" optype="continuous" dataType="float">
				<FieldRef field="continuous(encoder(FLAG_WORK_PHONE))"/>
			</DerivedField>
			<DerivedField name="float(CNT_CHILDREN)" optype="continuous" dataType="float">
				<FieldRef field="CNT_CHILDREN"/>
			</DerivedField>
			<DerivedField name="float(AMT_INCOME_TOTAL)" optype="continuous" dataType="float">
				<FieldRef field="AMT_INCOME_TOTAL"/>
			</DerivedField>
			<DerivedField name="float(AGE)" optype="continuous" dataType="float">
				<FieldRef field="AGE"/>
			</DerivedField>
			<DerivedField name="float(DAYS_EMPLOYED)" optype="continuous" dataType="float">
				<FieldRef field="DAYS_EMPLOYED"/>
			</DerivedField>
			<DerivedField name="double(float(AGE))" optype="continuous" dataType="double">
				<FieldRef field="float(AGE)"/>
			</DerivedField>
			<DerivedField name="double(float(CNT_CHILDREN))" optype="continuous" dataType="double">
				<FieldRef field="float(CNT_CHILDREN)"/>
			</DerivedField>
			<DerivedField name="double(float(AMT_INCOME_TOTAL))" optype="continuous" dataType="double">
				<FieldRef field="float(AMT_INCOME_TOTAL)"/>
			</DerivedField>
			<DerivedField name="double(float(DAYS_EMPLOYED))" optype="continuous" dataType="double">
				<FieldRef field="float(DAYS_EMPLOYED)"/>
			</DerivedField>
			<DerivedField name="double(float(continuous(encoder(FLAG_WORK_PHONE))))" optype="continuous" dataType="double">
				<FieldRef field="float(continuous(encoder(FLAG_WORK_PHONE)))"/>
			</DerivedField>
			<DerivedField name="double(float(continuous(encoder(FLAG_OWN_CAR))))" optype="continuous" dataType="double">
				<FieldRef field="float(continuous(encoder(FLAG_OWN_CAR)))"/>
			</DerivedField>
			<DerivedField name="double(float(continuous(encoder(FLAG_OWN_REALTY))))" optype="continuous" dataType="double">
				<FieldRef field="float(continuous(encoder(FLAG_OWN_REALTY)))"/>
			</DerivedField>
		</LocalTransformations>
		<Segmentation multipleModelMethod="average">
			<Segment id="1">
				<True/>
				<TreeModel functionName="classification" missingValueStrategy="nullPrediction">
					<MiningSchema>
						<MiningField name="double(float(AGE))"/>
						<MiningField name="double(float(CNT_CHILDREN))"/>
						<MiningField name="double(float(AMT_INCOME_TOTAL))"/>
						<MiningField name="double(float(DAYS_EMPLOYED))"/>
						<MiningField name="double(float(continuous(encoder(FLAG_WORK_PHONE))))"/>
						<MiningField name="double(float(continuous(encoder(FLAG_OWN_CAR))))"/>
						<MiningField name="double(float(continuous(encoder(FLAG_OWN_REALTY))))"/>
					</MiningSchema>
					<Node>
						<True/>
						<Node>
							<SimplePredicate field="double(float(AGE))" operator="lessOrEqual" value="49.99863052368164"/>
							<Node>
								<SimplePredicate field="double(float(CNT_CHILDREN))" operator="lessOrEqual" value="0.5"/>
								<Node>
									<SimplePredicate field="double(float(AMT_INCOME_TOTAL))" operator="lessOrEqual" value="201375.0"/>
									<Node>
										<SimplePredicate field="double(float(DAYS_EMPLOYED))" operator="lessOrEqual" value="2030.5"/>
										<Node>
											<SimplePredicate field="double(float(AGE))" operator="lessOrEqual" value="25.001370429992676"/>
											<Node>
												<SimplePredicate field="double(float(AMT_INCOME_TOTAL))" operator="lessOrEqual" value="106560.0"/>
												<Node score="0" recordCount="520.0">
													<SimplePredicate field="double(float(AMT_INCOME_TOTAL))" operator="lessOrEqual" value="103365.0"/>
													<ScoreDistribution value="0" recordCount="495.0"/>
													<ScoreDistribution value="1" recordCount="25.0"/>
												</Node>
												<Node score="0" recordCount="55.0">
													<True/>
													<ScoreDistribution value="0" recordCount="49.0"/>
													<ScoreDistribution value="1" recordCount="6.0"/>
												</Node>
											</Node>
											<Node score="0" recordCount="589.0">
												<SimplePredicate field="double(float(DAYS_EMPLOYED))" operator="lessOrEqual" value="459.0"/>
												<ScoreDistribution value="0" recordCount="522.0"/>
												<ScoreDistribution value="1" recordCount="67.0"/>
											</Node>
											<Node score="0" recordCount="1735.0">
												<True/>
												<ScoreDistribution value="0" recordCount="1342.0"/>
												<ScoreDistribution value="1" recordCount="393.0"/>
											</Node>
										</Node>
										<Node>
											<SimplePredicate field="double(float(AGE))" operator="lessOrEqual" value="25.420547485351562"/>
											<Node score="0" recordCount="272.0">
												<SimplePredicate field="double(float(continuous(encoder(FLAG_WORK_PHONE))))" operator="lessOrEqual" value="0.5"/>
												<ScoreDistribution value="0" recordCount="159.0"/>
												<ScoreDistribution value="1" recordCount="113.0"/>
											</Node>
											<Node score="1" recordCount="125.0">
												<True/>
												<ScoreDistribution value="0" recordCount="57.0"/>
												<ScoreDistribution value="1" recordCount="68.0"/>
											</Node>
										</Node>
										<Node score="0" recordCount="4839.0">
											<SimplePredicate field="double(float(DAYS_EMPLOYED))" operator="lessOrEqual" value="389.5"/>
											<ScoreDistribution value="0" recordCount="3467.0"/>
											<ScoreDistribution value="1" recordCount="1372.0"/>
										</Node>
										<Node score="0" recordCount="19984.0">
											<True/>
											<ScoreDistribution value="0" recordCount="12434.0"/>
											<ScoreDistribution value="1" recordCount="7550.0"/>
										</Node>
									</Node>
									<Node>
										<SimplePredicate field="double(float(AMT_INCOME_TOTAL))" operator="lessOrEqual" value="99675.0"/>
										<Node>
											<SimplePredicate field="double(float(DAYS_EMPLOYED))" operator="lessOrEqual" value="5040.5"/>
											<Node score="0" recordCount="2647.0">
												<SimplePredicate field="double(float(DAYS_EMPLOYED))" operator="lessOrEqual" value="4993.0"/>
												<ScoreDistribution value="0" recordCount="1551.0"/>
												<ScoreDistribution value="1" recordCount="1096.0"/>
											</Node>
											<Node score="1" recordCount="22.0">
												<True/>
												<ScoreDistribution value="0" recordCount="6.0"/>
												<ScoreDistribution value="1" recordCount="16.0"/>
											</Node>
										</Node>
										<Node score="0" recordCount="752.0">
											<SimplePredicate field="double(float(continuous(encoder(FLAG_OWN_CAR))))" operator="lessOrEqual" value="0.5"/>
											<ScoreDistribution value="0" recordCount="507.0"/>
											<ScoreDistribution value="1" recordCount="245.0"/>
										</Node>
										<Node score="0" recordCount="245.0">
											<True/>
											<ScoreDistribution value="0" recordCount="144.0"/>
											<ScoreDistribution value="1" recordCount="101.0"/>
										</Node>
									</Node>
									<Node>
										<SimplePredicate field="double(float(AGE))" operator="lessOrEqual" value="25.458904266357422"/>
										<Node score="0" recordCount="87.0">
											<SimplePredicate field="double(float(AMT_INCOME_TOTAL))" operator="lessOrEqual" value="159750.0"/>
											<ScoreDistribution value="0" recordCount="59.0"/>
											<ScoreDistribution value="1" recordCount="28.0"/>
										</Node>
										<Node score="0" recordCount="36.0">
											<True/>
											<ScoreDistribution value="0" recordCount="18.0"/>
											<ScoreDistribution value="1" recordCount="18.0"/>
										</Node>
									</Node>
									<Node score="1" recordCount="131.0">
										<SimplePredicate field="double(float(DAYS_EMPLOYED))" operator="lessOrEqual" value="2048.5"/>
										<ScoreDistribution value="0" recordCount="41.0"/>
										<ScoreDistribution value="1" recordCount="90.0"/>
									</Node>
									<Node score="1" recordCount="16811.0">
										<True/>
										<ScoreDistribution value="0" recordCount="8390.0"/>
										<ScoreDistribution value="1" recordCount="8421.0"/>
									</Node>
								</Node>
								<Node>
									<SimplePredicate field="double(float(DAYS_EMPLOYED))" operator="lessOrEqual" value="1999.0"/>
									<Node>
										<SimplePredicate field="double(float(AMT_INCOME_TOTAL))" operator="lessOrEqual" value="299250.0"/>
										<Node>
											<SimplePredicate field="double(float(AGE))" operator="lessOrEqual" value="24.99315071105957"/>
											<Node score="0" recordCount="961.0">
												<SimplePredicate field="double(float(DAYS_EMPLOYED))" operator="lessOrEqual" value="1848.5"/>
												<ScoreDistribution value="0" recordCount="701.0"/>
												<ScoreDistribution value="1" recordCount="260.0"/>
											</Node>
											<Node score="0" recordCount="21.0">
												<True/>
												<ScoreDistribution value="0" recordCount="21.0"/>
												<ScoreDistribution value="1" recordCount="0.0"/>
											</Node>
										</Node>
										<Node score="1" recordCount="55.0">
											<SimplePredicate field="double(float(AGE))" operator="lessOrEqual" value="25.100000381469727"/>
											<ScoreDistribution value="0" recordCount="19.0"/>
											<ScoreDistribution value="1" recordCount="36.0"/>
										</Node>
										<Node score="0" recordCount="11923.0">
											<True/>
											<ScoreDistribution value="0" recordCount="6265.0"/>
											<ScoreDistribution value="1" recordCount="5658.0"/>
										</Node>
									</Node>
									<Node>
										<SimplePredicate field="double(float(DAYS_EMPLOYED))" operator="lessOrEqual" value="305.5"/>
										<Node score="0" recordCount="267.0">
											<SimplePredicate field="double(float(AGE))" operator="lessOrEqual" value="35.346574783325195"/>
											<ScoreDistribution value="0" recordCount="168.0"/>
											<ScoreDistribution value="1" recordCount="99.0"/>
										</Node>
										<Node score="1" recordCount="255.0">
											<True/>
											<ScoreDistribution value="0" recordCount="111.0"/>
											<ScoreDistribution value="1" recordCount="144.0"/>
										</Node>
									</Node>
									<Node score="1" recordCount="4144.0">
										<SimplePredicate field="double(float(DAYS_EMPLOYED))" operator="lessOrEqual" value="1868.0"/>
										<ScoreDistribution value="0" recordCount="1626.0"/>
										<ScoreDistribution value="1" recordCount="2518.0"/>
									</Node>
									<Node score="0" recordCount="234.0">
										<True/>
										<ScoreDistribution value="0" recordCount="127.0"/>
										<ScoreDistribution value="1" recordCount="107.0"/>
									</Node>
								</Node>
								<Node>
									<SimplePredicate field="double(float(continuous(encoder(FLAG_OWN_CAR))))" operator="lessOrEqual" value="0.5"/>
									<Node>
										<SimplePredicate field="double(float(continuous(encoder(FLAG_OWN_REALTY))))" operator="lessOrEqual" value="0.5"/>
										<Node score="1" recordCount="1923.0">
											<SimplePredicate field="double(float(AMT_INCOME_TOTAL))" operator="lessOrEqual" value="294750.0"/>
											<ScoreDistribution value="0" recordCount="754.0"/>
											<ScoreDistribution value="1" recordCount="1169.0"/>
										</Node>
										<Node score="1" recordCount="511.0">
											<True/>
											<ScoreDistribution value="0" recordCount="124.0"/>
											<ScoreDistribution value="1" recordCount="387.0"/>
										</Node>
									</Node>
									<Node score="1" recordCount="4537.0">
										<SimplePredicate field="double(float(continuous(encoder(FLAG_WORK_PHONE))))" operator="lessOrEqual" value="0.5"/>
										<ScoreDistribution value="0" recordCount="1669.0"/>
										<ScoreDistribution value="1" recordCount="2868.0"/>
									</Node>
									<Node score="1" recordCount="748.0">
										<True/>
										<ScoreDistribution value="0" recordCount="313.0"/>
										<ScoreDistribution value="1" recordCount="435.0"/>
									</Node>
								</Node>
								<Node>
									<SimplePredicate field="double(float(AGE))" operator="lessOrEqual" value="29.46712303161621"/>
									<Node score="0" recordCount="300.0">
										<SimplePredicate field="double(float(AMT_INCOME_TOTAL))" operator="lessOrEqual" value="240750.0"/>
										<ScoreDistribution value="0" recordCount="151.0"/>
										<ScoreDistribution value="1" recordCount="149.0"/>
									</Node>
									<Node score="1" recordCount="371.0">
										<True/>
										<ScoreDistribution value="0" recordCount="131.0"/>
										<ScoreDistribution value="1" recordCount="240.0"/>
									</Node>
								</Node>
								<Node score="1" recordCount="4717.0">
									<SimplePredicate field="double(float(AMT_INCOME_TOTAL))" operator="lessOrEqual" value="299250.0"/>
									<ScoreDistribution value="0" recordCount="1893.0"/>
									<ScoreDistribution value="1" recordCount="2824.0"/>
								</Node>
								<Node score="1" recordCount="2412.0">
									<True/>
									<ScoreDistribution value="0" recordCount="656.0"/>
									<ScoreDistribution value="1" recordCount="1756.0"/>
								</Node>
							</Node>
							<Node>
								<SimplePredicate field="double(float(AGE))" operator="lessOrEqual" value="24.98493194580078"/>
								<Node>
									<SimplePredicate field="double(float(DAYS_EMPLOYED))" operator="lessOrEqual" value="2175.0"/>
									<Node>
										<SimplePredicate field="double(float(CNT_CHILDREN))" operator="lessOrEqual" value="1.5"/>
										<Node>
											<SimplePredicate field="double(float(AMT_INCOME_TOTAL))" operator="lessOrEqual" value="243000.0"/>
											<Node score="0" recordCount="170.0">
												<SimplePredicate field="double(float(AMT_INCOME_TOTAL))" operator="lessOrEqual" value="102375.0"/>
												<ScoreDistribution value="0" recordCount="170.0"/>
												<ScoreDistribution value="1" recordCount="0.0"/>
											</Node>
											<Node score="0" recordCount="596.0">
												<True/>
												<ScoreDistribution value="0" recordCount="554.0"/>
												<ScoreDistribution value="1" recordCount="42.0"/>
											</Node>
										</Node>
										<Node score="0" recordCount="60.0">
											<SimplePredicate field="double(float(AMT_INCOME_TOTAL))" operator="lessOrEqual" value="447750.0"/>
											<ScoreDistribution value="0" recordCount="46.0"/>
											<ScoreDistribution value="1" recordCount="14.0"/>
										</Node>
										<Node score="1" recordCount="6.0">
											<True/>
											<ScoreDistribution value="0" recordCount="2.0"/>
											<ScoreDistribution value="1" recordCount="4.0"/>
										</Node>
									</Node>
									<Node score="0" recordCount="106.0">
										<True/>
										<ScoreDistribution value="0" recordCount="106.0"/>
										<ScoreDistribution value="1" recordCount="0.0"/>
									</Node>
								</Node>
								<Node score="0" recordCount="5.0">
									<SimplePredicate field="double(float(continuous(encoder(FLAG_OWN_CAR))))" operator="lessOrEqual" value="0.5"/>
									<ScoreDistribution value="0" recordCount="5.0"/>
									<ScoreDistribution value="1" recordCount="0.0"/>
								</Node>
								<Node>
									<SimplePredicate field="double(float(DAYS_EMPLOYED))" operator="lessOrEqual" value="2233.0"/>
									<Node score="1" recordCount="4.0">
										<SimplePredicate field="double(float(AGE))" operator="lessOrEqual" value="24.306849479675293"/>
										<ScoreDistribution value="0" recordCount="0.0"/>
										<ScoreDistribution value="1" recordCount="4.0"/>
									</Node>
									<Node score="0" recordCount="6.0">
										<True/>
										<ScoreDistribution value="0" recordCount="3.0"/>
										<ScoreDistribution value="1" recordCount="3.0"/>
									</Node>
								</Node>
								<Node score="0" recordCount="10.0">
									<True/>
									<ScoreDistribution value="0" recordCount="10.0"/>
									<ScoreDistribution value="1" recordCount="0.0"/>
								</Node>
							</Node>
							<Node>
								<SimplePredicate field="double(float(CNT_CHILDREN))" operator="lessOrEqual" value="1.5"/>
								<Node>
									<SimplePredicate field="double(float(AGE))" operator="lessOrEqual" value="28.956164360046387"/>
									<Node>
										<SimplePredicate field="double(float(AMT_INCOME_TOTAL))" operator="lessOrEqual" value="154201.5"/>
										<Node score="0" recordCount="1662.0">
											<SimplePredicate field="double(float(continuous(encoder(FLAG_WORK_PHONE))))" operator="lessOrEqual" value="0.5"/>
											<ScoreDistribution value="0" recordCount="1254.0"/>
											<ScoreDistribution value="1" recordCount="408.0"/>
										</Node>
										<Node score="0" recordCount="702.0">
											<True/>
											<ScoreDistribution value="0" recordCount="525.0"/>
											<ScoreDistribution value="1" recordCount="177.0"/>
										</Node>
									</Node>
									<Node score="0" recordCount="388.0">
										<SimplePredicate field="double(float(DAYS_EMPLOYED))" operator="lessOrEqual" value="431.0"/>
										<ScoreDistribution value="0" recordCount="282.0"/>
										<ScoreDistribution value="1" recordCount="106.0"/>
									</Node>
									<Node score="0" recordCount="2641.0">
										<True/>
										<ScoreDistribution value="0" recordCount="1576.0"/>
										<ScoreDistribution value="1" recordCount="1065.0"/>
									</Node>
								</Node>
								<Node>
									<SimplePredicate field="double(float(AGE))" operator="lessOrEqual" value="41.53013610839844"/>
									<Node score="0" recordCount="15730.0">
										<SimplePredicate field="double(float(AMT_INCOME_TOTAL))" operator="lessOrEqual" value="199125.0"/>
										<ScoreDistribution value="0" recordCount="10818.0"/>
										<ScoreDistribution value="1" recordCount="4912.0"/>
									</Node>
									<Node score="0" recordCount="9783.0">
										<True/>
										<ScoreDistribution value="0" recordCount="5128.0"/>
										<ScoreDistribution value="1" recordCount="4655.0"/>
									</Node>
								</Node>
								<Node score="0" recordCount="8422.0">
									<SimplePredicate field="double(float(continuous(encoder(FLAG_WORK_PHONE))))" operator="lessOrEqual" value="0.5"/>
									<ScoreDistribution value="0" recordCount="5041.0"/>
									<ScoreDistribution value="1" recordCount="3381.0"/>
								</Node>
								<Node score="0" recordCount="1892.0">
									<True/>
									<ScoreDistribution value="0" recordCount="1126.0"/>
									<ScoreDistribution value="1" recordCount="766.0"/>
								</Node>
							</Node>
							<Node>
								<SimplePredicate field="double(float(AMT_INCOME_TOTAL))" operator="lessOrEqual" value="200250.0"/>
								<Node>
									<SimplePredicate field="double(float(AGE))" operator="lessOrEqual" value="45.35616493225098"/>
									<Node score="0" recordCount="7285.0">
										<SimplePredicate field="double(float(DAYS_EMPLOYED))" operator="lessOrEqual" value="2003.5"/>
										<ScoreDistribution value="0" recordCount="6169.0"/>
										<ScoreDistribution value="1" recordCount="1116.0"/>
									</Node>
									<Node score="0" recordCount="6394.0">
										<True/>
										<ScoreDistribution value="0" recordCount="4561.0"/>
										<ScoreDistribution value="1" recordCount="1833.0"/>
									</Node>
								</Node>
								<Node score="0" recordCount="97.0">
									<SimplePredicate field="double(float(continuous(encoder(FLAG_OWN_REALTY))))" operator="lessOrEqual" value="0.5"/>
									<ScoreDistribution value="0" recordCount="73.0"/>
									<ScoreDistribution value="1" recordCount="24.0"/>
								</Node>
								<Node score="0" recordCount="349.0">
									<True/>
									<ScoreDistribution value="0" recordCount="233.0"/>
									<ScoreDistribution value="1" recordCount="116.0"/>
								</Node>
							</Node>
							<Node>
								<SimplePredicate field="double(float(AMT_INCOME_TOTAL))" operator="lessOrEqual" value="307125.0"/>
								<Node score="0" recordCount="3740.0">
									<SimplePredicate field="double(float(AMT_INCOME_TOTAL))" operator="lessOrEqual" value="245250.0"/>
									<ScoreDistribution value="0" recordCount="2516.0"/>
									<ScoreDistribution value="1" recordCount="1224.0"/>
								</Node>
								<Node score="0" recordCount="2338.0">
									<True/>
									<ScoreDistribution value="0" recordCount="1502.0"/>
									<ScoreDistribution value="1" recordCount="836.0"/>
								</Node>
							</Node>
							<Node score="0" recordCount="650.0">
								<SimplePredicate field="double(float(continuous(encoder(FLAG_OWN_REALTY))))" operator="lessOrEqual" value="0.5"/>
								<ScoreDistribution value="0" recordCount="384.0"/>
								<ScoreDistribution value="1" recordCount="266.0"/>
							</Node>
							<Node score="0" recordCount="1814.0">
								<True/>
								<ScoreDistribution value="0" recordCount="959.0"/>
								<ScoreDistribution value="1" recordCount="855.0"/>
							</Node>
						</Node>
						<Node>
							<SimplePredicate field="double(float(AMT_INCOME_TOTAL))" operator="lessOrEqual" value="181575.0"/>
							<Node>
								<SimplePredicate field="double(float(AGE))" operator="lessOrEqual" value="63.93424606323242"/>
								<Node>
									<SimplePredicate field="double(float(CNT_CHILDREN))" operator="lessOrEqual" value="0.5"/>
									<Node>
										<SimplePredicate field="double(float(DAYS_EMPLOYED))" operator="lessOrEqual" value="2006.5"/>
										<Node>
											<SimplePredicate field="double(float(AMT_INCOME_TOTAL))" operator="lessOrEqual" value="90765.0"/>
											<Node score="0" recordCount="226.0">
												<SimplePredicate field="double(float(DAYS_EMPLOYED))" operator="lessOrEqual" value="298.0"/>
												<ScoreDistribution value="0" recordCount="161.0"/>
												<ScoreDistribution value="1" recordCount="65.0"/>
											</Node>
											<Node score="0" recordCount="1131.0">
												<True/>
												<ScoreDistribution value="0" recordCount="666.0"/>
												<ScoreDistribution value="1" recordCount="465.0"/>
											</Node>
										</Node>
										<Node score="0" recordCount="789.0">
											<SimplePredicate field="double(float(DAYS_EMPLOYED))" operator="lessOrEqual" value="276.0"/>
											<ScoreDistribution value="0" recordCount="508.0"/>
											<ScoreDistribution value="1" recordCount="281.0"/>
										</Node>
										<Node score="0" recordCount="5174.0">
											<True/>
											<ScoreDistribution value="0" recordCount="2636.0"/>
											<ScoreDistribution value="1" recordCount="2538.0"/>
										</Node>
									</Node>
									<Node>
										<SimplePredicate field="double(float(AMT_INCOME_TOTAL))" operator="lessOrEqual" value="97425.0"/>
										<Node score="0" recordCount="1238.0">
											<SimplePredicate field="double(float(continuous(encoder(FLAG_WORK_PHONE))))" operator="lessOrEqual" value="0.5"/>
											<ScoreDistribution value="0" recordCount="636.0"/>
											<ScoreDistribution value="1" recordCount="602.0"/>
										</Node>
										<Node score="0" recordCount="806.0">
											<True/>
											<ScoreDistribution value="0" recordCount="407.0"/>
											<ScoreDistribution value="1" recordCount="399.0"/>
										</Node>
									</Node>
									<Node score="1" recordCount="1228.0">
										<SimplePredicate field="double(float(AGE))" operator="lessOrEqual" value="51.124656677246094"/>
										<ScoreDistribution value="0" recordCount="453.0"/>
										<ScoreDistribution value="1" recordCount="775.0"/>
									</Node>
									<Node score="1" recordCount="7695.0">
										<True/>
										<ScoreDistribution value="0" recordCount="3205.0"/>
										<ScoreDistribution value="1" recordCount="4490.0"/>
									</Node>
								</Node>
								<Node>
									<SimplePredicate field="double(float(CNT_CHILDREN))" operator="lessOrEqual" value="1.5"/>
									<Node>
										<SimplePredicate field="double(float(DAYS_EMPLOYED))" operator="lessOrEqual" value="2011.0"/>
										<Node score="0" recordCount="115.0">
											<SimplePredicate field="double(float(continuous(encoder(FLAG_OWN_REALTY))))" operator="lessOrEqual" value="0.5"/>
											<ScoreDistribution value="0" recordCount="83.0"/>
											<ScoreDistribution value="1" recordCount="32.0"/>
										</Node>
										<Node score="0" recordCount="232.0">
											<True/>
											<ScoreDistribution value="0" recordCount="146.0"/>
											<ScoreDistribution value="1" recordCount="86.0"/>
										</Node>
									</Node>
									<Node score="1" recordCount="588.0">
										<SimplePredicate field="double(float(DAYS_EMPLOYED))" operator="lessOrEqual" value="11905.5"/>
										<ScoreDistribution value="0" recordCount="277.0"/>
										<ScoreDistribution value="1" recordCount="311.0"/>
									</Node>
									<Node score="0" recordCount="20.0">
										<True/>
										<ScoreDistribution value="0" recordCount="17.0"/>
										<ScoreDistribution value="1" recordCount="3.0"/>
									</Node>
								</Node>
								<Node>
									<SimplePredicate field="double(float(continuous(encoder(FLAG_WORK_PHONE))))" operator="lessOrEqual" value="0.5"/>
									<Node score="0" recordCount="64.0">
										<SimplePredicate field="double(float(DAYS_EMPLOYED))" operator="lessOrEqual" value="1050.5"/>
										<ScoreDistribution value="0" recordCount="46.0"/>
										<ScoreDistribution value="1" recordCount="18.0"/>
									</Node>
									<Node score="0" recordCount="85.0">
										<True/>
										<ScoreDistribution value="0" recordCount="48.0"/>
										<ScoreDistribution value="1" recordCount="37.0"/>
									</Node>
								</Node>
								<Node score="0" recordCount="12.0">
									<SimplePredicate field="double(float(AGE))" operator="lessOrEqual" value="50.63698768615723"/>
									<ScoreDistribution value="0" recordCount="9.0"/>
									<ScoreDistribution value="1" recordCount="3.0"/>
								</Node>
								<Node score="0" recordCount="14.0">
									<True/>
									<ScoreDistribution value="0" recordCount="13.0"/>
									<ScoreDistribution value="1" recordCount="1.0"/>
								</Node>
							</Node>
							<Node>
								<SimplePredicate field="double(float(continuous(encoder(FLAG_WORK_PHONE))))" operator="lessOrEqual" value="0.5"/>
								<Node>
									<SimplePredicate field="double(float(AGE))" operator="lessOrEqual" value="64.09452056884766"/>
									<Node>
										<SimplePredicate field="double(float(AGE))" operator="lessOrEqual" value="64.07397079467773"/>
										<Node score="1" recordCount="29.0">
											<SimplePredicate field="double(float(AGE))" operator="lessOrEqual" value="64.05479431152344"/>
											<ScoreDistribution value="0" recordCount="3.0"/>
											<ScoreDistribution value="1" recordCount="26.0"/>
										</Node>
										<Node score="0" recordCount="2.0">
											<True/>
											<ScoreDistribution value="0" recordCount="1.0"/>
											<ScoreDistribution value="1" recordCount="1.0"/>
										</Node>
									</Node>
									<Node score="1" recordCount="8.0">
										<True/>
										<ScoreDistribution value="0" recordCount="0.0"/>
										<ScoreDistribution value="1" recordCount="8.0"/>
									</Node>
								</Node>
								<Node score="0" recordCount="12.0">
									<SimplePredicate field="double(float(AGE))" operator="lessOrEqual" value="64.11643981933594"/>
									<ScoreDistribution value="0" recordCount="10.0"/>
									<ScoreDistribution value="1" recordCount="2.0"/>
								</Node>
								<Node score="1" recordCount="116.0">
									<SimplePredicate field="double(float(AMT_INCOME_TOTAL))" operator="lessOrEqual" value="139500.0"/>
									<ScoreDistribution value="0" recordCount="53.0"/>
									<ScoreDistribution value="1" recordCount="63.0"/>
								</Node>
								<Node score="1" recordCount="105.0">
									<True/>
									<ScoreDistribution value="0" recordCount="29.0"/>
									<ScoreDistribution value="1" recordCount="76.0"/>
								</Node>
							</Node>
							<Node>
								<SimplePredicate field="double(float(DAYS_EMPLOYED))" operator="lessOrEqual" value="2780.5"/>
								<Node>
									<SimplePredicate field="double(float(AMT_INCOME_TOTAL))" operator="lessOrEqual" value="168750.0"/>
									<Node score="0" recordCount="20.0">
										<SimplePredicate field="double(float(AGE))" operator="lessOrEqual" value="66.4315071105957"/>
										<ScoreDistribution value="0" recordCount="14.0"/>
										<ScoreDistribution value="1" recordCount="6.0"/>
									</Node>
									<Node score="0" recordCount="7.0">
										<True/>
										<ScoreDistribution value="0" recordCount="6.0"/>
										<ScoreDistribution value="1" recordCount="1.0"/>
									</Node>
								</Node>
								<Node score="1" recordCount="6.0">
									<True/>
									<ScoreDistribution value="0" recordCount="0.0"/>
									<ScoreDistribution value="1" recordCount="6.0"/>
								</Node>
							</Node>
							<Node score="0" recordCount="6.0">
								<SimplePredicate field="double(float(AGE))" operator="lessOrEqual" value="64.37123107910156"/>
								<ScoreDistribution value="0" recordCount="4.0"/>
								<ScoreDistribution value="1" recordCount="2.0"/>
							</Node>
							<Node score="1" recordCount="21.0">
								<SimplePredicate field="double(float(DAYS_EMPLOYED))" operator="lessOrEqual" value="9200.5"/>
								<ScoreDistribution value="0" recordCount="4.0"/>
								<ScoreDistribution value="1" recordCount="17.0"/>
							</Node>
							<Node score="0" recordCount="10.0">
								<True/>
								<ScoreDistribution value="0" recordCount="6.0"/>
								<ScoreDistribution value="1" recordCount="4.0"/>
							</Node>
						</Node>
						<Node>
							<SimplePredicate field="double(float(AGE))" operator="lessOrEqual" value="65.09041213989258"/>
							<Node>
								<SimplePredicate field="double(float(continuous(encoder(FLAG_OWN_REALTY))))" operator="lessOrEqual" value="0.5"/>
								<Node>
									<SimplePredicate field="double(float(DAYS_EMPLOYED))" operator="lessOrEqual" value="2230.5"/>
									<Node>
										<SimplePredicate field="double(float(continuous(encoder(FLAG_WORK_PHONE))))" operator="lessOrEqual" value="0.5"/>
										<Node score="0" recordCount="129.0">
											<SimplePredicate field="double(float(DAYS_EMPLOYED))" operator="lessOrEqual" value="347.5"/>
											<ScoreDistribution value="0" recordCount="74.0"/>
											<ScoreDistribution value="1" recordCount="55.0"/>
										</Node>
										<Node score="1" recordCount="840.0">
											<True/>
											<ScoreDistribution value="0" recordCount="349.0"/>
											<ScoreDistribution value="1" recordCount="491.0"/>
										</Node>
									</Node>
									<Node score="0" recordCount="46.0">
										<SimplePredicate field="double(float(DAYS_EMPLOYED))" operator="lessOrEqual" value="293.0"/>
										<ScoreDistribution value="0" recordCount="30.0"/>
										<ScoreDistribution value="1" recordCount="16.0"/>
									</Node>
									<Node score="1" recordCount="421.0">
										<True/>
										<ScoreDistribution value="0" recordCount="162.0"/>
										<ScoreDistribution value="1" recordCount="259.0"/>
									</Node>
								</Node>
								<Node>
									<SimplePredicate field="double(float(DAYS_EMPLOYED))" operator="lessOrEqual" value="2495.0"/>
									<Node score="1" recordCount="21.0">
										<SimplePredicate field="double(float(AMT_INCOME_TOTAL))" operator="lessOrEqual" value="220500.0"/>
										<ScoreDistribution value="0" recordCount="1.0"/>
										<ScoreDistribution value="1" recordCount="20.0"/>
									</Node>
									<Node score="1" recordCount="95.0">
										<True/>
										<ScoreDistribution value="0" recordCount="15.0"/>
										<ScoreDistribution value="1" recordCount="80.0"/>
									</Node>
								</Node>
								<Node score="1" recordCount="1449.0">
									<SimplePredicate field="double(float(AMT_INCOME_TOTAL))" operator="lessOrEqual" value="286875.0"/>
									<ScoreDistribution value="0" recordCount="472.0"/>
									<ScoreDistribution value="1" recordCount="977.0"/>
								</Node>
								<Node score="1" recordCount="714.0">
									<True/>
									<ScoreDistribution value="0" recordCount="156.0"/>
									<ScoreDistribution value="1" recordCount="558.0"/>
								</Node>
							</Node>
							<Node>
								<SimplePredicate field="double(float(DAYS_EMPLOYED))" operator="lessOrEqual" value="1821.5"/>
								<Node>
									<SimplePredicate field="double(float(DAYS_EMPLOYED))" operator="lessOrEqual" value="398.5"/>
									<Node score="1" recordCount="295.0">
										<SimplePredicate field="double(float(DAYS_EMPLOYED))" operator="lessOrEqual" value="186.0"/>
										<ScoreDistribution value="0" recordCount="142.0"/>
										<ScoreDistribution value="1" recordCount="153.0"/>
									</Node>
									<Node score="0" recordCount="553.0">
										<True/>
										<ScoreDistribution value="0" recordCount="324.0"/>
										<ScoreDistribution value="1" recordCount="229.0"/>
									</Node>
								</Node>
								<Node score="1" recordCount="47.0">
									<SimplePredicate field="double(float(DAYS_EMPLOYED))" operator="lessOrEqual" value="418.5"/>
									<ScoreDistribution value="0" recordCount="8.0"/>
									<ScoreDistribution value="1" recordCount="39.0"/>
								</Node>
								<Node score="1" recordCount="3101.0">
									<True/>
									<ScoreDistribution value="0" recordCount="1180.0"/>
									<ScoreDistribution value="1" recordCount="1921.0"/>
								</Node>
							</Node>
							<Node>
								<SimplePredicate field="double(float(continuous(encoder(FLAG_OWN_CAR))))" operator="lessOrEqual" value="0.5"/>
								<Node score="1" recordCount="4342.0">
									<SimplePredicate field="double(float(CNT_CHILDREN))" operator="lessOrEqual" value="0.5"/>
									<ScoreDistribution value="0" recordCount="1185.0"/>
									<ScoreDistribution value="1" recordCount="3157.0"/>
								</Node>
								<Node score="1" recordCount="176.0">
									<True/>
									<ScoreDistribution value="0" recordCount="69.0"/>
									<ScoreDistribution value="1" recordCount="107.0"/>
								</Node>
							</Node>
							<Node score="1" recordCount="189.0">
								<SimplePredicate field="double(float(DAYS_EMPLOYED))" operator="lessOrEqual" value="2005.5"/>
								<ScoreDistribution value="0" recordCount="77.0"/>
								<ScoreDistribution value="1" recordCount="112.0"/>
							</Node>
							<Node score="1" recordCount="3007.0">
								<True/>
								<ScoreDistribution value="0" recordCount="777.0"/>
								<ScoreDistribution value="1" recordCount="2230.0"/>
							</Node>
						</Node>
						<Node>
							<SimplePredicate field="double(float(AMT_INCOME_TOTAL))" operator="lessOrEqual" value="292500.0"/>
							<Node>
								<SimplePredicate field="double(float(continuous(encoder(FLAG_OWN_CAR))))" operator="lessOrEqual" value="0.5"/>
								<Node>
									<SimplePredicate field="double(float(DAYS_EMPLOYED))" operator="lessOrEqual" value="13441.0"/>
									<Node score="1" recordCount="26.0">
										<SimplePredicate field="double(float(DAYS_EMPLOYED))" operator="lessOrEqual" value="5428.5"/>
										<ScoreDistribution value="0" recordCount="7.0"/>
										<ScoreDistribution value="1" recordCount="19.0"/>
									</Node>
									<Node score="1" recordCount="6.0">
										<True/>
										<ScoreDistribution value="0" recordCount="0.0"/>
										<ScoreDistribution value="1" recordCount="6.0"/>
									</Node>
								</Node>
								<Node score="0" recordCount="4.0">
									<True/>
									<ScoreDistribution value="0" recordCount="4.0"/>
									<ScoreDistribution value="1" recordCount="0.0"/>
								</Node>
							</Node>
							<Node score="1" recordCount="14.0">
								<True/>
								<ScoreDistribution value="0" recordCount="0.0"/>
								<ScoreDistribution value="1" recordCount="14.0"/>
							</Node>
						</Node>
						<Node score="1" recordCount="14.0">
							<SimplePredicate field="double(float(AGE))" operator="lessOrEqual" value="65.78493118286133"/>
							<ScoreDistribution value="0" recordCount="0.0"/>
							<ScoreDistribution value="1" recordCount="14.0"/>
						</Node>
						<Node score="1" recordCount="10.0">
							<SimplePredicate field="double(float(AMT_INCOME_TOTAL))" operator="lessOrEqual" value="326250.0"/>
							<ScoreDistribution value="0" recordCount="2.0"/>
							<ScoreDistribution value="1" recordCount="8.0"/>
						</Node>
						<Node score="1" recordCount="21.0">
							<True/>
							<ScoreDistribution value="0" recordCount="3.0"/>
							<ScoreDistribution value="1" recordCount="18.0"/>
						</Node>
					</Node>
				</TreeModel>
			</Segment>
			<Segment id="2">
				<True/>
				<TreeModel functionName="classification" missingValueStrategy="nullPrediction">
					<MiningSchema>
						<MiningField name="double(float(AGE))"/>
						<MiningField name="double(float(CNT_CHILDREN))"/>
						<MiningField name="double(float(AMT_INCOME_TOTAL))"/>
						<MiningField name="double(float(DAYS_EMPLOYED))"/>
						<MiningField name="double(float(continuous(encoder(FLAG_WORK_PHONE))))"/>
						<MiningField name="double(float(continuous(encoder(FLAG_OWN_CAR))))"/>
						<MiningField name="double(float(continuous(encoder(FLAG_OWN_REALTY))))"/>
					</MiningSchema>
					<Node>
						<True/>
						<Node>
							<SimplePredicate field="double(float(CNT_CHILDREN))" operator="lessOrEqual" value="0.5"/>
							<Node>
								<SimplePredicate field="double(float(DAYS_EMPLOYED))" operator="lessOrEqual" value="2006.5"/>
								<Node>
									<SimplePredicate field="double(float(AGE))" operator="lessOrEqual" value="24.995890617370605"/>
									<Node>
										<SimplePredicate field="double(float(AGE))" operator="lessOrEqual" value="24.961644172668457"/>
										<Node>
											<SimplePredicate field="double(float(DAYS_EMPLOYED))" operator="lessOrEqual" value="484.0"/>
											<Node>
												<SimplePredicate field="double(float(DAYS_EMPLOYED))" operator="lessOrEqual" value="226.5"/>
												<Node score="0" recordCount="445.0">
													<SimplePredicate field="double(float(AGE))" operator="lessOrEqual" value="24.883562088012695"/>
													<ScoreDistribution value="0" recordCount="403.0"/>
													<ScoreDistribution value="1" recordCount="42.0"/>
												</Node>
												<Node score="0" recordCount="21.0">
													<True/>
													<ScoreDistribution value="0" recordCount="14.0"/>
													<ScoreDistribution value="1" recordCount="7.0"/>
												</Node>
											</Node>
											<Node score="0" recordCount="640.0">
												<SimplePredicate field="double(float(AMT_INCOME_TOTAL))" operator="lessOrEqual" value="297000.0"/>
												<ScoreDistribution value="0" recordCount="537.0"/>
												<ScoreDistribution value="1" recordCount="103.0"/>
											</Node>
											<Node score="1" recordCount="26.0">
												<True/>
												<ScoreDistribution value="0" recordCount="12.0"/>
												<ScoreDistribution value="1" recordCount="14.0"/>
											</Node>
										</Node>
										<Node>
											<SimplePredicate field="double(float(AMT_INCOME_TOTAL))" operator="lessOrEqual" value="102762.0"/>
											<Node score="0" recordCount="237.0">
												<SimplePredicate field="double(float(continuous(encoder(FLAG_WORK_PHONE))))" operator="lessOrEqual" value="0.5"/>
												<ScoreDistribution value="0" recordCount="225.0"/>
												<ScoreDistribution value="1" recordCount="12.0"/>
											</Node>
											<Node score="0" recordCount="63.0">
												<True/>
												<ScoreDistribution value="0" recordCount="52.0"/>
												<ScoreDistribution value="1" recordCount="11.0"/>
											</Node>
										</Node>
										<Node score="0" recordCount="72.0">
											<SimplePredicate field="double(float(AGE))" operator="lessOrEqual" value="22.167122840881348"/>
											<ScoreDistribution value="0" recordCount="61.0"/>
											<ScoreDistribution value="1" recordCount="11.0"/>
										</Node>
										<Node score="0" recordCount="2500.0">
											<True/>
											<ScoreDistribution value="0" recordCount="1845.0"/>
											<ScoreDistribution value="1" recordCount="655.0"/>
										</Node>
									</Node>
									<Node>
										<SimplePredicate field="double(float(AMT_INCOME_TOTAL))" operator="lessOrEqual" value="121500.0"/>
										<Node>
											<SimplePredicate field="double(float(DAYS_EMPLOYED))" operator="lessOrEqual" value="957.0"/>
											<Node score="0" recordCount="4.0">
												<SimplePredicate field="double(float(AGE))" operator="lessOrEqual" value="24.99315071105957"/>
												<ScoreDistribution value="0" recordCount="3.0"/>
												<ScoreDistribution value="1" recordCount="1.0"/>
											</Node>
											<Node score="0" recordCount="4.0">
												<True/>
												<ScoreDistribution value="0" recordCount="4.0"/>
												<ScoreDistribution value="1" recordCount="0.0"/>
											</Node>
										</Node>
										<Node score="1" recordCount="3.0">
											<True/>
											<ScoreDistribution value="0" recordCount="1.0"/>
											<ScoreDistribution value="1" recordCount="2.0"/>
										</Node>
									</Node>
									<Node score="0" recordCount="39.0">
										<SimplePredicate field="double(float(DAYS_EMPLOYED))" operator="lessOrEqual" value="686.0"/>
										<ScoreDistribution value="0" recordCount="39.0"/>
										<ScoreDistribution value="1" recordCount="0.0"/>
									</Node>
									<Node score="0" recordCount="5.0">
										<SimplePredicate field="double(float(AGE))" operator="lessOrEqual" value="24.97397232055664"/>
										<ScoreDistribution value="0" recordCount="5.0"/>
										<ScoreDistribution value="1" recordCount="0.0"/>
									</Node>
									<Node score="0" recordCount="28.0">
										<True/>
										<ScoreDistribution value="0" recordCount="23.0"/>
										<ScoreDistribution value="1" recordCount="5.0"/>
									</Node>
								</Node>
								<Node>
									<SimplePredicate field="double(float(continuous(encoder(FLAG_OWN_CAR))))" operator="lessOrEqual" value="0.5"/>
									<Node>
										<SimplePredicate field="double(float(continuous(encoder(FLAG_WORK_PHONE))))" operator="lessOrEqual" value="0.5"/>
										<Node>
											<SimplePredicate field="double(float(DAYS_EMPLOYED))" operator="lessOrEqual" value="410.5"/>
											<Node score="0" recordCount="3450.0">
												<SimplePredicate field="double(float(AMT_INCOME_TOTAL))" operator="lessOrEqual" value="200250.0"/>
												<ScoreDistribution value="0" recordCount="2371.0"/>
												<ScoreDistribution value="1" recordCount="1079.0"/>
											</Node>
											<Node score="0" recordCount="1715.0">
												<True/>
												<ScoreDistribution value="0" recordCount="916.0"/>
												<ScoreDistribution value="1" recordCount="799.0"/>
											</Node>
										</Node>
										<Node score="0" recordCount="11600.0">
											<SimplePredicate field="double(float(DAYS_EMPLOYED))" operator="lessOrEqual" value="1299.5"/>
											<ScoreDistribution value="0" recordCount="6302.0"/>
											<ScoreDistribution value="1" recordCount="5298.0"/>
										</Node>
										<Node score="0" recordCount="7477.0">
											<True/>
											<ScoreDistribution value="0" recordCount="3863.0"/>
											<ScoreDistribution value="1" recordCount="3614.0"/>
										</Node>
									</Node>
									<Node>
										<SimplePredicate field="double(float(DAYS_EMPLOYED))" operator="lessOrEqual" value="371.5"/>
										<Node score="0" recordCount="670.0">
											<SimplePredicate field="double(float(DAYS_EMPLOYED))" operator="lessOrEqual" value="208.5"/>
											<ScoreDistribution value="0" recordCount="499.0"/>
											<ScoreDistribution value="1" recordCount="171.0"/>
										</Node>
										<Node score="0" recordCount="853.0">
											<True/>
											<ScoreDistribution value="0" recordCount="556.0"/>
											<ScoreDistribution value="1" recordCount="297.0"/>
										</Node>
									</Node>
									<Node score="0" recordCount="5737.0">
										<SimplePredicate field="double(float(AGE))" operator="lessOrEqual" value="49.20137023925781"/>
										<ScoreDistribution value="0" recordCount="3329.0"/>
										<ScoreDistribution value="1" recordCount="2408.0"/>
									</Node>
									<Node score="0" recordCount="1544.0">
										<True/>
										<ScoreDistribution value="0" recordCount="784.0"/>
										<ScoreDistribution value="1" recordCount="760.0"/>
									</Node>
								</Node>
								<Node>
									<SimplePredicate field="double(float(continuous(encoder(FLAG_OWN_REALTY))))" operator="lessOrEqual" value="0.5"/>
									<Node>
										<SimplePredicate field="double(float(continuous(encoder(FLAG_WORK_PHONE))))" operator="lessOrEqual" value="0.5"/>
										<Node score="0" recordCount="4031.0">
											<SimplePredicate field="double(float(AGE))" operator="lessOrEqual" value="51.02191734313965"/>
											<ScoreDistribution value="0" recordCount="2204.0"/>
											<ScoreDistribution value="1" recordCount="1827.0"/>
										</Node>
										<Node score="1" recordCount="691.0">
											<True/>
											<ScoreDistribution value="0" recordCount="314.0"/>
											<ScoreDistribution value="1" recordCount="377.0"/>
										</Node>
									</Node>
									<Node score="0" recordCount="1319.0">
										<SimplePredicate field="double(float(AMT_INCOME_TOTAL))" operator="lessOrEqual" value="193500.0"/>
										<ScoreDistribution value="0" recordCount="805.0"/>
										<ScoreDistribution value="1" recordCount="514.0"/>
									</Node>
									<Node score="1" recordCount="1208.0">
										<True/>
										<ScoreDistribution value="0" recordCount="548.0"/>
										<ScoreDistribution value="1" recordCount="660.0"/>
									</Node>
								</Node>
								<Node>
									<SimplePredicate field="double(float(AGE))" operator="lessOrEqual" value="50.01917839050293"/>
									<Node score="0" recordCount="5163.0">
										<SimplePredicate field="double(float(AGE))" operator="lessOrEqual" value="35.283559799194336"/>
										<ScoreDistribution value="0" recordCount="2991.0"/>
										<ScoreDistribution value="1" recordCount="2172.0"/>
									</Node>
									<Node score="0" recordCount="6263.0">
										<True/>
										<ScoreDistribution value="0" recordCount="3446.0"/>
										<ScoreDistribution value="1" recordCount="2817.0"/>
									</Node>
								</Node>
								<Node score="1" recordCount="17.0">
									<SimplePredicate field="double(float(AGE))" operator="lessOrEqual" value="50.08356285095215"/>
									<ScoreDistribution value="0" recordCount="3.0"/>
									<ScoreDistribution value="1" recordCount="14.0"/>
								</Node>
								<Node score="1" recordCount="3179.0">
									<True/>
									<ScoreDistribution value="0" recordCount="1427.0"/>
									<ScoreDistribution value="1" recordCount="1752.0"/>
								</Node>
							</Node>
							<Node>
								<SimplePredicate field="double(float(continuous(encoder(FLAG_WORK_PHONE))))" operator="lessOrEqual" value="0.5"/>
								<Node>
									<SimplePredicate field="double(float(DAYS_EMPLOYED))" operator="lessOrEqual" value="5614.5"/>
									<Node>
										<SimplePredicate field="double(float(AMT_INCOME_TOTAL))" operator="lessOrEqual" value="200250.0"/>
										<Node>
											<SimplePredicate field="double(float(AGE))" operator="lessOrEqual" value="49.73287773132324"/>
											<Node score="0" recordCount="7680.0">
												<SimplePredicate field="double(float(continuous(encoder(FLAG_OWN_CAR))))" operator="lessOrEqual" value="0.5"/>
												<ScoreDistribution value="0" recordCount="4058.0"/>
												<ScoreDistribution value="1" recordCount="3622.0"/>
											</Node>
											<Node score="0" recordCount="4095.0">
												<True/>
												<ScoreDistribution value="0" recordCount="2143.0"/>
												<ScoreDistribution value="1" recordCount="1952.0"/>
											</Node>
										</Node>
										<Node score="1" recordCount="3854.0">
											<SimplePredicate field="double(float(continuous(encoder(FLAG_OWN_CAR))))" operator="lessOrEqual" value="0.5"/>
											<ScoreDistribution value="0" recordCount="1636.0"/>
											<ScoreDistribution value="1" recordCount="2218.0"/>
										</Node>
										<Node score="1" recordCount="1608.0">
											<True/>
											<ScoreDistribution value="0" recordCount="701.0"/>
											<ScoreDistribution value="1" recordCount="907.0"/>
										</Node>
									</Node>
									<Node>
										<SimplePredicate field="double(float(DAYS_EMPLOYED))" operator="lessOrEqual" value="2013.5"/>
										<Node score="1" recordCount="23.0">
											<SimplePredicate field="double(float(DAYS_EMPLOYED))" operator="lessOrEqual" value="2009.5"/>
											<ScoreDistribution value="0" recordCount="1.0"/>
											<ScoreDistribution value="1" recordCount="22.0"/>
										</Node>
										<Node score="1" recordCount="40.0">
											<True/>
											<ScoreDistribution value="0" recordCount="8.0"/>
											<ScoreDistribution value="1" recordCount="32.0"/>
										</Node>
									</Node>
									<Node score="1" recordCount="9794.0">
										<SimplePredicate field="double(float(AMT_INCOME_TOTAL))" operator="lessOrEqual" value="308250.0"/>
										<ScoreDistribution value="0" recordCount="3604.0"/>
										<ScoreDistribution value="1" recordCount="6190.0"/>
									</Node>
									<Node score="1" recordCount="4260.0">
										<True/>
										<ScoreDistribution value="0" recordCount="1087.0"/>
										<ScoreDistribution value="1" recordCount="3173.0"/>
									</Node>
								</Node>
								<Node>
									<SimplePredicate field="double(float(AMT_INCOME_TOTAL))" operator="lessOrEqual" value="182250.0"/>
									<Node>
										<SimplePredicate field="double(float(AMT_INCOME_TOTAL))" operator="lessOrEqual" value="110250.0"/>
										<Node score="0" recordCount="312.0">
											<SimplePredicate field="double(float(continuous(encoder(FLAG_OWN_REALTY))))" operator="lessOrEqual" value="0.5"/>
											<ScoreDistribution value="0" recordCount="172.0"/>
											<ScoreDistribution value="1" recordCount="140.0"/>
										</Node>
										<Node score="0" recordCount="666.0">
											<True/>
											<ScoreDistribution value="0" recordCount="352.0"/>
											<ScoreDistribution value="1" recordCount="314.0"/>
										</Node>
									</Node>
									<Node score="1" recordCount="1089.0">
										<SimplePredicate field="double(float(continuous(encoder(FLAG_OWN_REALTY))))" operator="lessOrEqual" value="0.5"/>
										<ScoreDistribution value="0" recordCount="442.0"/>
										<ScoreDistribution value="1" recordCount="647.0"/>
									</Node>
									<Node score="1" recordCount="3230.0">
										<True/>
										<ScoreDistribution value="0" recordCount="1424.0"/>
										<ScoreDistribution value="1" recordCount="1806.0"/>
									</Node>
								</Node>
								<Node>
									<SimplePredicate field="double(float(AMT_INCOME_TOTAL))" operator="lessOrEqual" value="284850.0"/>
									<Node score="1" recordCount="3376.0">
										<SimplePredicate field="double(float(AMT_INCOME_TOTAL))" operator="lessOrEqual" value="281250.0"/>
										<ScoreDistribution value="0" recordCount="1152.0"/>
										<ScoreDistribution value="1" recordCount="2224.0"/>
									</Node>
									<Node score="0" recordCount="10.0">
										<True/>
										<ScoreDistribution value="0" recordCount="7.0"/>
										<ScoreDistribution value="1" recordCount="3.0"/>
									</Node>
								</Node>
								<Node score="1" recordCount="320.0">
									<SimplePredicate field="double(float(continuous(encoder(FLAG_OWN_REALTY))))" operator="lessOrEqual" value="0.5"/>
									<ScoreDistribution value="0" recordCount="93.0"/>
									<ScoreDistribution value="1" recordCount="227.0"/>
								</Node>
								<Node score="1" recordCount="1308.0">
									<True/>
									<ScoreDistribution value="0" recordCount="323.0"/>
									<ScoreDistribution value="1" recordCount="985.0"/>
								</Node>
							</Node>
							<Node>
								<SimplePredicate field="double(float(AGE))" operator="lessOrEqual" value="49.88767051696777"/>
								<Node>
									<SimplePredicate field="double(float(continuous(encoder(FLAG_OWN_CAR))))" operator="lessOrEqual" value="0.5"/>
									<Node>
										<SimplePredicate field="double(float(continuous(encoder(FLAG_OWN_REALTY))))" operator="lessOrEqual" value="0.5"/>
										<Node score="0" recordCount="634.0">
											<SimplePredicate field="double(float(AGE))" operator="lessOrEqual" value="34.31643867492676"/>
											<ScoreDistribution value="0" recordCount="342.0"/>
											<ScoreDistribution value="1" recordCount="292.0"/>
										</Node>
										<Node score="1" recordCount="2406.0">
											<True/>
											<ScoreDistribution value="0" recordCount="1129.0"/>
											<ScoreDistribution value="1" recordCount="1277.0"/>
										</Node>
									</Node>
									<Node score="1" recordCount="2335.0">
										<SimplePredicate field="double(float(DAYS_EMPLOYED))" operator="lessOrEqual" value="5242.5"/>
										<ScoreDistribution value="0" recordCount="1107.0"/>
										<ScoreDistribution value="1" recordCount="1228.0"/>
									</Node>
									<Node score="0" recordCount="782.0">
										<True/>
										<ScoreDistribution value="0" recordCount="405.0"/>
										<ScoreDistribution value="1" recordCount="377.0"/>
									</Node>
								</Node>
								<Node>
									<SimplePredicate field="double(float(DAYS_EMPLOYED))" operator="lessOrEqual" value="2133.5"/>
									<Node score="0" recordCount="128.0">
										<SimplePredicate field="double(float(AMT_INCOME_TOTAL))" operator="lessOrEqual" value="213750.0"/>
										<ScoreDistribution value="0" recordCount="91.0"/>
										<ScoreDistribution value="1" recordCount="37.0"/>
									</Node>
									<Node score="1" recordCount="63.0">
										<True/>
										<ScoreDistribution value="0" recordCount="18.0"/>
										<ScoreDistribution value="1" recordCount="45.0"/>
									</Node>
								</Node>
								<Node score="1" recordCount="1705.0">
									<SimplePredicate field="double(float(continuous(encoder(FLAG_OWN_REALTY))))" operator="lessOrEqual" value="0.5"/>
									<ScoreDistribution value="0" recordCount="718.0"/>
									<ScoreDistribution value="1" recordCount="987.0"/>
								</Node>
								<Node score="1" recordCount="1838.0">
									<True/>
									<ScoreDistribution value="0" recordCount="785.0"/>
									<ScoreDistribution value="1" recordCount="1053.0"/>
								</Node>
							</Node>
							<Node>
								<SimplePredicate field="double(float(AMT_INCOME_TOTAL))" operator="lessOrEqual" value="213750.0"/>
								<Node>
									<SimplePredicate field="double(float(continuous(encoder(FLAG_OWN_REALTY))))" operator="lessOrEqual" value="0.5"/>
									<Node score="0" recordCount="147.0">
										<SimplePredicate field="double(float(AMT_INCOME_TOTAL))" operator="lessOrEqual" value="78412.5"/>
										<ScoreDistribution value="0" recordCount="91.0"/>
										<ScoreDistribution value="1" recordCount="56.0"/>
									</Node>
									<Node score="1" recordCount="1377.0">
										<True/>
										<ScoreDistribution value="0" recordCount="543.0"/>
										<ScoreDistribution value="1" recordCount="834.0"/>
									</Node>
								</Node>
								<Node score="1" recordCount="1654.0">
									<SimplePredicate field="double(float(AMT_INCOME_TOTAL))" operator="lessOrEqual" value="177750.0"/>
									<ScoreDistribution value="0" recordCount="669.0"/>
									<ScoreDistribution value="1" recordCount="985.0"/>
								</Node>
								<Node score="1" recordCount="464.0">
									<True/>
									<ScoreDistribution value="0" recordCount="159.0"/>
									<ScoreDistribution value="1" recordCount="305.0"/>
								</Node>
							</Node>
							<Node>
								<SimplePredicate field="double(float(AMT_INCOME_TOTAL))" operator="lessOrEqual" value="283500.0"/>
								<Node score="1" recordCount="411.0">
									<SimplePredicate field="double(float(AGE))" operator="lessOrEqual" value="54.21780967712402"/>
									<ScoreDistribution value="0" recordCount="95.0"/>
									<ScoreDistribution value="1" recordCount="316.0"/>
								</Node>
								<Node score="1" recordCount="419.0">
									<True/>
									<ScoreDistribution value="0" recordCount="144.0"/>
									<ScoreDistribution value="1" recordCount="275.0"/>
								</Node>
							</Node>
							<Node score="1" recordCount="557.0">
								<SimplePredicate field="double(float(AGE))" operator="lessOrEqual" value="60.21232795715332"/>
								<ScoreDistribution value="0" recordCount="106.0"/>
								<ScoreDistribution value="1" recordCount="451.0"/>
							</Node>
							<Node score="1" recordCount="87.0">
								<True/>
								<ScoreDistribution value="0" recordCount="6.0"/>
								<ScoreDistribution value="1" recordCount="81.0"/>
							</Node>
						</Node>
						<Node>
							<SimplePredicate field="double(float(continuous(encoder(FLAG_WORK_PHONE))))" operator="lessOrEqual" value="0.5"/>
							<Node>
								<SimplePredicate field="double(float(DAYS_EMPLOYED))" operator="lessOrEqual" value="1996.5"/>
								<Node>
									<SimplePredicate field="double(float(DAYS_EMPLOYED))" operator="lessOrEqual" value="366.5"/>
									<Node>
										<SimplePredicate field="double(float(AMT_INCOME_TOTAL))" operator="lessOrEqual" value="200250.0"/>
										<Node>
											<SimplePredicate field="double(float(AMT_INCOME_TOTAL))" operator="lessOrEqual" value="101250.0"/>
											<Node score="0" recordCount="591.0">
												<SimplePredicate field="double(float(AGE))" operator="lessOrEqual" value="52.58767127990723"/>
												<ScoreDistribution value="0" recordCount="560.0"/>
												<ScoreDistribution value="1" recordCount="31.0"/>
											</Node>
											<Node score="0" recordCount="13.0">
												<True/>
												<ScoreDistribution value="0" recordCount="10.0"/>
												<ScoreDistribution value="1" recordCount="3.0"/>
											</Node>
										</Node>
										<Node score="0" recordCount="132.0">
											<SimplePredicate field="double(float(AGE))" operator="lessOrEqual" value="25.008219718933105"/>
											<ScoreDistribution value="0" recordCount="132.0"/>
											<ScoreDistribution value="1" recordCount="0.0"/>
										</Node>
										<Node score="0" recordCount="2470.0">
											<True/>
											<ScoreDistribution value="0" recordCount="2093.0"/>
											<ScoreDistribution value="1" recordCount="377.0"/>
										</Node>
									</Node>
									<Node score="1" recordCount="6.0">
										<SimplePredicate field="double(float(DAYS_EMPLOYED))" operator="lessOrEqual" value="29.5"/>
										<ScoreDistribution value="0" recordCount="1.0"/>
										<ScoreDistribution value="1" recordCount="5.0"/>
									</Node>
									<Node score="0" recordCount="823.0">
										<SimplePredicate field="double(float(continuous(encoder(FLAG_OWN_CAR))))" operator="lessOrEqual" value="0.5"/>
										<ScoreDistribution value="0" recordCount="588.0"/>
										<ScoreDistribution value="1" recordCount="235.0"/>
									</Node>
									<Node score="0" recordCount="1036.0">
										<True/>
										<ScoreDistribution value="0" recordCount="707.0"/>
										<ScoreDistribution value="1" recordCount="329.0"/>
									</Node>
								</Node>
								<Node>
									<SimplePredicate field="double(float(AGE))" operator="lessOrEqual" value="46.52191734313965"/>
									<Node>
										<SimplePredicate field="double(float(AMT_INCOME_TOTAL))" operator="lessOrEqual" value="200250.0"/>
										<Node score="0" recordCount="2339.0">
											<SimplePredicate field="double(float(AMT_INCOME_TOTAL))" operator="lessOrEqual" value="101250.0"/>
											<ScoreDistribution value="0" recordCount="2011.0"/>
											<ScoreDistribution value="1" recordCount="328.0"/>
										</Node>
										<Node score="0" recordCount="10506.0">
											<True/>
											<ScoreDistribution value="0" recordCount="7843.0"/>
											<ScoreDistribution value="1" recordCount="2663.0"/>
										</Node>
									</Node>
									<Node score="0" recordCount="5505.0">
										<SimplePredicate field="double(float(AMT_INCOME_TOTAL))" operator="lessOrEqual" value="299250.0"/>
										<ScoreDistribution value="0" recordCount="3608.0"/>
										<ScoreDistribution value="1" recordCount="1897.0"/>
									</Node>
									<Node score="0" recordCount="2050.0">
										<True/>
										<ScoreDistribution value="0" recordCount="1090.0"/>
										<ScoreDistribution value="1" recordCount="960.0"/>
									</Node>
								</Node>
								<Node>
									<SimplePredicate field="double(float(AMT_INCOME_TOTAL))" operator="lessOrEqual" value="198000.0"/>
									<Node score="0" recordCount="647.0">
										<SimplePredicate field="double(float(AGE))" operator="lessOrEqual" value="53.48630142211914"/>
										<ScoreDistribution value="0" recordCount="453.0"/>
										<ScoreDistribution value="1" recordCount="194.0"/>
									</Node>
									<Node score="0" recordCount="96.0">
										<True/>
										<ScoreDistribution value="0" recordCount="52.0"/>
										<ScoreDistribution value="1" recordCount="44.0"/>
									</Node>
								</Node>
								<Node score="0" recordCount="554.0">
									<SimplePredicate field="double(float(AMT_INCOME_TOTAL))" operator="lessOrEqual" value="297000.0"/>
									<ScoreDistribution value="0" recordCount="312.0"/>
									<ScoreDistribution value="1" recordCount="242.0"/>
								</Node>
								<Node score="1" recordCount="312.0">
									<True/>
									<ScoreDistribution value="0" recordCount="150.0"/>
									<ScoreDistribution value="1" recordCount="162.0"/>
								</Node>
							</Node>
							<Node>
								<SimplePredicate field="double(float(AGE))" operator="lessOrEqual" value="49.96027374267578"/>
								<Node>
									<SimplePredicate field="double(float(continuous(encoder(FLAG_OWN_CAR))))" operator="lessOrEqual" value="0.5"/>
									<Node>
										<SimplePredicate field="double(float(AMT_INCOME_TOTAL))" operator="lessOrEqual" value="199575.0"/>
										<Node score="0" recordCount="1552.0">
											<SimplePredicate field="double(float(AMT_INCOME_TOTAL))" operator="lessOrEqual" value="97200.0"/>
											<ScoreDistribution value="0" recordCount="1235.0"/>
											<ScoreDistribution value="1" recordCount="317.0"/>
										</Node>
										<Node score="0" recordCount="6176.0">
											<True/>
											<ScoreDistribution value="0" recordCount="3998.0"/>
											<ScoreDistribution value="1" recordCount="2178.0"/>
										</Node>
									</Node>
									<Node score="1" recordCount="3063.0">
										<SimplePredicate field="double(float(CNT_CHILDREN))" operator="lessOrEqual" value="1.5"/>
										<ScoreDistribution value="0" recordCount="1489.0"/>
										<ScoreDistribution value="1" recordCount="1574.0"/>
									</Node>
									<Node score="0" recordCount="1397.0">
										<True/>
										<ScoreDistribution value="0" recordCount="841.0"/>
										<ScoreDistribution value="1" recordCount="556.0"/>
									</Node>
								</Node>
								<Node>
									<SimplePredicate field="double(float(AMT_INCOME_TOTAL))" operator="lessOrEqual" value="200250.0"/>
									<Node score="0" recordCount="12.0">
										<SimplePredicate field="double(float(DAYS_EMPLOYED))" operator="lessOrEqual" value="2004.0"/>
										<ScoreDistribution value="0" recordCount="12.0"/>
										<ScoreDistribution value="1" recordCount="0.0"/>
									</Node>
									<Node score="0" recordCount="5439.0">
										<True/>
										<ScoreDistribution value="0" recordCount="3426.0"/>
										<ScoreDistribution value="1" recordCount="2013.0"/>
									</Node>
								</Node>
								<Node score="1" recordCount="3519.0">
									<SimplePredicate field="double(float(CNT_CHILDREN))" operator="lessOrEqual" value="1.5"/>
									<ScoreDistribution value="0" recordCount="1666.0"/>
									<ScoreDistribution value="1" recordCount="1853.0"/>
								</Node>
								<Node score="0" recordCount="2082.0">
									<True/>
									<ScoreDistribution value="0" recordCount="1208.0"/>
									<ScoreDistribution value="1" recordCount="874.0"/>
								</Node>
							</Node>
							<Node>
								<SimplePredicate field="double(float(AGE))" operator="lessOrEqual" value="59.97671318054199"/>
								<Node>
									<SimplePredicate field="double(float(AMT_INCOME_TOTAL))" operator="lessOrEqual" value="193500.0"/>
									<Node score="0" recordCount="453.0">
										<SimplePredicate field="double(float(CNT_CHILDREN))" operator="lessOrEqual" value="1.5"/>
										<ScoreDistribution value="0" recordCount="235.0"/>
										<ScoreDistribution value="1" recordCount="218.0"/>
									</Node>
									<Node score="0" recordCount="94.0">
										<True/>
										<ScoreDistribution value="0" recordCount="52.0"/>
										<ScoreDistribution value="1" recordCount="42.0"/>
									</Node>
								</Node>
								<Node score="1" recordCount="487.0">
									<SimplePredicate field="double(float(CNT_CHILDREN))" operator="lessOrEqual" value="1.5"/>
									<ScoreDistribution value="0" recordCount="153.0"/>
									<ScoreDistribution value="1" recordCount="334.0"/>
								</Node>
								<Node score="1" recordCount="115.0">
									<True/>
									<ScoreDistribution value="0" recordCount="52.0"/>
									<ScoreDistribution value="1" recordCount="63.0"/>
								</Node>
							</Node>
							<Node score="0" recordCount="6.0">
								<SimplePredicate field="double(float(continuous(encoder(FLAG_OWN_REALTY))))" operator="lessOrEqual" value="0.5"/>
								<ScoreDistribution value="0" recordCount="3.0"/>
								<ScoreDistribution value="1" recordCount="3.0"/>
							</Node>
							<Node score="0" recordCount="6.0">
								<SimplePredicate field="double(float(continuous(encoder(FLAG_OWN_CAR))))" operator="lessOrEqual" value="0.5"/>
								<ScoreDistribution value="0" recordCount="5.0"/>
								<ScoreDistribution value="1" recordCount="1.0"/>
							</Node>
							<Node score="0" recordCount="3.0">
								<True/>
								<ScoreDistribution value="0" recordCount="3.0"/>
								<ScoreDistribution value="1" recordCount="0.0"/>
							</Node>
						</Node>
						<Node>
							<SimplePredicate field="double(float(AMT_INCOME_TOTAL))" operator="lessOrEqual" value="199125.0"/>
							<Node>
								<SimplePredicate field="double(float(DAYS_EMPLOYED))" operator="lessOrEqual" value="2403.5"/>
								<Node>
									<SimplePredicate field="double(float(AGE))" operator="lessOrEqual" value="25.26301383972168"/>
									<Node>
										<SimplePredicate field="double(float(DAYS_EMPLOYED))" operator="lessOrEqual" value="2112.0"/>
										<Node score="0" recordCount="116.0">
											<SimplePredicate field="double(float(AGE))" operator="lessOrEqual" value="23.8671236038208"/>
											<ScoreDistribution value="0" recordCount="115.0"/>
											<ScoreDistribution value="1" recordCount="1.0"/>
										</Node>
										<Node score="0" recordCount="140.0">
											<True/>
											<ScoreDistribution value="0" recordCount="128.0"/>
											<ScoreDistribution value="1" recordCount="12.0"/>
										</Node>
									</Node>
									<Node score="0" recordCount="4.0">
										<True/>
										<ScoreDistribution value="0" recordCount="2.0"/>
										<ScoreDistribution value="1" recordCount="2.0"/>
									</Node>
								</Node>
								<Node>
									<SimplePredicate field="double(float(continuous(encoder(FLAG_OWN_REALTY))))" operator="lessOrEqual" value="0.5"/>
									<Node score="0" recordCount="1636.0">
										<SimplePredicate field="double(float(CNT_CHILDREN))" operator="lessOrEqual" value="1.5"/>
										<ScoreDistribution value="0" recordCount="1224.0"/>
										<ScoreDistribution value="1" recordCount="412.0"/>
									</Node>
									<Node score="0" recordCount="1096.0">
										<True/>
										<ScoreDistribution value="0" recordCount="924.0"/>
										<ScoreDistribution value="1" recordCount="172.0"/>
									</Node>
								</Node>
								<Node score="0" recordCount="3703.0">
									<SimplePredicate field="double(float(AGE))" operator="lessOrEqual" value="49.55068397521973"/>
									<ScoreDistribution value="0" recordCount="2879.0"/>
									<ScoreDistribution value="1" recordCount="824.0"/>
								</Node>
								<Node score="0" recordCount="104.0">
									<True/>
									<ScoreDistribution value="0" recordCount="68.0"/>
									<ScoreDistribution value="1" recordCount="36.0"/>
								</Node>
							</Node>
							<Node>
								<SimplePredicate field="double(float(continuous(encoder(FLAG_OWN_CAR))))" operator="lessOrEqual" value="0.5"/>
								<Node>
									<SimplePredicate field="double(float(AMT_INCOME_TOTAL))" operator="lessOrEqual" value="110250.0"/>
									<Node score="0" recordCount="278.0">
										<SimplePredicate field="double(float(continuous(encoder(FLAG_OWN_REALTY))))" operator="lessOrEqual" value="0.5"/>
										<ScoreDistribution value="0" recordCount="200.0"/>
										<ScoreDistribution value="1" recordCount="78.0"/>
									</Node>
									<Node score="0" recordCount="575.0">
										<True/>
										<ScoreDistribution value="0" recordCount="418.0"/>
										<ScoreDistribution value="1" recordCount="157.0"/>
									</Node>
								</Node>
								<Node score="0" recordCount="44.0">
									<SimplePredicate field="double(float(AGE))" operator="lessOrEqual" value="27.441096305847168"/>
									<ScoreDistribution value="0" recordCount="39.0"/>
									<ScoreDistribution value="1" recordCount="5.0"/>
								</Node>
								<Node score="0" recordCount="1713.0">
									<True/>
									<ScoreDistribution value="0" recordCount="1062.0"/>
									<ScoreDistribution value="1" recordCount="651.0"/>
								</Node>
							</Node>
							<Node>
								<SimplePredicate field="double(float(CNT_CHILDREN))" operator="lessOrEqual" value="1.5"/>
								<Node score="1" recordCount="139.0">
									<SimplePredicate field="double(float(AGE))" operator="lessOrEqual" value="30.293150901794434"/>
									<ScoreDistribution value="0" recordCount="62.0"/>
									<ScoreDistribution value="1" recordCount="77.0"/>
								</Node>
								<Node score="0" recordCount="802.0">
									<True/>
									<ScoreDistribution value="0" recordCount="479.0"/>
									<ScoreDistribution value="1" recordCount="323.0"/>
								</Node>
							</Node>
							<Node score="0" recordCount="303.0">
								<SimplePredicate field="double(float(DAYS_EMPLOYED))" operator="lessOrEqual" value="4070.5"/>
								<ScoreDistribution value="0" recordCount="202.0"/>
								<ScoreDistribution value="1" recordCount="101.0"/>
							</Node>
							<Node score="0" recordCount="223.0">
								<True/>
								<ScoreDistribution value="0" recordCount="183.0"/>
								<ScoreDistribution value="1" recordCount="40.0"/>
							</Node>
						</Node>
						<Node>
							<SimplePredicate field="double(float(CNT_CHILDREN))" operator="lessOrEqual" value="1.5"/>
							<Node>
								<SimplePredicate field="double(float(AMT_INCOME_TOTAL))" operator="lessOrEqual" value="299250.0"/>
								<Node>
									<SimplePredicate field="double(float(continuous(encoder(FLAG_OWN_CAR))))" operator="lessOrEqual" value="0.5"/>
									<Node score="0" recordCount="54.0">
										<SimplePredicate field="double(float(AGE))" operator="lessOrEqual" value="27.15068531036377"/>
										<ScoreDistribution value="0" recordCount="41.0"/>
										<ScoreDistribution value="1" recordCount="13.0"/>
									</Node>
									<Node score="0" recordCount="779.0">
										<True/>
										<ScoreDistribution value="0" recordCount="412.0"/>
										<ScoreDistribution value="1" recordCount="367.0"/>
									</Node>
								</Node>
								<Node score="0" recordCount="219.0">
									<SimplePredicate field="double(float(AMT_INCOME_TOTAL))" operator="lessOrEqual" value="207000.0"/>
									<ScoreDistribution value="0" recordCount="143.0"/>
									<ScoreDistribution value="1" recordCount="76.0"/>
								</Node>
								<Node score="0" recordCount="845.0">
									<True/>
									<ScoreDistribution value="0" recordCount="457.0"/>
									<ScoreDistribution value="1" recordCount="388.0"/>
								</Node>
							</Node>
							<Node>
								<SimplePredicate field="double(float(continuous(encoder(FLAG_OWN_REALTY))))" operator="lessOrEqual" value="0.5"/>
								<Node score="1" recordCount="371.0">
									<SimplePredicate field="double(float(AGE))" operator="lessOrEqual" value="44.91369819641113"/>
									<ScoreDistribution value="0" recordCount="183.0"/>
									<ScoreDistribution value="1" recordCount="188.0"/>
								</Node>
								<Node score="1" recordCount="51.0">
									<True/>
									<ScoreDistribution value="0" recordCount="10.0"/>
									<ScoreDistribution value="1" recordCount="41.0"/>
								</Node>
							</Node>
							<Node score="0" recordCount="147.0">
								<SimplePredicate field="double(float(continuous(encoder(FLAG_OWN_CAR))))" operator="lessOrEqual" value="0.5"/>
								<ScoreDistribution value="0" recordCount="74.0"/>
								<ScoreDistribution value="1" recordCount="73.0"/>
							</Node>
							<Node score="1" recordCount="197.0">
								<True/>
								<ScoreDistribution value="0" recordCount="94.0"/>
								<ScoreDistribution value="1" recordCount="103.0"/>
							</Node>
						</Node>
						<Node>
							<SimplePredicate field="double(float(AMT_INCOME_TOTAL))" operator="lessOrEqual" value="373500.0"/>
							<Node>
								<SimplePredicate field="double(float(continuous(encoder(FLAG_OWN_CAR))))" operator="lessOrEqual" value="0.5"/>
								<Node score="0" recordCount="304.0">
									<SimplePredicate field="double(float(continuous(encoder(FLAG_OWN_REALTY))))" operator="lessOrEqual" value="0.5"/>
									<ScoreDistribution value="0" recordCount="209.0"/>
									<ScoreDistribution value="1" recordCount="95.0"/>
								</Node>
								<Node score="0" recordCount="295.0">
									<True/>
									<ScoreDistribution value="0" recordCount="209.0"/>
									<ScoreDistribution value="1" recordCount="86.0"/>
								</Node>
							</Node>
							<Node score="0" recordCount="382.0">
								<SimplePredicate field="double(float(continuous(encoder(FLAG_OWN_REALTY))))" operator="lessOrEqual" value="0.5"/>
								<ScoreDistribution value="0" recordCount="239.0"/>
								<ScoreDistribution value="1" recordCount="143.0"/>
							</Node>
							<Node score="0" recordCount="505.0">
								<True/>
								<ScoreDistribution value="0" recordCount="338.0"/>
								<ScoreDistribution value="1" recordCount="167.0"/>
							</Node>
						</Node>
						<Node>
							<SimplePredicate field="double(float(DAYS_EMPLOYED))" operator="lessOrEqual" value="2990.0"/>
							<Node score="0" recordCount="79.0">
								<SimplePredicate field="double(float(AMT_INCOME_TOTAL))" operator="lessOrEqual" value="459000.0"/>
								<ScoreDistribution value="0" recordCount="40.0"/>
								<ScoreDistribution value="1" recordCount="39.0"/>
							</Node>
							<Node score="0" recordCount="48.0">
								<True/>
								<ScoreDistribution value="0" recordCount="32.0"/>
								<ScoreDistribution value="1" recordCount="16.0"/>
							</Node>
						</Node>
						<Node score="1" recordCount="18.0">
							<SimplePredicate field="double(float(continuous(encoder(FLAG_OWN_REALTY))))" operator="lessOrEqual" value="0.5"/>
							<ScoreDistribution value="0" recordCount="5.0"/>
							<ScoreDistribution value="1" recordCount="13.0"/>
						</Node>
						<Node score="1" recordCount="28.0">
							<True/>
							<ScoreDistribution value="0" recordCount="10.0"/>
							<ScoreDistribution value="1" recordCount="18.0"/>
						</Node>
					</Node>
				</TreeModel>
			</Segment>
			<Segment id="3">
				<True/>
				<TreeModel functionName="classification" missingValueStrategy="nullPrediction">
					<MiningSchema>
						<MiningField name="double(float(AGE))"/>
						<MiningField name="double(float(CNT_CHILDREN))"/>
						<MiningField name="double(float(AMT_INCOME_TOTAL))"/>
						<MiningField name="double(float(DAYS_EMPLOYED))"/>
						<MiningField name="double(float(continuous(encoder(FLAG_WORK_PHONE))))"/>
						<MiningField name="double(float(continuous(encoder(FLAG_OWN_CAR))))"/>
						<MiningField name="double(float(continuous(encoder(FLAG_OWN_REALTY))))"/>
					</MiningSchema>
					<Node>
						<True/>
						<Node>
							<SimplePredicate field="double(float(CNT_CHILDREN))" operator="lessOrEqual" value="0.5"/>
							<Node>
								<SimplePredicate field="double(float(AGE))" operator="lessOrEqual" value="50.00410842895508"/>
								<Node>
									<SimplePredicate field="double(float(AMT_INCOME_TOTAL))" operator="lessOrEqual" value="201375.0"/>
									<Node>
										<SimplePredicate field="double(float(DAYS_EMPLOYED))" operator="lessOrEqual" value="1977.5"/>
										<Node>
											<SimplePredicate field="double(float(AGE))" operator="lessOrEqual" value="25.035616874694824"/>
											<Node>
												<SimplePredicate field="double(float(continuous(encoder(FLAG_OWN_REALTY))))" operator="lessOrEqual" value="0.5"/>
												<Node score="0" recordCount="181.0">
													<SimplePredicate field="double(float(DAYS_EMPLOYED))" operator="lessOrEqual" value="238.0"/>
													<ScoreDistribution value="0" recordCount="171.0"/>
													<ScoreDistribution value="1" recordCount="10.0"/>
												</Node>
												<Node score="0" recordCount="917.0">
													<True/>
													<ScoreDistribution value="0" recordCount="741.0"/>
													<ScoreDistribution value="1" recordCount="176.0"/>
												</Node>
											</Node>
											<Node score="0" recordCount="1514.0">
												<SimplePredicate field="double(float(DAYS_EMPLOYED))" operator="lessOrEqual" value="1297.5"/>
												<ScoreDistribution value="0" recordCount="1280.0"/>
												<ScoreDistribution value="1" recordCount="234.0"/>
											</Node>
											<Node score="0" recordCount="279.0">
												<True/>
												<ScoreDistribution value="0" recordCount="201.0"/>
												<ScoreDistribution value="1" recordCount="78.0"/>
											</Node>
										</Node>
										<Node>
											<SimplePredicate field="double(float(DAYS_EMPLOYED))" operator="lessOrEqual" value="365.5"/>
											<Node score="0" recordCount="1616.0">
												<SimplePredicate field="double(float(continuous(encoder(FLAG_OWN_REALTY))))" operator="lessOrEqual" value="0.5"/>
												<ScoreDistribution value="0" recordCount="1199.0"/>
												<ScoreDistribution value="1" recordCount="417.0"/>
											</Node>
											<Node score="0" recordCount="3043.0">
												<True/>
												<ScoreDistribution value="0" recordCount="2172.0"/>
												<ScoreDistribution value="1" recordCount="871.0"/>
											</Node>
										</Node>
										<Node score="0" recordCount="4534.0">
											<SimplePredicate field="double(float(DAYS_EMPLOYED))" operator="lessOrEqual" value="673.5"/>
											<ScoreDistribution value="0" recordCount="2697.0"/>
											<ScoreDistribution value="1" recordCount="1837.0"/>
										</Node>
										<Node score="0" recordCount="15981.0">
											<True/>
											<ScoreDistribution value="0" recordCount="9946.0"/>
											<ScoreDistribution value="1" recordCount="6035.0"/>
										</Node>
									</Node>
									<Node>
										<SimplePredicate field="double(float(AMT_INCOME_TOTAL))" operator="lessOrEqual" value="99675.0"/>
										<Node>
											<SimplePredicate field="double(float(AGE))" operator="lessOrEqual" value="25.96027374267578"/>
											<Node score="0" recordCount="4.0">
												<SimplePredicate field="double(float(continuous(encoder(FLAG_OWN_REALTY))))" operator="lessOrEqual" value="0.5"/>
												<ScoreDistribution value="0" recordCount="3.0"/>
												<ScoreDistribution value="1" recordCount="1.0"/>
											</Node>
											<Node score="0" recordCount="17.0">
												<True/>
												<ScoreDistribution value="0" recordCount="16.0"/>
												<ScoreDistribution value="1" recordCount="1.0"/>
											</Node>
										</Node>
										<Node score="0" recordCount="2817.0">
											<SimplePredicate field="double(float(continuous(encoder(FLAG_OWN_CAR))))" operator="lessOrEqual" value="0.5"/>
											<ScoreDistribution value="0" recordCount="1738.0"/>
											<ScoreDistribution value="1" recordCount="1079.0"/>
										</Node>
										<Node score="0" recordCount="912.0">
											<True/>
											<ScoreDistribution value="0" recordCount="529.0"/>
											<ScoreDistribution value="1" recordCount="383.0"/>
										</Node>
									</Node>
									<Node>
										<SimplePredicate field="double(float(AGE))" operator="lessOrEqual" value="27.052054405212402"/>
										<Node score="0" recordCount="314.0">
											<SimplePredicate field="double(float(DAYS_EMPLOYED))" operator="lessOrEqual" value="2761.0"/>
											<ScoreDistribution value="0" recordCount="173.0"/>
											<ScoreDistribution value="1" recordCount="141.0"/>
										</Node>
										<Node score="0" recordCount="61.0">
											<True/>
											<ScoreDistribution value="0" recordCount="44.0"/>
											<ScoreDistribution value="1" recordCount="17.0"/>
										</Node>
									</Node>
									<Node score="0" recordCount="16548.0">
										<SimplePredicate field="double(float(AMT_INCOME_TOTAL))" operator="lessOrEqual" value="180567.0"/>
										<ScoreDistribution value="0" recordCount="8294.0"/>
										<ScoreDistribution value="1" recordCount="8254.0"/>
									</Node>
									<Node score="1" recordCount="634.0">
										<True/>
										<ScoreDistribution value="0" recordCount="288.0"/>
										<ScoreDistribution value="1" recordCount="346.0"/>
									</Node>
								</Node>
								<Node>
									<SimplePredicate field="double(float(AMT_INCOME_TOTAL))" operator="lessOrEqual" value="295724.25"/>
									<Node>
										<SimplePredicate field="double(float(continuous(encoder(FLAG_OWN_REALTY))))" operator="lessOrEqual" value="0.5"/>
										<Node>
											<SimplePredicate field="double(float(DAYS_EMPLOYED))" operator="lessOrEqual" value="2003.5"/>
											<Node score="0" recordCount="2334.0">
												<SimplePredicate field="double(float(continuous(encoder(FLAG_OWN_CAR))))" operator="lessOrEqual" value="0.5"/>
												<ScoreDistribution value="0" recordCount="1205.0"/>
												<ScoreDistribution value="1" recordCount="1129.0"/>
											</Node>
											<Node score="0" recordCount="2036.0">
												<True/>
												<ScoreDistribution value="0" recordCount="1033.0"/>
												<ScoreDistribution value="1" recordCount="1003.0"/>
											</Node>
										</Node>
										<Node score="1" recordCount="3405.0">
											<SimplePredicate field="double(float(DAYS_EMPLOYED))" operator="lessOrEqual" value="10516.0"/>
											<ScoreDistribution value="0" recordCount="1353.0"/>
											<ScoreDistribution value="1" recordCount="2052.0"/>
										</Node>
										<Node score="0" recordCount="10.0">
											<True/>
											<ScoreDistribution value="0" recordCount="8.0"/>
											<ScoreDistribution value="1" recordCount="2.0"/>
										</Node>
									</Node>
									<Node>
										<SimplePredicate field="double(float(continuous(encoder(FLAG_OWN_CAR))))" operator="lessOrEqual" value="0.5"/>
										<Node score="0" recordCount="4518.0">
											<SimplePredicate field="double(float(DAYS_EMPLOYED))" operator="lessOrEqual" value="2006.5"/>
											<ScoreDistribution value="0" recordCount="2398.0"/>
											<ScoreDistribution value="1" recordCount="2120.0"/>
										</Node>
										<Node score="1" recordCount="3821.0">
											<True/>
											<ScoreDistribution value="0" recordCount="1554.0"/>
											<ScoreDistribution value="1" recordCount="2267.0"/>
										</Node>
									</Node>
									<Node score="1" recordCount="6493.0">
										<SimplePredicate field="double(float(continuous(encoder(FLAG_WORK_PHONE))))" operator="lessOrEqual" value="0.5"/>
										<ScoreDistribution value="0" recordCount="3149.0"/>
										<ScoreDistribution value="1" recordCount="3344.0"/>
									</Node>
									<Node score="1" recordCount="1389.0">
										<True/>
										<ScoreDistribution value="0" recordCount="606.0"/>
										<ScoreDistribution value="1" recordCount="783.0"/>
									</Node>
								</Node>
								<Node>
									<SimplePredicate field="double(float(AMT_INCOME_TOTAL))" operator="lessOrEqual" value="356625.0"/>
									<Node>
										<SimplePredicate field="double(float(DAYS_EMPLOYED))" operator="lessOrEqual" value="1939.5"/>
										<Node score="1" recordCount="1563.0">
											<SimplePredicate field="double(float(continuous(encoder(FLAG_WORK_PHONE))))" operator="lessOrEqual" value="0.5"/>
											<ScoreDistribution value="0" recordCount="656.0"/>
											<ScoreDistribution value="1" recordCount="907.0"/>
										</Node>
										<Node score="1" recordCount="553.0">
											<True/>
											<ScoreDistribution value="0" recordCount="212.0"/>
											<ScoreDistribution value="1" recordCount="341.0"/>
										</Node>
									</Node>
									<Node score="0" recordCount="2.0">
										<SimplePredicate field="double(float(AGE))" operator="lessOrEqual" value="24.961644172668457"/>
										<ScoreDistribution value="0" recordCount="2.0"/>
										<ScoreDistribution value="1" recordCount="0.0"/>
									</Node>
									<Node score="1" recordCount="1993.0">
										<True/>
										<ScoreDistribution value="0" recordCount="542.0"/>
										<ScoreDistribution value="1" recordCount="1451.0"/>
									</Node>
								</Node>
								<Node score="0" recordCount="7.0">
									<SimplePredicate field="double(float(AMT_INCOME_TOTAL))" operator="lessOrEqual" value="358425.0"/>
									<ScoreDistribution value="0" recordCount="7.0"/>
									<ScoreDistribution value="1" recordCount="0.0"/>
								</Node>
								<Node score="0" recordCount="617.0">
									<SimplePredicate field="double(float(DAYS_EMPLOYED))" operator="lessOrEqual" value="528.5"/>
									<ScoreDistribution value="0" recordCount="339.0"/>
									<ScoreDistribution value="1" recordCount="278.0"/>
								</Node>
								<Node score="1" recordCount="4866.0">
									<True/>
									<ScoreDistribution value="0" recordCount="1688.0"/>
									<ScoreDistribution value="1" recordCount="3178.0"/>
								</Node>
							</Node>
							<Node>
								<SimplePredicate field="double(float(DAYS_EMPLOYED))" operator="lessOrEqual" value="2002.0"/>
								<Node>
									<SimplePredicate field="double(float(DAYS_EMPLOYED))" operator="lessOrEqual" value="284.0"/>
									<Node>
										<SimplePredicate field="double(float(continuous(encoder(FLAG_WORK_PHONE))))" operator="lessOrEqual" value="0.5"/>
										<Node>
											<SimplePredicate field="double(float(DAYS_EMPLOYED))" operator="lessOrEqual" value="61.5"/>
											<Node score="1" recordCount="8.0">
												<SimplePredicate field="double(float(AGE))" operator="lessOrEqual" value="59.28767013549805"/>
												<ScoreDistribution value="0" recordCount="0.0"/>
												<ScoreDistribution value="1" recordCount="8.0"/>
											</Node>
											<Node score="0" recordCount="5.0">
												<True/>
												<ScoreDistribution value="0" recordCount="3.0"/>
												<ScoreDistribution value="1" recordCount="2.0"/>
											</Node>
										</Node>
										<Node score="0" recordCount="1118.0">
											<SimplePredicate field="double(float(AMT_INCOME_TOTAL))" operator="lessOrEqual" value="258750.0"/>
											<ScoreDistribution value="0" recordCount="725.0"/>
											<ScoreDistribution value="1" recordCount="393.0"/>
										</Node>
										<Node score="1" recordCount="203.0">
											<True/>
											<ScoreDistribution value="0" recordCount="89.0"/>
											<ScoreDistribution value="1" recordCount="114.0"/>
										</Node>
									</Node>
									<Node>
										<SimplePredicate field="double(float(continuous(encoder(FLAG_OWN_CAR))))" operator="lessOrEqual" value="0.5"/>
										<Node score="0" recordCount="41.0">
											<SimplePredicate field="double(float(AGE))" operator="lessOrEqual" value="52.417808532714844"/>
											<ScoreDistribution value="0" recordCount="33.0"/>
											<ScoreDistribution value="1" recordCount="8.0"/>
										</Node>
										<Node score="0" recordCount="108.0">
											<True/>
											<ScoreDistribution value="0" recordCount="58.0"/>
											<ScoreDistribution value="1" recordCount="50.0"/>
										</Node>
									</Node>
									<Node score="1" recordCount="49.0">
										<SimplePredicate field="double(float(DAYS_EMPLOYED))" operator="lessOrEqual" value="175.5"/>
										<ScoreDistribution value="0" recordCount="18.0"/>
										<ScoreDistribution value="1" recordCount="31.0"/>
									</Node>
									<Node score="0" recordCount="74.0">
										<True/>
										<ScoreDistribution value="0" recordCount="43.0"/>
										<ScoreDistribution value="1" recordCount="31.0"/>
									</Node>
								</Node>
								<Node>
									<SimplePredicate field="double(float(AMT_INCOME_TOTAL))" operator="lessOrEqual" value="194625.0"/>
									<Node>
										<SimplePredicate field="double(float(DAYS_EMPLOYED))" operator="lessOrEqual" value="882.5"/>
										<Node score="1" recordCount="2304.0">
											<SimplePredicate field="double(float(DAYS_EMPLOYED))" operator="lessOrEqual" value="875.0"/>
											<ScoreDistribution value="0" recordCount="1110.0"/>
											<ScoreDistribution value="1" recordCount="1194.0"/>
										</Node>
										<Node score="1" recordCount="41.0">
											<True/>
											<ScoreDistribution value="0" recordCount="11.0"/>
											<ScoreDistribution value="1" recordCount="30.0"/>
										</Node>
									</Node>
									<Node score="0" recordCount="139.0">
										<SimplePredicate field="double(float(DAYS_EMPLOYED))" operator="lessOrEqual" value="913.0"/>
										<ScoreDistribution value="0" recordCount="92.0"/>
										<ScoreDistribution value="1" recordCount="47.0"/>
									</Node>
									<Node score="0" recordCount="4043.0">
										<True/>
										<ScoreDistribution value="0" recordCount="2120.0"/>
										<ScoreDistribution value="1" recordCount="1923.0"/>
									</Node>
								</Node>
								<Node>
									<SimplePredicate field="double(float(AMT_INCOME_TOTAL))" operator="lessOrEqual" value="299250.0"/>
									<Node score="1" recordCount="284.0">
										<SimplePredicate field="double(float(AGE))" operator="lessOrEqual" value="50.82328796386719"/>
										<ScoreDistribution value="0" recordCount="91.0"/>
										<ScoreDistribution value="1" recordCount="193.0"/>
									</Node>
									<Node score="1" recordCount="2982.0">
										<True/>
										<ScoreDistribution value="0" recordCount="1234.0"/>
										<ScoreDistribution value="1" recordCount="1748.0"/>
									</Node>
								</Node>
								<Node score="1" recordCount="1158.0">
									<SimplePredicate field="double(float(AGE))" operator="lessOrEqual" value="63.93698501586914"/>
									<ScoreDistribution value="0" recordCount="347.0"/>
									<ScoreDistribution value="1" recordCount="811.0"/>
								</Node>
								<Node score="0" recordCount="7.0">
									<True/>
									<ScoreDistribution value="0" recordCount="5.0"/>
									<ScoreDistribution value="1" recordCount="2.0"/>
								</Node>
							</Node>
							<Node>
								<SimplePredicate field="double(float(DAYS_EMPLOYED))" operator="lessOrEqual" value="13804.5"/>
								<Node>
									<SimplePredicate field="double(float(AMT_INCOME_TOTAL))" operator="lessOrEqual" value="194175.0"/>
									<Node>
										<SimplePredicate field="double(float(continuous(encoder(FLAG_OWN_REALTY))))" operator="lessOrEqual" value="0.5"/>
										<Node score="1" recordCount="821.0">
											<SimplePredicate field="double(float(DAYS_EMPLOYED))" operator="lessOrEqual" value="3031.0"/>
											<ScoreDistribution value="0" recordCount="380.0"/>
											<ScoreDistribution value="1" recordCount="441.0"/>
										</Node>
										<Node score="1" recordCount="2441.0">
											<True/>
											<ScoreDistribution value="0" recordCount="1028.0"/>
											<ScoreDistribution value="1" recordCount="1413.0"/>
										</Node>
									</Node>
									<Node score="1" recordCount="5788.0">
										<SimplePredicate field="double(float(continuous(encoder(FLAG_OWN_CAR))))" operator="lessOrEqual" value="0.5"/>
										<ScoreDistribution value="0" recordCount="2468.0"/>
										<ScoreDistribution value="1" recordCount="3320.0"/>
									</Node>
									<Node score="1" recordCount="2329.0">
										<True/>
										<ScoreDistribution value="0" recordCount="967.0"/>
										<ScoreDistribution value="1" recordCount="1362.0"/>
									</Node>
								</Node>
								<Node>
									<SimplePredicate field="double(float(AMT_INCOME_TOTAL))" operator="lessOrEqual" value="294750.0"/>
									<Node score="1" recordCount="4275.0">
										<SimplePredicate field="double(float(AMT_INCOME_TOTAL))" operator="lessOrEqual" value="268875.0"/>
										<ScoreDistribution value="0" recordCount="1271.0"/>
										<ScoreDistribution value="1" recordCount="3004.0"/>
									</Node>
									<Node score="1" recordCount="1562.0">
										<True/>
										<ScoreDistribution value="0" recordCount="426.0"/>
										<ScoreDistribution value="1" recordCount="1136.0"/>
									</Node>
								</Node>
								<Node score="1" recordCount="2218.0">
									<SimplePredicate field="double(float(continuous(encoder(FLAG_WORK_PHONE))))" operator="lessOrEqual" value="0.5"/>
									<ScoreDistribution value="0" recordCount="469.0"/>
									<ScoreDistribution value="1" recordCount="1749.0"/>
								</Node>
								<Node score="1" recordCount="445.0">
									<True/>
									<ScoreDistribution value="0" recordCount="61.0"/>
									<ScoreDistribution value="1" recordCount="384.0"/>
								</Node>
							</Node>
							<Node>
								<SimplePredicate field="double(float(AMT_INCOME_TOTAL))" operator="lessOrEqual" value="195750.0"/>
								<Node>
									<SimplePredicate field="double(float(AGE))" operator="lessOrEqual" value="62.19315147399902"/>
									<Node score="1" recordCount="12.0">
