<?xml version="1.0" encoding="UTF-8" standalone="yes"?>
<PMML xmlns="http://www.dmg.org/PMML-4_4" xmlns:data="http://jpmml.org/jpmml-model/InlineTable" version="4.3">
	<Header>
		<Application name="JPMML-SkLearn" version="1.6.4"/>
		<Timestamp>2020-07-31T12:42:16Z</Timestamp>
	</Header>
	<MiningBuildTask>
		<Extension>PMMLPipeline(steps=[('mapper', DataFrameMapper(features=[(['FLAG_OWN_CAR', 'FLAG_OWN_REALTY',
                            'FLAG_WORK_PHONE'],
                           OrdinalEncoder()),
                          (['CNT_CHILDREN', 'AMT_INCOME_TOTAL', 'AGE',
                            'DAYS_EMPLOYED'],
                           None)])),
       ('classifier', RandomForestClassifier(bootstrap=False, max_depth=7, min_samples_leaf=4,
                       min_samples_split=4, n_estimators=83))])</Extension>
	</MiningBuildTask>
	<DataDictionary>
		<DataField name="APPROVED" optype="categorical" dataType="integer">
			<Value value="0"/>
			<Value value="1"/>
		</DataField>
		<DataField name="FLAG_OWN_CAR" optype="categorical" dataType="integer">
			<Value value="0"/>
			<Value value="1"/>
		</DataField>
		<DataField name="FLAG_OWN_REALTY" optype="categorical" dataType="integer">
			<Value value="0"/>
			<Value value="1"/>
		</DataField>
		<DataField name="FLAG_WORK_PHONE" optype="categorical" dataType="integer">
			<Value value="0"/>
			<Value value="1"/>
		</DataField>
		<DataField name="CNT_CHILDREN" optype="continuous" dataType="double"/>
		<DataField name="AMT_INCOME_TOTAL" optype="continuous" dataType="double"/>
		<DataField name="AGE" optype="continuous" dataType="double"/>
		<DataField name="DAYS_EMPLOYED" optype="continuous" dataType="double"/>
	</DataDictionary>
	<TransformationDictionary/>
	<MiningModel functionName="classification">
		<MiningSchema>
			<MiningField name="APPROVED" usageType="target"/>
			<MiningField name="CNT_CHILDREN"/>
			<MiningField name="DAYS_EMPLOYED"/>
			<MiningField name="AGE"/>
			<MiningField name="AMT_INCOME_TOTAL"/>
			<MiningField name="FLAG_WORK_PHONE"/>
			<MiningField name="FLAG_OWN_REALTY"/>
			<MiningField name="FLAG_OWN_CAR"/>
		</MiningSchema>
		<Output>
			<OutputField name="probability(0)" optype="continuous" dataType="double" feature="probability" value="0"/>
			<OutputField name="probability(1)" optype="continuous" dataType="double" feature="probability" value="1"/>
		</Output>
		<LocalTransformations>
			<DerivedField name="encoder(FLAG_OWN_CAR)" optype="categorical" dataType="double">
				<MapValues outputColumn="data:output">
					<FieldColumnPair field="FLAG_OWN_CAR" column="data:input"/>
					<InlineTable>
						<row>
							<data:input>0</data:input>
							<data:output>0.0</data:output>
						</row>
						<row>
							<data:input>1</data:input>
							<data:output>1.0</data:output>
						</row>
					</InlineTable>
				</MapValues>
			</DerivedField>
			<DerivedField name="encoder(FLAG_OWN_REALTY)" optype="categorical" dataType="double">
				<MapValues outputColumn="data:output">
					<FieldColumnPair field="FLAG_OWN_REALTY" column="data:input"/>
					<InlineTable>
						<row>
							<data:input>0</data:input>
							<data:output>0.0</data:output>
						</row>
						<row>
							<data:input>1</data:input>
							<data:output>1.0</data:output>
						</row>
					</InlineTable>
				</MapValues>
			</DerivedField>
			<DerivedField name="encoder(FLAG_WORK_PHONE)" optype="categorical" dataType="double">
				<MapValues outputColumn="data:output">
					<FieldColumnPair field="FLAG_WORK_PHONE" column="data:input"/>
					<InlineTable>
						<row>
							<data:input>0</data:input>
							<data:output>0.0</data:output>
						</row>
						<row>
							<data:input>1</data:input>
							<data:output>1.0</data:output>
						</row>
					</InlineTable>
				</MapValues>
			</DerivedField>
			<DerivedField name="continuous(encoder(FLAG_OWN_CAR))" optype="continuous" dataType="double">
				<FieldRef field="encoder(FLAG_OWN_CAR)"/>
			</DerivedField>
			<DerivedField name="float(continuous(encoder(FLAG_OWN_CAR)))" optype="continuous" dataType="float">
				<FieldRef field="continuous(encoder(FLAG_OWN_CAR))"/>
			</DerivedField>
			<DerivedField name="continuous(encoder(FLAG_OWN_REALTY))" optype="continuous" dataType="double">
				<FieldRef field="encoder(FLAG_OWN_REALTY)"/>
			</DerivedField>
			<DerivedField name="float(continuous(encoder(FLAG_OWN_REALTY)))" optype="continuous" dataType="float">
				<FieldRef field="continuous(encoder(FLAG_OWN_REALTY))"/>
			</DerivedField>
			<DerivedField name="continuous(encoder(FLAG_WORK_PHONE))" optype="continuous" dataType="double">
				<FieldRef field="encoder(FLAG_WORK_PHONE)"/>
			</DerivedField>
			<DerivedField name="float(continuous(encoder(FLAG_WORK_PHONE)))" optype="continuous" dataType="float">
				<FieldRef field="continuous(encoder(FLAG_WORK_PHONE))"/>
			</DerivedField>
			<DerivedField name="float(CNT_CHILDREN)" optype="continuous" dataType="float">
				<FieldRef field="CNT_CHILDREN"/>
			</DerivedField>
			<DerivedField name="float(AMT_INCOME_TOTAL)" optype="continuous" dataType="float">
				<FieldRef field="AMT_INCOME_TOTAL"/>
			</DerivedField>
			<DerivedField name="float(AGE)" optype="continuous" dataType="float">
				<FieldRef field="AGE"/>
			</DerivedField>
			<DerivedField name="float(DAYS_EMPLOYED)" optype="continuous" dataType="float">
				<FieldRef field="DAYS_EMPLOYED"/>
			</DerivedField>
			<DerivedField name="double(float(CNT_CHILDREN))" optype="continuous" dataType="double">
				<FieldRef field="float(CNT_CHILDREN)"/>
			</DerivedField>
			<DerivedField name="double(float(DAYS_EMPLOYED))" optype="continuous" dataType="double">
				<FieldRef field="float(DAYS_EMPLOYED)"/>
			</DerivedField>
			<DerivedField name="double(float(continuous(encoder(FLAG_WORK_PHONE))))" optype="continuous" dataType="double">
				<FieldRef field="float(continuous(encoder(FLAG_WORK_PHONE)))"/>
			</DerivedField>
			<DerivedField name="double(float(AGE))" optype="continuous" dataType="double">
				<FieldRef field="float(AGE)"/>
			</DerivedField>
			<DerivedField name="double(float(continuous(encoder(FLAG_OWN_REALTY))))" optype="continuous" dataType="double">
				<FieldRef field="float(continuous(encoder(FLAG_OWN_REALTY)))"/>
			</DerivedField>
			<DerivedField name="double(float(continuous(encoder(FLAG_OWN_CAR))))" optype="continuous" dataType="double">
				<FieldRef field="float(continuous(encoder(FLAG_OWN_CAR)))"/>
			</DerivedField>
			<DerivedField name="double(float(AMT_INCOME_TOTAL))" optype="continuous" dataType="double">
				<FieldRef field="float(AMT_INCOME_TOTAL)"/>
			</DerivedField>
		</LocalTransformations>
		<Segmentation multipleModelMethod="average">
			<Segment id="1">
				<True/>
				<TreeModel functionName="classification" missingValueStrategy="nullPrediction">
					<MiningSchema>
						<MiningField name="double(float(CNT_CHILDREN))"/>
						<MiningField name="double(float(DAYS_EMPLOYED))"/>
						<MiningField name="double(float(continuous(encoder(FLAG_WORK_PHONE))))"/>
						<MiningField name="double(float(AGE))"/>
						<MiningField name="double(float(continuous(encoder(FLAG_OWN_REALTY))))"/>
						<MiningField name="double(float(continuous(encoder(FLAG_OWN_CAR))))"/>
						<MiningField name="double(float(AMT_INCOME_TOTAL))"/>
					</MiningSchema>
					<Node>
						<True/>
						<Node>
							<SimplePredicate field="double(float(CNT_CHILDREN))" operator="lessOrEqual" value="0.5"/>
							<Node>
								<SimplePredicate field="double(float(DAYS_EMPLOYED))" operator="lessOrEqual" value="1990.5"/>
								<Node>
									<SimplePredicate field="double(float(continuous(encoder(FLAG_WORK_PHONE))))" operator="lessOrEqual" value="0.5"/>
									<Node>
										<SimplePredicate field="double(float(AGE))" operator="lessOrEqual" value="30.143835067749023"/>
										<Node>
											<SimplePredicate field="double(float(AGE))" operator="lessOrEqual" value="23.461644172668457"/>
											<Node>
												<SimplePredicate field="double(float(AGE))" operator="lessOrEqual" value="23.405479431152344"/>
												<Node score="0" recordCount="360.0">
													<SimplePredicate field="double(float(continuous(encoder(FLAG_OWN_REALTY))))" operator="lessOrEqual" value="0.5"/>
													<ScoreDistribution value="0" recordCount="224.0"/>
													<ScoreDistribution value="1" recordCount="136.0"/>
												</Node>
												<Node score="0" recordCount="897.0">
													<True/>
													<ScoreDistribution value="0" recordCount="556.0"/>
													<ScoreDistribution value="1" recordCount="341.0"/>
												</Node>
											</Node>
											<Node score="0" recordCount="15.0">
												<SimplePredicate field="double(float(AGE))" operator="lessOrEqual" value="23.417808532714844"/>
												<ScoreDistribution value="0" recordCount="15.0"/>
												<ScoreDistribution value="1" recordCount="0.0"/>
											</Node>
											<Node score="0" recordCount="45.0">
												<True/>
												<ScoreDistribution value="0" recordCount="35.0"/>
												<ScoreDistribution value="1" recordCount="10.0"/>
											</Node>
										</Node>
										<Node>
											<SimplePredicate field="double(float(DAYS_EMPLOYED))" operator="lessOrEqual" value="396.5"/>
											<Node score="0" recordCount="1113.0">
												<SimplePredicate field="double(float(AGE))" operator="lessOrEqual" value="27.93972682952881"/>
												<ScoreDistribution value="0" recordCount="746.0"/>
												<ScoreDistribution value="1" recordCount="367.0"/>
											</Node>
											<Node score="0" recordCount="798.0">
												<True/>
												<ScoreDistribution value="0" recordCount="493.0"/>
												<ScoreDistribution value="1" recordCount="305.0"/>
											</Node>
										</Node>
										<Node score="0" recordCount="4265.0">
											<SimplePredicate field="double(float(continuous(encoder(FLAG_OWN_CAR))))" operator="lessOrEqual" value="0.5"/>
											<ScoreDistribution value="0" recordCount="2467.0"/>
											<ScoreDistribution value="1" recordCount="1798.0"/>
										</Node>
										<Node score="0" recordCount="3363.0">
											<True/>
											<ScoreDistribution value="0" recordCount="1788.0"/>
											<ScoreDistribution value="1" recordCount="1575.0"/>
										</Node>
									</Node>
									<Node>
										<SimplePredicate field="double(float(AMT_INCOME_TOTAL))" operator="lessOrEqual" value="198157.5"/>
										<Node>
											<SimplePredicate field="double(float(AGE))" operator="lessOrEqual" value="49.93287658691406"/>
											<Node score="0" recordCount="3716.0">
												<SimplePredicate field="double(float(continuous(encoder(FLAG_OWN_REALTY))))" operator="lessOrEqual" value="0.5"/>
												<ScoreDistribution value="0" recordCount="2053.0"/>
												<ScoreDistribution value="1" recordCount="1663.0"/>
											</Node>
											<Node score="0" recordCount="9510.0">
												<True/>
												<ScoreDistribution value="0" recordCount="4966.0"/>
												<ScoreDistribution value="1" recordCount="4544.0"/>
											</Node>
										</Node>
										<Node score="1" recordCount="1376.0">
											<SimplePredicate field="double(float(continuous(encoder(FLAG_OWN_REALTY))))" operator="lessOrEqual" value="0.5"/>
											<ScoreDistribution value="0" recordCount="628.0"/>
											<ScoreDistribution value="1" recordCount="748.0"/>
										</Node>
										<Node score="1" recordCount="4312.0">
											<True/>
											<ScoreDistribution value="0" recordCount="1890.0"/>
											<ScoreDistribution value="1" recordCount="2422.0"/>
										</Node>
									</Node>
									<Node>
										<SimplePredicate field="double(float(AMT_INCOME_TOTAL))" operator="lessOrEqual" value="247050.0"/>
										<Node score="1" recordCount="4406.0">
											<SimplePredicate field="double(float(AGE))" operator="lessOrEqual" value="50.09726142883301"/>
											<ScoreDistribution value="0" recordCount="1833.0"/>
											<ScoreDistribution value="1" recordCount="2573.0"/>
										</Node>
										<Node score="1" recordCount="1861.0">
											<True/>
											<ScoreDistribution value="0" recordCount="609.0"/>
											<ScoreDistribution value="1" recordCount="1252.0"/>
										</Node>
									</Node>
									<Node score="1" recordCount="7363.0">
										<SimplePredicate field="double(float(AMT_INCOME_TOTAL))" operator="lessOrEqual" value="519750.0"/>
										<ScoreDistribution value="0" recordCount="2705.0"/>
										<ScoreDistribution value="1" recordCount="4658.0"/>
									</Node>
									<Node score="1" recordCount="489.0">
										<True/>
										<ScoreDistribution value="0" recordCount="203.0"/>
										<ScoreDistribution value="1" recordCount="286.0"/>
									</Node>
								</Node>
								<Node>
									<SimplePredicate field="double(float(AGE))" operator="lessOrEqual" value="30.12328815460205"/>
									<Node>
										<SimplePredicate field="double(float(AMT_INCOME_TOTAL))" operator="lessOrEqual" value="178200.0"/>
										<Node>
											<SimplePredicate field="double(float(continuous(encoder(FLAG_OWN_CAR))))" operator="lessOrEqual" value="0.5"/>
											<Node score="0" recordCount="440.0">
												<SimplePredicate field="double(float(AMT_INCOME_TOTAL))" operator="lessOrEqual" value="109895.17578125"/>
												<ScoreDistribution value="0" recordCount="305.0"/>
												<ScoreDistribution value="1" recordCount="135.0"/>
											</Node>
											<Node score="0" recordCount="1266.0">
												<True/>
												<ScoreDistribution value="0" recordCount="772.0"/>
												<ScoreDistribution value="1" recordCount="494.0"/>
											</Node>
										</Node>
										<Node score="0" recordCount="112.0">
											<SimplePredicate field="double(float(AMT_INCOME_TOTAL))" operator="lessOrEqual" value="105750.0"/>
											<ScoreDistribution value="0" recordCount="85.0"/>
											<ScoreDistribution value="1" recordCount="27.0"/>
										</Node>
										<Node score="0" recordCount="697.0">
											<True/>
											<ScoreDistribution value="0" recordCount="459.0"/>
											<ScoreDistribution value="1" recordCount="238.0"/>
										</Node>
									</Node>
									<Node>
										<SimplePredicate field="double(float(DAYS_EMPLOYED))" operator="lessOrEqual" value="553.0"/>
										<Node score="0" recordCount="179.0">
											<SimplePredicate field="double(float(AMT_INCOME_TOTAL))" operator="lessOrEqual" value="224212.5"/>
											<ScoreDistribution value="0" recordCount="117.0"/>
											<ScoreDistribution value="1" recordCount="62.0"/>
										</Node>
										<Node score="0" recordCount="247.0">
											<True/>
											<ScoreDistribution value="0" recordCount="140.0"/>
											<ScoreDistribution value="1" recordCount="107.0"/>
										</Node>
									</Node>
									<Node score="0" recordCount="923.0">
										<SimplePredicate field="double(float(AMT_INCOME_TOTAL))" operator="lessOrEqual" value="331152.75"/>
										<ScoreDistribution value="0" recordCount="502.0"/>
										<ScoreDistribution value="1" recordCount="421.0"/>
									</Node>
									<Node score="1" recordCount="120.0">
										<True/>
										<ScoreDistribution value="0" recordCount="56.0"/>
										<ScoreDistribution value="1" recordCount="64.0"/>
									</Node>
								</Node>
								<Node>
									<SimplePredicate field="double(float(DAYS_EMPLOYED))" operator="lessOrEqual" value="367.5"/>
									<Node>
										<SimplePredicate field="double(float(continuous(encoder(FLAG_OWN_CAR))))" operator="lessOrEqual" value="0.5"/>
										<Node score="0" recordCount="1126.0">
											<SimplePredicate field="double(float(DAYS_EMPLOYED))" operator="lessOrEqual" value="345.5"/>
											<ScoreDistribution value="0" recordCount="634.0"/>
											<ScoreDistribution value="1" recordCount="492.0"/>
										</Node>
										<Node score="0" recordCount="65.0">
											<True/>
											<ScoreDistribution value="0" recordCount="44.0"/>
											<ScoreDistribution value="1" recordCount="21.0"/>
										</Node>
									</Node>
									<Node score="1" recordCount="45.0">
										<SimplePredicate field="double(float(AGE))" operator="lessOrEqual" value="31.087671279907227"/>
										<ScoreDistribution value="0" recordCount="15.0"/>
										<ScoreDistribution value="1" recordCount="30.0"/>
									</Node>
									<Node score="0" recordCount="650.0">
										<True/>
										<ScoreDistribution value="0" recordCount="335.0"/>
										<ScoreDistribution value="1" recordCount="315.0"/>
									</Node>
								</Node>
								<Node>
									<SimplePredicate field="double(float(AMT_INCOME_TOTAL))" operator="lessOrEqual" value="181575.0"/>
									<Node score="0" recordCount="2527.0">
										<SimplePredicate field="double(float(continuous(encoder(FLAG_OWN_REALTY))))" operator="lessOrEqual" value="0.5"/>
										<ScoreDistribution value="0" recordCount="1300.0"/>
										<ScoreDistribution value="1" recordCount="1227.0"/>
									</Node>
									<Node score="0" recordCount="3093.0">
										<True/>
										<ScoreDistribution value="0" recordCount="1566.0"/>
										<ScoreDistribution value="1" recordCount="1527.0"/>
									</Node>
								</Node>
								<Node score="1" recordCount="2674.0">
									<SimplePredicate field="double(float(DAYS_EMPLOYED))" operator="lessOrEqual" value="1615.5"/>
									<ScoreDistribution value="0" recordCount="1042.0"/>
									<ScoreDistribution value="1" recordCount="1632.0"/>
								</Node>
								<Node score="1" recordCount="684.0">
									<True/>
									<ScoreDistribution value="0" recordCount="226.0"/>
									<ScoreDistribution value="1" recordCount="458.0"/>
								</Node>
							</Node>
							<Node>
								<SimplePredicate field="double(float(DAYS_EMPLOYED))" operator="lessOrEqual" value="3124.5"/>
								<Node>
									<SimplePredicate field="double(float(continuous(encoder(FLAG_WORK_PHONE))))" operator="lessOrEqual" value="0.5"/>
									<Node>
										<SimplePredicate field="double(float(DAYS_EMPLOYED))" operator="lessOrEqual" value="3103.5"/>
										<Node>
											<SimplePredicate field="double(float(AMT_INCOME_TOTAL))" operator="lessOrEqual" value="200250.0"/>
											<Node score="1" recordCount="6859.0">
												<SimplePredicate field="double(float(DAYS_EMPLOYED))" operator="lessOrEqual" value="2891.5"/>
												<ScoreDistribution value="0" recordCount="2835.0"/>
												<ScoreDistribution value="1" recordCount="4024.0"/>
											</Node>
											<Node score="1" recordCount="1417.0">
												<True/>
												<ScoreDistribution value="0" recordCount="544.0"/>
												<ScoreDistribution value="1" recordCount="873.0"/>
											</Node>
										</Node>
										<Node score="1" recordCount="6453.0">
											<SimplePredicate field="double(float(DAYS_EMPLOYED))" operator="lessOrEqual" value="3071.0"/>
											<ScoreDistribution value="0" recordCount="1893.0"/>
											<ScoreDistribution value="1" recordCount="4560.0"/>
										</Node>
										<Node score="1" recordCount="232.0">
											<True/>
											<ScoreDistribution value="0" recordCount="52.0"/>
											<ScoreDistribution value="1" recordCount="180.0"/>
										</Node>
									</Node>
									<Node>
										<SimplePredicate field="double(float(AMT_INCOME_TOTAL))" operator="lessOrEqual" value="337500.0"/>
										<Node score="1" recordCount="104.0">
											<SimplePredicate field="double(float(AMT_INCOME_TOTAL))" operator="lessOrEqual" value="139500.0"/>
											<ScoreDistribution value="0" recordCount="49.0"/>
											<ScoreDistribution value="1" recordCount="55.0"/>
										</Node>
										<Node score="1" recordCount="177.0">
											<True/>
											<ScoreDistribution value="0" recordCount="60.0"/>
											<ScoreDistribution value="1" recordCount="117.0"/>
										</Node>
									</Node>
									<Node score="0" recordCount="20.0">
										<SimplePredicate field="double(float(AGE))" operator="lessOrEqual" value="39.2657527923584"/>
										<ScoreDistribution value="0" recordCount="16.0"/>
										<ScoreDistribution value="1" recordCount="4.0"/>
									</Node>
									<Node score="1" recordCount="8.0">
										<True/>
										<ScoreDistribution value="0" recordCount="3.0"/>
										<ScoreDistribution value="1" recordCount="5.0"/>
									</Node>
								</Node>
								<Node>
									<SimplePredicate field="double(float(AGE))" operator="lessOrEqual" value="49.93287658691406"/>
									<Node>
										<SimplePredicate field="double(float(AMT_INCOME_TOTAL))" operator="lessOrEqual" value="200250.0"/>
										<Node score="1" recordCount="1895.0">
											<SimplePredicate field="double(float(continuous(encoder(FLAG_OWN_CAR))))" operator="lessOrEqual" value="0.5"/>
											<ScoreDistribution value="0" recordCount="863.0"/>
											<ScoreDistribution value="1" recordCount="1032.0"/>
										</Node>
										<Node score="1" recordCount="816.0">
											<True/>
											<ScoreDistribution value="0" recordCount="357.0"/>
											<ScoreDistribution value="1" recordCount="459.0"/>
										</Node>
									</Node>
									<Node score="1" recordCount="306.0">
										<SimplePredicate field="double(float(AMT_INCOME_TOTAL))" operator="lessOrEqual" value="222750.0"/>
										<ScoreDistribution value="0" recordCount="114.0"/>
										<ScoreDistribution value="1" recordCount="192.0"/>
									</Node>
									<Node score="1" recordCount="1135.0">
										<True/>
										<ScoreDistribution value="0" recordCount="361.0"/>
										<ScoreDistribution value="1" recordCount="774.0"/>
									</Node>
								</Node>
								<Node>
									<SimplePredicate field="double(float(continuous(encoder(FLAG_OWN_CAR))))" operator="lessOrEqual" value="0.5"/>
									<Node score="1" recordCount="198.0">
										<SimplePredicate field="double(float(AMT_INCOME_TOTAL))" operator="lessOrEqual" value="101250.0"/>
										<ScoreDistribution value="0" recordCount="83.0"/>
										<ScoreDistribution value="1" recordCount="115.0"/>
									</Node>
									<Node score="1" recordCount="722.0">
										<True/>
										<ScoreDistribution value="0" recordCount="191.0"/>
										<ScoreDistribution value="1" recordCount="531.0"/>
									</Node>
								</Node>
								<Node score="1" recordCount="213.0">
									<SimplePredicate field="double(float(continuous(encoder(FLAG_OWN_REALTY))))" operator="lessOrEqual" value="0.5"/>
									<ScoreDistribution value="0" recordCount="50.0"/>
									<ScoreDistribution value="1" recordCount="163.0"/>
								</Node>
								<Node score="1" recordCount="192.0">
									<True/>
									<ScoreDistribution value="0" recordCount="55.0"/>
									<ScoreDistribution value="1" recordCount="137.0"/>
								</Node>
							</Node>
							<Node>
								<SimplePredicate field="double(float(AGE))" operator="lessOrEqual" value="49.99863052368164"/>
								<Node>
									<SimplePredicate field="double(float(AMT_INCOME_TOTAL))" operator="lessOrEqual" value="189675.0"/>
									<Node>
										<SimplePredicate field="double(float(continuous(encoder(FLAG_OWN_CAR))))" operator="lessOrEqual" value="0.5"/>
										<Node score="1" recordCount="4544.0">
											<SimplePredicate field="double(float(DAYS_EMPLOYED))" operator="lessOrEqual" value="5048.0"/>
											<ScoreDistribution value="0" recordCount="1979.0"/>
											<ScoreDistribution value="1" recordCount="2565.0"/>
										</Node>
										<Node score="1" recordCount="3699.0">
											<True/>
											<ScoreDistribution value="0" recordCount="1535.0"/>
											<ScoreDistribution value="1" recordCount="2164.0"/>
										</Node>
									</Node>
									<Node score="1" recordCount="30.0">
										<SimplePredicate field="double(float(DAYS_EMPLOYED))" operator="lessOrEqual" value="3130.5"/>
										<ScoreDistribution value="0" recordCount="4.0"/>
										<ScoreDistribution value="1" recordCount="26.0"/>
									</Node>
									<Node score="1" recordCount="3811.0">
										<True/>
										<ScoreDistribution value="0" recordCount="1578.0"/>
										<ScoreDistribution value="1" recordCount="2233.0"/>
									</Node>
								</Node>
								<Node>
									<SimplePredicate field="double(float(AGE))" operator="lessOrEqual" value="29.593151092529297"/>
									<Node score="1" recordCount="45.0">
										<SimplePredicate field="double(float(continuous(encoder(FLAG_OWN_REALTY))))" operator="lessOrEqual" value="0.5"/>
										<ScoreDistribution value="0" recordCount="18.0"/>
										<ScoreDistribution value="1" recordCount="27.0"/>
									</Node>
									<Node score="1" recordCount="108.0">
										<True/>
										<ScoreDistribution value="0" recordCount="53.0"/>
										<ScoreDistribution value="1" recordCount="55.0"/>
									</Node>
								</Node>
								<Node score="1" recordCount="8656.0">
									<SimplePredicate field="double(float(AGE))" operator="lessOrEqual" value="49.360273361206055"/>
									<ScoreDistribution value="0" recordCount="2567.0"/>
									<ScoreDistribution value="1" recordCount="6089.0"/>
								</Node>
								<Node score="1" recordCount="381.0">
									<True/>
									<ScoreDistribution value="0" recordCount="134.0"/>
									<ScoreDistribution value="1" recordCount="247.0"/>
								</Node>
							</Node>
							<Node>
								<SimplePredicate field="double(float(AGE))" operator="lessOrEqual" value="62.55342483520508"/>
								<Node>
									<SimplePredicate field="double(float(continuous(encoder(FLAG_OWN_REALTY))))" operator="lessOrEqual" value="0.5"/>
									<Node score="1" recordCount="3806.0">
										<SimplePredicate field="double(float(DAYS_EMPLOYED))" operator="lessOrEqual" value="14960.0"/>
										<ScoreDistribution value="0" recordCount="1077.0"/>
										<ScoreDistribution value="1" recordCount="2729.0"/>
									</Node>
									<Node score="1" recordCount="8.0">
										<True/>
										<ScoreDistribution value="0" recordCount="0.0"/>
										<ScoreDistribution value="1" recordCount="8.0"/>
									</Node>
								</Node>
								<Node score="1" recordCount="8214.0">
									<SimplePredicate field="double(float(continuous(encoder(FLAG_WORK_PHONE))))" operator="lessOrEqual" value="0.5"/>
									<ScoreDistribution value="0" recordCount="2227.0"/>
									<ScoreDistribution value="1" recordCount="5987.0"/>
								</Node>
								<Node score="1" recordCount="2082.0">
									<True/>
									<ScoreDistribution value="0" recordCount="572.0"/>
									<ScoreDistribution value="1" recordCount="1510.0"/>
								</Node>
							</Node>
							<Node>
								<SimplePredicate field="double(float(AMT_INCOME_TOTAL))" operator="lessOrEqual" value="137250.0"/>
								<Node score="1" recordCount="154.0">
									<SimplePredicate field="double(float(continuous(encoder(FLAG_WORK_PHONE))))" operator="lessOrEqual" value="0.5"/>
									<ScoreDistribution value="0" recordCount="49.0"/>
									<ScoreDistribution value="1" recordCount="105.0"/>
								</Node>
								<Node score="1" recordCount="56.0">
									<True/>
									<ScoreDistribution value="0" recordCount="16.0"/>
									<ScoreDistribution value="1" recordCount="40.0"/>
								</Node>
							</Node>
							<Node score="1" recordCount="295.0">
								<SimplePredicate field="double(float(AGE))" operator="lessOrEqual" value="63.92739677429199"/>
								<ScoreDistribution value="0" recordCount="59.0"/>
								<ScoreDistribution value="1" recordCount="236.0"/>
							</Node>
							<Node score="1" recordCount="249.0">
								<True/>
								<ScoreDistribution value="0" recordCount="36.0"/>
								<ScoreDistribution value="1" recordCount="213.0"/>
							</Node>
						</Node>
						<Node>
							<SimplePredicate field="double(float(AGE))" operator="lessOrEqual" value="29.99863052368164"/>
							<Node>
								<SimplePredicate field="double(float(AMT_INCOME_TOTAL))" operator="lessOrEqual" value="200250.0"/>
								<Node>
									<SimplePredicate field="double(float(AGE))" operator="lessOrEqual" value="29.420547485351562"/>
									<Node>
										<SimplePredicate field="double(float(CNT_CHILDREN))" operator="lessOrEqual" value="1.5"/>
										<Node>
											<SimplePredicate field="double(float(AMT_INCOME_TOTAL))" operator="lessOrEqual" value="105750.0"/>
											<Node score="0" recordCount="269.0">
												<SimplePredicate field="double(float(AGE))" operator="lessOrEqual" value="26.58493137359619"/>
												<ScoreDistribution value="0" recordCount="218.0"/>
												<ScoreDistribution value="1" recordCount="51.0"/>
											</Node>
											<Node score="0" recordCount="770.0">
												<True/>
												<ScoreDistribution value="0" recordCount="577.0"/>
												<ScoreDistribution value="1" recordCount="193.0"/>
											</Node>
										</Node>
										<Node score="0" recordCount="2176.0">
											<SimplePredicate field="double(float(continuous(encoder(FLAG_OWN_CAR))))" operator="lessOrEqual" value="0.5"/>
											<ScoreDistribution value="0" recordCount="1476.0"/>
											<ScoreDistribution value="1" recordCount="700.0"/>
										</Node>
										<Node score="0" recordCount="1572.0">
											<True/>
											<ScoreDistribution value="0" recordCount="1047.0"/>
											<ScoreDistribution value="1" recordCount="525.0"/>
										</Node>
									</Node>
									<Node>
										<SimplePredicate field="double(float(AMT_INCOME_TOTAL))" operator="lessOrEqual" value="101250.0"/>
										<Node score="0" recordCount="368.0">
											<SimplePredicate field="double(float(AGE))" operator="lessOrEqual" value="29.371232986450195"/>
											<ScoreDistribution value="0" recordCount="326.0"/>
											<ScoreDistribution value="1" recordCount="42.0"/>
										</Node>
										<Node score="0" recordCount="11.0">
											<True/>
											<ScoreDistribution value="0" recordCount="11.0"/>
											<ScoreDistribution value="1" recordCount="0.0"/>
										</Node>
									</Node>
									<Node score="0" recordCount="708.0">
										<SimplePredicate field="double(float(AGE))" operator="lessOrEqual" value="28.163013458251953"/>
										<ScoreDistribution value="0" recordCount="576.0"/>
										<ScoreDistribution value="1" recordCount="132.0"/>
									</Node>
									<Node score="0" recordCount="532.0">
										<True/>
										<ScoreDistribution value="0" recordCount="409.0"/>
										<ScoreDistribution value="1" recordCount="123.0"/>
									</Node>
								</Node>
								<Node>
									<SimplePredicate field="double(float(continuous(encoder(FLAG_OWN_CAR))))" operator="lessOrEqual" value="0.5"/>
									<Node>
										<SimplePredicate field="double(float(DAYS_EMPLOYED))" operator="lessOrEqual" value="2134.0"/>
										<Node score="0" recordCount="97.0">
											<SimplePredicate field="double(float(AMT_INCOME_TOTAL))" operator="lessOrEqual" value="92556.0"/>
											<ScoreDistribution value="0" recordCount="88.0"/>
											<ScoreDistribution value="1" recordCount="9.0"/>
										</Node>
										<Node score="0" recordCount="398.0">
											<True/>
											<ScoreDistribution value="0" recordCount="304.0"/>
											<ScoreDistribution value="1" recordCount="94.0"/>
										</Node>
									</Node>
									<Node score="0" recordCount="49.0">
										<SimplePredicate field="double(float(AGE))" operator="lessOrEqual" value="29.59999942779541"/>
										<ScoreDistribution value="0" recordCount="27.0"/>
										<ScoreDistribution value="1" recordCount="22.0"/>
									</Node>
									<Node score="0" recordCount="184.0">
										<True/>
										<ScoreDistribution value="0" recordCount="124.0"/>
										<ScoreDistribution value="1" recordCount="60.0"/>
									</Node>
								</Node>
								<Node>
									<SimplePredicate field="double(float(AMT_INCOME_TOTAL))" operator="lessOrEqual" value="102717.0"/>
									<Node score="0" recordCount="53.0">
										<SimplePredicate field="double(float(DAYS_EMPLOYED))" operator="lessOrEqual" value="3179.0"/>
										<ScoreDistribution value="0" recordCount="50.0"/>
										<ScoreDistribution value="1" recordCount="3.0"/>
									</Node>
									<Node score="0" recordCount="10.0">
										<True/>
										<ScoreDistribution value="0" recordCount="8.0"/>
										<ScoreDistribution value="1" recordCount="2.0"/>
									</Node>
								</Node>
								<Node score="0" recordCount="311.0">
									<SimplePredicate field="double(float(DAYS_EMPLOYED))" operator="lessOrEqual" value="2221.0"/>
									<ScoreDistribution value="0" recordCount="244.0"/>
									<ScoreDistribution value="1" recordCount="67.0"/>
								</Node>
								<Node score="0" recordCount="129.0">
									<True/>
									<ScoreDistribution value="0" recordCount="79.0"/>
									<ScoreDistribution value="1" recordCount="50.0"/>
								</Node>
							</Node>
							<Node>
								<SimplePredicate field="double(float(CNT_CHILDREN))" operator="lessOrEqual" value="1.5"/>
								<Node>
									<SimplePredicate field="double(float(continuous(encoder(FLAG_OWN_CAR))))" operator="lessOrEqual" value="0.5"/>
									<Node>
										<SimplePredicate field="double(float(continuous(encoder(FLAG_OWN_REALTY))))" operator="lessOrEqual" value="0.5"/>
										<Node score="0" recordCount="213.0">
											<SimplePredicate field="double(float(continuous(encoder(FLAG_WORK_PHONE))))" operator="lessOrEqual" value="0.5"/>
											<ScoreDistribution value="0" recordCount="117.0"/>
											<ScoreDistribution value="1" recordCount="96.0"/>
										</Node>
										<Node score="0" recordCount="179.0">
											<True/>
											<ScoreDistribution value="0" recordCount="116.0"/>
											<ScoreDistribution value="1" recordCount="63.0"/>
										</Node>
									</Node>
									<Node score="0" recordCount="30.0">
										<SimplePredicate field="double(float(AGE))" operator="lessOrEqual" value="24.469862937927246"/>
										<ScoreDistribution value="0" recordCount="25.0"/>
										<ScoreDistribution value="1" recordCount="5.0"/>
									</Node>
									<Node score="0" recordCount="623.0">
										<True/>
										<ScoreDistribution value="0" recordCount="365.0"/>
										<ScoreDistribution value="1" recordCount="258.0"/>
									</Node>
								</Node>
								<Node>
									<SimplePredicate field="double(float(DAYS_EMPLOYED))" operator="lessOrEqual" value="1768.5"/>
									<Node score="0" recordCount="188.0">
										<SimplePredicate field="double(float(DAYS_EMPLOYED))" operator="lessOrEqual" value="484.5"/>
										<ScoreDistribution value="0" recordCount="129.0"/>
										<ScoreDistribution value="1" recordCount="59.0"/>
									</Node>
									<Node score="0" recordCount="670.0">
										<True/>
										<ScoreDistribution value="0" recordCount="388.0"/>
										<ScoreDistribution value="1" recordCount="282.0"/>
									</Node>
								</Node>
								<Node score="1" recordCount="486.0">
									<SimplePredicate field="double(float(AGE))" operator="lessOrEqual" value="29.701370239257812"/>
									<ScoreDistribution value="0" recordCount="218.0"/>
									<ScoreDistribution value="1" recordCount="268.0"/>
								</Node>
								<Node score="0" recordCount="73.0">
									<True/>
									<ScoreDistribution value="0" recordCount="42.0"/>
									<ScoreDistribution value="1" recordCount="31.0"/>
								</Node>
							</Node>
							<Node>
								<SimplePredicate field="double(float(AMT_INCOME_TOTAL))" operator="lessOrEqual" value="303750.0"/>
								<Node>
									<SimplePredicate field="double(float(AGE))" operator="lessOrEqual" value="29.732876777648926"/>
									<Node score="0" recordCount="187.0">
										<SimplePredicate field="double(float(continuous(encoder(FLAG_OWN_REALTY))))" operator="lessOrEqual" value="0.5"/>
										<ScoreDistribution value="0" recordCount="119.0"/>
										<ScoreDistribution value="1" recordCount="68.0"/>
									</Node>
									<Node score="0" recordCount="322.0">
										<True/>
										<ScoreDistribution value="0" recordCount="213.0"/>
										<ScoreDistribution value="1" recordCount="109.0"/>
									</Node>
								</Node>
								<Node score="0" recordCount="69.0">
									<SimplePredicate field="double(float(AMT_INCOME_TOTAL))" operator="lessOrEqual" value="238500.0"/>
									<ScoreDistribution value="0" recordCount="57.0"/>
									<ScoreDistribution value="1" recordCount="12.0"/>
								</Node>
								<Node score="0" recordCount="13.0">
									<True/>
									<ScoreDistribution value="0" recordCount="9.0"/>
									<ScoreDistribution value="1" recordCount="4.0"/>
								</Node>
							</Node>
							<Node>
								<SimplePredicate field="double(float(DAYS_EMPLOYED))" operator="lessOrEqual" value="302.0"/>
								<Node score="0" recordCount="6.0">
									<SimplePredicate field="double(float(AGE))" operator="lessOrEqual" value="27.064383506774902"/>
									<ScoreDistribution value="0" recordCount="4.0"/>
									<ScoreDistribution value="1" recordCount="2.0"/>
								</Node>
								<Node score="0" recordCount="23.0">
									<True/>
									<ScoreDistribution value="0" recordCount="22.0"/>
									<ScoreDistribution value="1" recordCount="1.0"/>
								</Node>
							</Node>
							<Node score="0" recordCount="50.0">
								<SimplePredicate field="double(float(continuous(encoder(FLAG_OWN_CAR))))" operator="lessOrEqual" value="0.5"/>
								<ScoreDistribution value="0" recordCount="34.0"/>
								<ScoreDistribution value="1" recordCount="16.0"/>
							</Node>
							<Node score="0" recordCount="77.0">
								<True/>
								<ScoreDistribution value="0" recordCount="60.0"/>
								<ScoreDistribution value="1" recordCount="17.0"/>
							</Node>
						</Node>
						<Node>
							<SimplePredicate field="double(float(continuous(encoder(FLAG_WORK_PHONE))))" operator="lessOrEqual" value="0.5"/>
							<Node>
								<SimplePredicate field="double(float(AMT_INCOME_TOTAL))" operator="lessOrEqual" value="193950.0"/>
								<Node>
									<SimplePredicate field="double(float(CNT_CHILDREN))" operator="lessOrEqual" value="1.5"/>
									<Node>
										<SimplePredicate field="double(float(DAYS_EMPLOYED))" operator="lessOrEqual" value="1995.0"/>
										<Node score="0" recordCount="7676.0">
											<SimplePredicate field="double(float(AGE))" operator="lessOrEqual" value="48.04109573364258"/>
											<ScoreDistribution value="0" recordCount="4800.0"/>
											<ScoreDistribution value="1" recordCount="2876.0"/>
										</Node>
										<Node score="0" recordCount="552.0">
											<True/>
											<ScoreDistribution value="0" recordCount="307.0"/>
											<ScoreDistribution value="1" recordCount="245.0"/>
										</Node>
									</Node>
									<Node score="0" recordCount="7434.0">
										<SimplePredicate field="double(float(AGE))" operator="lessOrEqual" value="49.71232986450195"/>
										<ScoreDistribution value="0" recordCount="3817.0"/>
										<ScoreDistribution value="1" recordCount="3617.0"/>
									</Node>
									<Node score="1" recordCount="563.0">
										<True/>
										<ScoreDistribution value="0" recordCount="223.0"/>
										<ScoreDistribution value="1" recordCount="340.0"/>
									</Node>
								</Node>
								<Node>
									<SimplePredicate field="double(float(AGE))" operator="lessOrEqual" value="36.11232948303223"/>
									<Node score="0" recordCount="741.0">
										<SimplePredicate field="double(float(AMT_INCOME_TOTAL))" operator="lessOrEqual" value="101250.0"/>
										<ScoreDistribution value="0" recordCount="553.0"/>
										<ScoreDistribution value="1" recordCount="188.0"/>
									</Node>
									<Node score="0" recordCount="3371.0">
										<True/>
										<ScoreDistribution value="0" recordCount="2191.0"/>
										<ScoreDistribution value="1" recordCount="1180.0"/>
									</Node>
								</Node>
								<Node score="0" recordCount="166.0">
									<SimplePredicate field="double(float(AGE))" operator="lessOrEqual" value="36.31917762756348"/>
									<ScoreDistribution value="0" recordCount="130.0"/>
									<ScoreDistribution value="1" recordCount="36.0"/>
								</Node>
								<Node score="0" recordCount="4595.0">
									<True/>
									<ScoreDistribution value="0" recordCount="3171.0"/>
									<ScoreDistribution value="1" recordCount="1424.0"/>
								</Node>
							</Node>
							<Node>
								<SimplePredicate field="double(float(AMT_INCOME_TOTAL))" operator="lessOrEqual" value="731250.0"/>
								<Node>
									<SimplePredicate field="double(float(AGE))" operator="lessOrEqual" value="49.19452095031738"/>
									<Node score="1" recordCount="15970.0">
										<SimplePredicate field="double(float(AMT_INCOME_TOTAL))" operator="lessOrEqual" value="429750.0"/>
										<ScoreDistribution value="0" recordCount="7936.0"/>
										<ScoreDistribution value="1" recordCount="8034.0"/>
									</Node>
									<Node score="0" recordCount="1243.0">
										<True/>
										<ScoreDistribution value="0" recordCount="670.0"/>
										<ScoreDistribution value="1" recordCount="573.0"/>
									</Node>
								</Node>
								<Node score="1" recordCount="172.0">
									<SimplePredicate field="double(float(AGE))" operator="lessOrEqual" value="49.7780818939209"/>
									<ScoreDistribution value="0" recordCount="58.0"/>
									<ScoreDistribution value="1" recordCount="114.0"/>
								</Node>
								<Node score="1" recordCount="1028.0">
									<True/>
									<ScoreDistribution value="0" recordCount="412.0"/>
									<ScoreDistribution value="1" recordCount="616.0"/>
								</Node>
							</Node>
							<Node>
								<SimplePredicate field="double(float(AGE))" operator="lessOrEqual" value="40.02328872680664"/>
								<Node score="1" recordCount="39.0">
									<SimplePredicate field="double(float(AGE))" operator="lessOrEqual" value="37.68219184875488"/>
									<ScoreDistribution value="0" recordCount="15.0"/>
									<ScoreDistribution value="1" recordCount="24.0"/>
								</Node>
								<Node score="0" recordCount="19.0">
									<True/>
									<ScoreDistribution value="0" recordCount="14.0"/>
									<ScoreDistribution value="1" recordCount="5.0"/>
								</Node>
							</Node>
							<Node score="1" recordCount="16.0">
								<SimplePredicate field="double(float(AGE))" operator="lessOrEqual" value="40.632877349853516"/>
								<ScoreDistribution value="0" recordCount="2.0"/>
								<ScoreDistribution value="1" recordCount="14.0"/>
							</Node>
							<Node score="1" recordCount="107.0">
								<True/>
								<ScoreDistribution value="0" recordCount="37.0"/>
								<ScoreDistribution value="1" recordCount="70.0"/>
							</Node>
						</Node>
						<Node>
							<SimplePredicate field="double(float(DAYS_EMPLOYED))" operator="lessOrEqual" value="1304.5"/>
							<Node>
								<SimplePredicate field="double(float(continuous(encoder(FLAG_OWN_REALTY))))" operator="lessOrEqual" value="0.5"/>
								<Node>
									<SimplePredicate field="double(float(CNT_CHILDREN))" operator="lessOrEqual" value="1.5"/>
									<Node score="0" recordCount="555.0">
										<SimplePredicate field="double(float(continuous(encoder(FLAG_OWN_CAR))))" operator="lessOrEqual" value="0.5"/>
										<ScoreDistribution value="0" recordCount="360.0"/>
										<ScoreDistribution value="1" recordCount="195.0"/>
									</Node>
									<Node score="0" recordCount="482.0">
										<True/>
										<ScoreDistribution value="0" recordCount="295.0"/>
										<ScoreDistribution value="1" recordCount="187.0"/>
									</Node>
								</Node>
								<Node score="0" recordCount="42.0">
									<SimplePredicate field="double(float(DAYS_EMPLOYED))" operator="lessOrEqual" value="140.5"/>
									<ScoreDistribution value="0" recordCount="38.0"/>
									<ScoreDistribution value="1" recordCount="4.0"/>
								</Node>
								<Node score="0" recordCount="690.0">
									<True/>
									<ScoreDistribution value="0" recordCount="476.0"/>
									<ScoreDistribution value="1" recordCount="214.0"/>
								</Node>
							</Node>
							<Node>
								<SimplePredicate field="double(float(DAYS_EMPLOYED))" operator="lessOrEqual" value="367.5"/>
								<Node score="0" recordCount="142.0">
									<SimplePredicate field="double(float(AMT_INCOME_TOTAL))" operator="lessOrEqual" value="110250.0"/>
									<ScoreDistribution value="0" recordCount="117.0"/>
									<ScoreDistribution value="1" recordCount="25.0"/>
								</Node>
								<Node score="0" recordCount="522.0">
									<True/>
									<ScoreDistribution value="0" recordCount="384.0"/>
									<ScoreDistribution value="1" recordCount="138.0"/>
								</Node>
							</Node>
							<Node score="0" recordCount="397.0">
								<SimplePredicate field="double(float(AMT_INCOME_TOTAL))" operator="lessOrEqual" value="102375.0"/>
								<ScoreDistribution value="0" recordCount="301.0"/>
								<ScoreDistribution value="1" recordCount="96.0"/>
							</Node>
							<Node score="0" recordCount="1260.0">
								<True/>
								<ScoreDistribution value="0" recordCount="719.0"/>
								<ScoreDistribution value="1" recordCount="541.0"/>
							</Node>
						</Node>
						<Node>
							<SimplePredicate field="double(float(DAYS_EMPLOYED))" operator="lessOrEqual" value="2003.5"/>
							<Node>
								<SimplePredicate field="double(float(CNT_CHILDREN))" operator="lessOrEqual" value="1.5"/>
								<Node score="0" recordCount="820.0">
									<SimplePredicate field="double(float(AMT_INCOME_TOTAL))" operator="lessOrEqual" value="195750.0"/>
									<ScoreDistribution value="0" recordCount="478.0"/>
									<ScoreDistribution value="1" recordCount="342.0"/>
								</Node>
								<Node score="1" recordCount="378.0">
									<True/>
									<ScoreDistribution value="0" recordCount="169.0"/>
									<ScoreDistribution value="1" recordCount="209.0"/>
								</Node>
							</Node>
							<Node score="0" recordCount="697.0">
								<SimplePredicate field="double(float(CNT_CHILDREN))" operator="lessOrEqual" value="3.5"/>
								<ScoreDistribution value="0" recordCount="480.0"/>
								<ScoreDistribution value="1" recordCount="217.0"/>
							</Node>
							<Node score="1" recordCount="37.0">
								<True/>
								<ScoreDistribution value="0" recordCount="18.0"/>
								<ScoreDistribution value="1" recordCount="19.0"/>
							</Node>
						</Node>
						<Node>
							<SimplePredicate field="double(float(AGE))" operator="lessOrEqual" value="42.95753479003906"/>
							<Node score="0" recordCount="2936.0">
								<SimplePredicate field="double(float(CNT_CHILDREN))" operator="lessOrEqual" value="1.5"/>
								<ScoreDistribution value="0" recordCount="1488.0"/>
								<ScoreDistribution value="1" recordCount="1448.0"/>
							</Node>
							<Node score="0" recordCount="2132.0">
								<True/>
								<ScoreDistribution value="0" recordCount="1302.0"/>
								<ScoreDistribution value="1" recordCount="830.0"/>
							</Node>
						</Node>
						<Node score="1" recordCount="1108.0">
							<SimplePredicate field="double(float(CNT_CHILDREN))" operator="lessOrEqual" value="1.5"/>
							<ScoreDistribution value="0" recordCount="506.0"/>
							<ScoreDistribution value="1" recordCount="602.0"/>
						</Node>
						<Node score="0" recordCount="254.0">
							<True/>
							<ScoreDistribution value="0" recordCount="144.0"/>
							<ScoreDistribution value="1" recordCount="110.0"/>
						</Node>
					</Node>
				</TreeModel>
			</Segment>
			<Segment id="2">
				<True/>
				<TreeModel functionName="classification" missingValueStrategy="nullPrediction">
					<MiningSchema>
						<MiningField name="double(float(CNT_CHILDREN))"/>
						<MiningField name="double(float(DAYS_EMPLOYED))"/>
						<MiningField name="double(float(continuous(encoder(FLAG_WORK_PHONE))))"/>
						<MiningField name="double(float(AGE))"/>
						<MiningField name="double(float(continuous(encoder(FLAG_OWN_REALTY))))"/>
						<MiningField name="double(float(continuous(encoder(FLAG_OWN_CAR))))"/>
						<MiningField name="double(float(AMT_INCOME_TOTAL))"/>
					</MiningSchema>
					<Node>
						<True/>
						<Node>
							<SimplePredicate field="double(float(CNT_CHILDREN))" operator="lessOrEqual" value="0.5"/>
							<Node>
								<SimplePredicate field="double(float(continuous(encoder(FLAG_OWN_REALTY))))" operator="lessOrEqual" value="0.5"/>
								<Node>
									<SimplePredicate field="double(float(DAYS_EMPLOYED))" operator="lessOrEqual" value="1998.0"/>
									<Node>
										<SimplePredicate field="double(float(continuous(encoder(FLAG_OWN_CAR))))" operator="lessOrEqual" value="0.5"/>
										<Node>
											<SimplePredicate field="double(float(DAYS_EMPLOYED))" operator="lessOrEqual" value="359.5"/>
											<Node>
												<SimplePredicate field="double(float(AMT_INCOME_TOTAL))" operator="lessOrEqual" value="177156.0"/>
												<Node score="0" recordCount="431.0">
													<SimplePredicate field="double(float(AMT_INCOME_TOTAL))" operator="lessOrEqual" value="105075.0"/>
													<ScoreDistribution value="0" recordCount="310.0"/>
													<ScoreDistribution value="1" recordCount="121.0"/>
												</Node>
												<Node score="0" recordCount="976.0">
													<True/>
													<ScoreDistribution value="0" recordCount="595.0"/>
													<ScoreDistribution value="1" recordCount="381.0"/>
												</Node>
											</Node>
											<Node score="1" recordCount="481.0">
												<SimplePredicate field="double(float(continuous(encoder(FLAG_WORK_PHONE))))" operator="lessOrEqual" value="0.5"/>
												<ScoreDistribution value="0" recordCount="233.0"/>
												<ScoreDistribution value="1" recordCount="248.0"/>
											</Node>
											<Node score="0" recordCount="300.0">
												<True/>
												<ScoreDistribution value="0" recordCount="156.0"/>
												<ScoreDistribution value="1" recordCount="144.0"/>
											</Node>
										</Node>
										<Node>
											<SimplePredicate field="double(float(AMT_INCOME_TOTAL))" operator="lessOrEqual" value="200250.0"/>
											<Node score="0" recordCount="5082.0">
												<SimplePredicate field="double(float(AGE))" operator="lessOrEqual" value="47.50821876525879"/>
												<ScoreDistribution value="0" recordCount="2917.0"/>
												<ScoreDistribution value="1" recordCount="2165.0"/>
											</Node>
											<Node score="1" recordCount="1452.0">
												<True/>
												<ScoreDistribution value="0" recordCount="630.0"/>
												<ScoreDistribution value="1" recordCount="822.0"/>
											</Node>
										</Node>
										<Node score="1" recordCount="3016.0">
											<SimplePredicate field="double(float(AMT_INCOME_TOTAL))" operator="lessOrEqual" value="517500.0"/>
											<ScoreDistribution value="0" recordCount="1227.0"/>
											<ScoreDistribution value="1" recordCount="1789.0"/>
										</Node>
										<Node score="0" recordCount="46.0">
											<True/>
											<ScoreDistribution value="0" recordCount="23.0"/>
											<ScoreDistribution value="1" recordCount="23.0"/>
										</Node>
									</Node>
									<Node>
										<SimplePredicate field="double(float(AMT_INCOME_TOTAL))" operator="lessOrEqual" value="195750.0"/>
										<Node>
											<SimplePredicate field="double(float(DAYS_EMPLOYED))" operator="lessOrEqual" value="1230.0"/>
											<Node score="0" recordCount="372.0">
												<SimplePredicate field="double(float(AMT_INCOME_TOTAL))" operator="lessOrEqual" value="105750.0"/>
												<ScoreDistribution value="0" recordCount="246.0"/>
												<ScoreDistribution value="1" recordCount="126.0"/>
											</Node>
											<Node score="0" recordCount="2270.0">
												<True/>
												<ScoreDistribution value="0" recordCount="1273.0"/>
												<ScoreDistribution value="1" recordCount="997.0"/>
											</Node>
										</Node>
										<Node score="0" recordCount="493.0">
											<SimplePredicate field="double(float(AGE))" operator="lessOrEqual" value="30.99178123474121"/>
											<ScoreDistribution value="0" recordCount="298.0"/>
											<ScoreDistribution value="1" recordCount="195.0"/>
										</Node>
										<Node score="1" recordCount="902.0">
											<True/>
											<ScoreDistribution value="0" recordCount="444.0"/>
											<ScoreDistribution value="1" recordCount="458.0"/>
										</Node>
									</Node>
									<Node>
										<SimplePredicate field="double(float(DAYS_EMPLOYED))" operator="lessOrEqual" value="365.0"/>
										<Node score="0" recordCount="570.0">
											<SimplePredicate field="double(float(DAYS_EMPLOYED))" operator="lessOrEqual" value="359.0"/>
											<ScoreDistribution value="0" recordCount="298.0"/>
											<ScoreDistribution value="1" recordCount="272.0"/>
										</Node>
										<Node score="0" recordCount="30.0">
											<True/>
											<ScoreDistribution value="0" recordCount="22.0"/>
											<ScoreDistribution value="1" recordCount="8.0"/>
										</Node>
									</Node>
									<Node score="1" recordCount="539.0">
										<SimplePredicate field="double(float(AMT_INCOME_TOTAL))" operator="lessOrEqual" value="218250.0"/>
										<ScoreDistribution value="0" recordCount="210.0"/>
										<ScoreDistribution value="1" recordCount="329.0"/>
									</Node>
									<Node score="1" recordCount="2489.0">
										<True/>
										<ScoreDistribution value="0" recordCount="1049.0"/>
										<ScoreDistribution value="1" recordCount="1440.0"/>
									</Node>
								</Node>
								<Node>
									<SimplePredicate field="double(float(AGE))" operator="lessOrEqual" value="49.99452018737793"/>
									<Node>
										<SimplePredicate field="double(float(continuous(encoder(FLAG_WORK_PHONE))))" operator="lessOrEqual" value="0.5"/>
										<Node>
											<SimplePredicate field="double(float(AMT_INCOME_TOTAL))" operator="lessOrEqual" value="200250.0"/>
											<Node score="1" recordCount="642.0">
												<SimplePredicate field="double(float(AMT_INCOME_TOTAL))" operator="lessOrEqual" value="100125.0"/>
												<ScoreDistribution value="0" recordCount="315.0"/>
												<ScoreDistribution value="1" recordCount="327.0"/>
											</Node>
											<Node score="1" recordCount="3802.0">
												<True/>
												<ScoreDistribution value="0" recordCount="1580.0"/>
												<ScoreDistribution value="1" recordCount="2222.0"/>
											</Node>
										</Node>
										<Node score="1" recordCount="1978.0">
											<SimplePredicate field="double(float(AMT_INCOME_TOTAL))" operator="lessOrEqual" value="276750.0"/>
											<ScoreDistribution value="0" recordCount="620.0"/>
											<ScoreDistribution value="1" recordCount="1358.0"/>
										</Node>
										<Node score="1" recordCount="996.0">
											<True/>
											<ScoreDistribution value="0" recordCount="286.0"/>
											<ScoreDistribution value="1" recordCount="710.0"/>
										</Node>
									</Node>
									<Node>
										<SimplePredicate field="double(float(continuous(encoder(FLAG_OWN_CAR))))" operator="lessOrEqual" value="0.5"/>
										<Node score="1" recordCount="2160.0">
											<SimplePredicate field="double(float(AMT_INCOME_TOTAL))" operator="lessOrEqual" value="198000.0"/>
											<ScoreDistribution value="0" recordCount="960.0"/>
											<ScoreDistribution value="1" recordCount="1200.0"/>
										</Node>
										<Node score="1" recordCount="911.0">
											<True/>
											<ScoreDistribution value="0" recordCount="303.0"/>
											<ScoreDistribution value="1" recordCount="608.0"/>
										</Node>
									</Node>
									<Node score="1" recordCount="340.0">
										<SimplePredicate field="double(float(AGE))" operator="lessOrEqual" value="31.49452018737793"/>
										<ScoreDistribution value="0" recordCount="160.0"/>
										<ScoreDistribution value="1" recordCount="180.0"/>
									</Node>
									<Node score="1" recordCount="1392.0">
										<True/>
										<ScoreDistribution value="0" recordCount="492.0"/>
										<ScoreDistribution value="1" recordCount="900.0"/>
									</Node>
								</Node>
								<Node>
									<SimplePredicate field="double(float(AMT_INCOME_TOTAL))" operator="lessOrEqual" value="200250.0"/>
									<Node>
										<SimplePredicate field="double(float(AMT_INCOME_TOTAL))" operator="lessOrEqual" value="101250.0"/>
										<Node score="1" recordCount="675.0">
											<SimplePredicate field="double(float(AGE))" operator="lessOrEqual" value="60.01369857788086"/>
											<ScoreDistribution value="0" recordCount="262.0"/>
											<ScoreDistribution value="1" recordCount="413.0"/>
										</Node>
										<Node score="1" recordCount="64.0">
											<True/>
											<ScoreDistribution value="0" recordCount="14.0"/>
											<ScoreDistribution value="1" recordCount="50.0"/>
										</Node>
									</Node>
									<Node score="1" recordCount="1489.0">
										<SimplePredicate field="double(float(continuous(encoder(FLAG_WORK_PHONE))))" operator="lessOrEqual" value="0.5"/>
										<ScoreDistribution value="0" recordCount="475.0"/>
										<ScoreDistribution value="1" recordCount="1014.0"/>
									</Node>
									<Node score="1" recordCount="1041.0">
										<True/>
										<ScoreDistribution value="0" recordCount="300.0"/>
										<ScoreDistribution value="1" recordCount="741.0"/>
									</Node>
								</Node>
								<Node>
									<SimplePredicate field="double(float(AMT_INCOME_TOTAL))" operator="lessOrEqual" value="268875.0"/>
									<Node score="1" recordCount="727.0">
										<SimplePredicate field="double(float(DAYS_EMPLOYED))" operator="lessOrEqual" value="5419.5"/>
										<ScoreDistribution value="0" recordCount="155.0"/>
										<ScoreDistribution value="1" recordCount="572.0"/>
									</Node>
									<Node score="1" recordCount="373.0">
										<True/>
										<ScoreDistribution value="0" recordCount="63.0"/>
										<ScoreDistribution value="1" recordCount="310.0"/>
									</Node>
								</Node>
								<Node score="1" recordCount="674.0">
									<SimplePredicate field="double(float(AMT_INCOME_TOTAL))" operator="lessOrEqual" value="342000.0"/>
									<ScoreDistribution value="0" recordCount="170.0"/>
									<ScoreDistribution value="1" recordCount="504.0"/>
								</Node>
								<Node score="1" recordCount="333.0">
									<True/>
									<ScoreDistribution value="0" recordCount="65.0"/>
									<ScoreDistribution value="1" recordCount="268.0"/>
								</Node>
							</Node>
							<Node>
								<SimplePredicate field="double(float(continuous(encoder(FLAG_WORK_PHONE))))" operator="lessOrEqual" value="0.5"/>
								<Node>
									<SimplePredicate field="double(float(DAYS_EMPLOYED))" operator="lessOrEqual" value="1973.5"/>
									<Node>
										<SimplePredicate field="double(float(AGE))" operator="lessOrEqual" value="29.836986541748047"/>
										<Node>
											<SimplePredicate field="double(float(AMT_INCOME_TOTAL))" operator="lessOrEqual" value="200250.0"/>
											<Node score="0" recordCount="689.0">
												<SimplePredicate field="double(float(AGE))" operator="lessOrEqual" value="23.461644172668457"/>
												<ScoreDistribution value="0" recordCount="450.0"/>
												<ScoreDistribution value="1" recordCount="239.0"/>
											</Node>
											<Node score="0" recordCount="3681.0">
												<True/>
												<ScoreDistribution value="0" recordCount="2265.0"/>
												<ScoreDistribution value="1" recordCount="1416.0"/>
											</Node>
										</Node>
										<Node score="0" recordCount="491.0">
											<SimplePredicate field="double(float(DAYS_EMPLOYED))" operator="lessOrEqual" value="396.5"/>
											<ScoreDistribution value="0" recordCount="290.0"/>
											<ScoreDistribution value="1" recordCount="201.0"/>
										</Node>
										<Node score="1" recordCount="2091.0">
											<True/>
											<ScoreDistribution value="0" recordCount="989.0"/>
											<ScoreDistribution value="1" recordCount="1102.0"/>
										</Node>
									</Node>
									<Node>
										<SimplePredicate field="double(float(AMT_INCOME_TOTAL))" operator="lessOrEqual" value="198157.5"/>
										<Node score="0" recordCount="9630.0">
											<SimplePredicate field="double(float(AGE))" operator="lessOrEqual" value="50.00821876525879"/>
											<ScoreDistribution value="0" recordCount="5043.0"/>
											<ScoreDistribution value="1" recordCount="4587.0"/>
										</Node>
										<Node score="1" recordCount="4237.0">
											<True/>
											<ScoreDistribution value="0" recordCount="1859.0"/>
											<ScoreDistribution value="1" recordCount="2378.0"/>
										</Node>
									</Node>
									<Node score="1" recordCount="1549.0">
										<SimplePredicate field="double(float(DAYS_EMPLOYED))" operator="lessOrEqual" value="339.0"/>
										<ScoreDistribution value="0" recordCount="712.0"/>
										<ScoreDistribution value="1" recordCount="837.0"/>
									</Node>
									<Node score="1" recordCount="9112.0">
										<True/>
										<ScoreDistribution value="0" recordCount="3317.0"/>
										<ScoreDistribution value="1" recordCount="5795.0"/>
									</Node>
								</Node>
								<Node>
									<SimplePredicate field="double(float(AMT_INCOME_TOTAL))" operator="lessOrEqual" value="190800.0"/>
									<Node>
										<SimplePredicate field="double(float(DAYS_EMPLOYED))" operator="lessOrEqual" value="3386.0"/>
										<Node score="1" recordCount="6602.0">
											<SimplePredicate field="double(float(DAYS_EMPLOYED))" operator="lessOrEqual" value="3266.0"/>
											<ScoreDistribution value="0" recordCount="2665.0"/>
											<ScoreDistribution value="1" recordCount="3937.0"/>
										</Node>
										<Node score="1" recordCount="340.0">
											<True/>
											<ScoreDistribution value="0" recordCount="164.0"/>
											<ScoreDistribution value="1" recordCount="176.0"/>
										</Node>
									</Node>
									<Node score="1" recordCount="8905.0">
										<SimplePredicate field="double(float(DAYS_EMPLOYED))" operator="lessOrEqual" value="11131.0"/>
										<ScoreDistribution value="0" recordCount="3348.0"/>
										<ScoreDistribution value="1" recordCount="5557.0"/>
									</Node>
									<Node score="1" recordCount="601.0">
										<True/>
										<ScoreDistribution value="0" recordCount="181.0"/>
										<ScoreDistribution value="1" recordCount="420.0"/>
									</Node>
								</Node>
								<Node>
									<SimplePredicate field="double(float(AMT_INCOME_TOTAL))" operator="lessOrEqual" value="200250.0"/>
									<Node score="1" recordCount="146.0">
										<SimplePredicate field="double(float(AMT_INCOME_TOTAL))" operator="lessOrEqual" value="197325.0"/>
										<ScoreDistribution value="0" recordCount="43.0"/>
										<ScoreDistribution value="1" recordCount="103.0"/>
									</Node>
									<Node score="1" recordCount="73.0">
										<True/>
										<ScoreDistribution value="0" recordCount="28.0"/>
										<ScoreDistribution value="1" recordCount="45.0"/>
									</Node>
								</Node>
								<Node score="1" recordCount="11352.0">
									<SimplePredicate field="double(float(DAYS_EMPLOYED))" operator="lessOrEqual" value="5846.0"/>
									<ScoreDistribution value="0" recordCount="3173.0"/>
									<ScoreDistribution value="1" recordCount="8179.0"/>
								</Node>
								<Node score="1" recordCount="3218.0">
									<True/>
									<ScoreDistribution value="0" recordCount="759.0"/>
									<ScoreDistribution value="1" recordCount="2459.0"/>
								</Node>
							</Node>
							<Node>
								<SimplePredicate field="double(float(DAYS_EMPLOYED))" operator="lessOrEqual" value="1963.5"/>
								<Node>
									<SimplePredicate field="double(float(continuous(encoder(FLAG_OWN_CAR))))" operator="lessOrEqual" value="0.5"/>
									<Node>
										<SimplePredicate field="double(float(DAYS_EMPLOYED))" operator="lessOrEqual" value="380.0"/>
										<Node score="0" recordCount="180.0">
											<SimplePredicate field="double(float(AGE))" operator="lessOrEqual" value="30.095890045166016"/>
											<ScoreDistribution value="0" recordCount="127.0"/>
											<ScoreDistribution value="1" recordCount="53.0"/>
										</Node>
										<Node score="0" recordCount="643.0">
											<True/>
											<ScoreDistribution value="0" recordCount="367.0"/>
											<ScoreDistribution value="1" recordCount="276.0"/>
										</Node>
									</Node>
									<Node score="1" recordCount="73.0">
										<SimplePredicate field="double(float(DAYS_EMPLOYED))" operator="lessOrEqual" value="397.5"/>
										<ScoreDistribution value="0" recordCount="20.0"/>
										<ScoreDistribution value="1" recordCount="53.0"/>
									</Node>
									<Node score="0" recordCount="3884.0">
										<True/>
										<ScoreDistribution value="0" recordCount="1944.0"/>
										<ScoreDistribution value="1" recordCount="1940.0"/>
									</Node>
								</Node>
								<Node>
									<SimplePredicate field="double(float(AGE))" operator="lessOrEqual" value="30.441096305847168"/>
									<Node score="0" recordCount="744.0">
										<SimplePredicate field="double(float(AGE))" operator="lessOrEqual" value="29.86027431488037"/>
										<ScoreDistribution value="0" recordCount="465.0"/>
										<ScoreDistribution value="1" recordCount="279.0"/>
									</Node>
									<Node score="0" recordCount="49.0">
										<True/>
										<ScoreDistribution value="0" recordCount="40.0"/>
										<ScoreDistribution value="1" recordCount="9.0"/>
									</Node>
								</Node>
								<Node score="1" recordCount="1537.0">
									<SimplePredicate field="double(float(AGE))" operator="lessOrEqual" value="49.621917724609375"/>
									<ScoreDistribution value="0" recordCount="726.0"/>
									<ScoreDistribution value="1" recordCount="811.0"/>
								</Node>
								<Node score="1" recordCount="548.0">
									<True/>
									<ScoreDistribution value="0" recordCount="214.0"/>
									<ScoreDistribution value="1" recordCount="334.0"/>
								</Node>
							</Node>
							<Node>
								<SimplePredicate field="double(float(AGE))" operator="lessOrEqual" value="50.1054801940918"/>
								<Node>
									<SimplePredicate field="double(float(AGE))" operator="lessOrEqual" value="29.99863052368164"/>
									<Node score="0" recordCount="60.0">
										<SimplePredicate field="double(float(AMT_INCOME_TOTAL))" operator="lessOrEqual" value="102375.0"/>
										<ScoreDistribution value="0" recordCount="36.0"/>
										<ScoreDistribution value="1" recordCount="24.0"/>
									</Node>
									<Node score="1" recordCount="474.0">
										<True/>
										<ScoreDistribution value="0" recordCount="221.0"/>
										<ScoreDistribution value="1" recordCount="253.0"/>
									</Node>
								</Node>
								<Node score="1" recordCount="1336.0">
									<SimplePredicate field="double(float(DAYS_EMPLOYED))" operator="lessOrEqual" value="2858.0"/>
									<ScoreDistribution value="0" recordCount="551.0"/>
									<ScoreDistribution value="1" recordCount="785.0"/>
								</Node>
								<Node score="1" recordCount="3438.0">
									<True/>
									<ScoreDistribution value="0" recordCount="1294.0"/>
									<ScoreDistribution value="1" recordCount="2144.0"/>
								</Node>
							</Node>
							<Node>
								<SimplePredicate field="double(float(AGE))" operator="lessOrEqual" value="51.360273361206055"/>
								<Node score="1" recordCount="252.0">
									<SimplePredicate field="double(float(continuous(encoder(FLAG_OWN_CAR))))" operator="lessOrEqual" value="0.5"/>
									<ScoreDistribution value="0" recordCount="61.0"/>
									<ScoreDistribution value="1" recordCount="191.0"/>
								</Node>
								<Node score="1" recordCount="118.0">
									<True/>
									<ScoreDistribution value="0" recordCount="20.0"/>
									<ScoreDistribution value="1" recordCount="98.0"/>
								</Node>
							</Node>
							<Node score="1" recordCount="1712.0">
								<SimplePredicate field="double(float(AMT_INCOME_TOTAL))" operator="lessOrEqual" value="200250.0"/>
								<ScoreDistribution value="0" recordCount="560.0"/>
								<ScoreDistribution value="1" recordCount="1152.0"/>
							</Node>
							<Node score="1" recordCount="811.0">
								<True/>
								<ScoreDistribution value="0" recordCount="156.0"/>
								<ScoreDistribution value="1" recordCount="655.0"/>
							</Node>
						</Node>
						<Node>
							<SimplePredicate field="double(float(CNT_CHILDREN))" operator="lessOrEqual" value="1.5"/>
							<Node>
								<SimplePredicate field="double(float(continuous(encoder(FLAG_WORK_PHONE))))" operator="lessOrEqual" value="0.5"/>
								<Node>
									<SimplePredicate field="double(float(DAYS_EMPLOYED))" operator="lessOrEqual" value="1996.5"/>
									<Node>
										<SimplePredicate field="double(float(AGE))" operator="lessOrEqual" value="29.858903884887695"/>
										<Node>
											<SimplePredicate field="double(float(DAYS_EMPLOYED))" operator="lessOrEqual" value="345.5"/>
											<Node score="0" recordCount="578.0">
												<SimplePredicate field="double(float(AMT_INCOME_TOTAL))" operator="lessOrEqual" value="200250.0"/>
												<ScoreDistribution value="0" recordCount="476.0"/>
												<ScoreDistribution value="1" recordCount="102.0"/>
											</Node>
											<Node score="0" recordCount="213.0">
												<True/>
												<ScoreDistribution value="0" recordCount="152.0"/>
												<ScoreDistribution value="1" recordCount="61.0"/>
											</Node>
										</Node>
										<Node score="0" recordCount="1875.0">
											<SimplePredicate field="double(float(continuous(encoder(FLAG_OWN_CAR))))" operator="lessOrEqual" value="0.5"/>
											<ScoreDistribution value="0" recordCount="1281.0"/>
											<ScoreDistribution value="1" recordCount="594.0"/>
										</Node>
										<Node score="0" recordCount="1553.0">
											<True/>
											<ScoreDistribution value="0" recordCount="1005.0"/>
											<ScoreDistribution value="1" recordCount="548.0"/>
										</Node>
									</Node>
									<Node>
										<SimplePredicate field="double(float(AMT_INCOME_TOTAL))" operator="lessOrEqual" value="195750.0"/>
										<Node score="0" recordCount="7771.0">
											<SimplePredicate field="double(float(AGE))" operator="lessOrEqual" value="48.04109573364258"/>
											<ScoreDistribution value="0" recordCount="4862.0"/>
											<ScoreDistribution value="1" recordCount="2909.0"/>
										</Node>
										<Node score="0" recordCount="554.0">
											<True/>
											<ScoreDistribution value="0" recordCount="308.0"/>
											<ScoreDistribution value="1" recordCount="246.0"/>
										</Node>
									</Node>
									<Node score="0" recordCount="1449.0">
										<SimplePredicate field="double(float(continuous(encoder(FLAG_OWN_REALTY))))" operator="lessOrEqual" value="0.5"/>
										<ScoreDistribution value="0" recordCount="768.0"/>
										<ScoreDistribution value="1" recordCount="681.0"/>
									</Node>
									<Node score="0" recordCount="4311.0">
										<True/>
										<ScoreDistribution value="0" recordCount="2191.0"/>
										<ScoreDistribution value="1" recordCount="2120.0"/>
									</Node>
								</Node>
								<Node>
									<SimplePredicate field="double(float(AGE))" operator="lessOrEqual" value="30.416438102722168"/>
									<Node>
										<SimplePredicate field="double(float(AMT_INCOME_TOTAL))" operator="lessOrEqual" value="222750.0"/>
										<Node score="0" recordCount="795.0">
											<SimplePredicate field="double(float(continuous(encoder(FLAG_OWN_CAR))))" operator="lessOrEqual" value="0.5"/>
											<ScoreDistribution value="0" recordCount="482.0"/>
											<ScoreDistribution value="1" recordCount="313.0"/>
										</Node>
										<Node score="0" recordCount="525.0">
											<True/>
											<ScoreDistribution value="0" recordCount="291.0"/>
											<ScoreDistribution value="1" recordCount="234.0"/>
										</Node>
									</Node>
									<Node score="1" recordCount="563.0">
										<SimplePredicate field="double(float(DAYS_EMPLOYED))" operator="lessOrEqual" value="4260.0"/>
										<ScoreDistribution value="0" recordCount="260.0"/>
										<ScoreDistribution value="1" recordCount="303.0"/>
									</Node>
									<Node score="1" recordCount="7.0">
										<True/>
										<ScoreDistribution value="0" recordCount="0.0"/>
										<ScoreDistribution value="1" recordCount="7.0"/>
									</Node>
								</Node>
								<Node>
									<SimplePredicate field="double(float(continuous(encoder(FLAG_OWN_CAR))))" operator="lessOrEqual" value="0.5"/>
									<Node score="1" recordCount="2247.0">
										<SimplePredicate field="double(float(continuous(encoder(FLAG_OWN_REALTY))))" operator="lessOrEqual" value="0.5"/>
										<ScoreDistribution value="0" recordCount="1086.0"/>
										<ScoreDistribution value="1" recordCount="1161.0"/>
									</Node>
									<Node score="1" recordCount="5461.0">
										<True/>
										<ScoreDistribution value="0" recordCount="2522.0"/>
										<ScoreDistribution value="1" recordCount="2939.0"/>
									</Node>
								</Node>
								<Node score="0" recordCount="3014.0">
									<SimplePredicate field="double(float(AMT_INCOME_TOTAL))" operator="lessOrEqual" value="195750.0"/>
									<ScoreDistribution value="0" recordCount="1507.0"/>
									<ScoreDistribution value="1" recordCount="1507.0"/>
								</Node>
								<Node score="1" recordCount="3443.0">
									<True/>
									<ScoreDistribution value="0" recordCount="1343.0"/>
									<ScoreDistribution value="1" recordCount="2100.0"/>
								</Node>
							</Node>
							<Node>
								<SimplePredicate field="double(float(DAYS_EMPLOYED))" operator="lessOrEqual" value="1280.5"/>
								<Node>
									<SimplePredicate field="double(float(continuous(encoder(FLAG_OWN_CAR))))" operator="lessOrEqual" value="0.5"/>
									<Node>
										<SimplePredicate field="double(float(DAYS_EMPLOYED))" operator="lessOrEqual" value="366.5"/>
										<Node score="0" recordCount="492.0">
											<SimplePredicate field="double(float(AGE))" operator="lessOrEqual" value="46.27397346496582"/>
											<ScoreDistribution value="0" recordCount="380.0"/>
											<ScoreDistribution value="1" recordCount="112.0"/>
										</Node>
										<Node score="1" recordCount="27.0">
											<True/>
											<ScoreDistribution value="0" recordCount="11.0"/>
											<ScoreDistribution value="1" recordCount="16.0"/>
										</Node>
									</Node>
									<Node score="0" recordCount="389.0">
										<SimplePredicate field="double(float(AMT_INCOME_TOTAL))" operator="lessOrEqual" value="102375.0"/>
										<ScoreDistribution value="0" recordCount="296.0"/>
										<ScoreDistribution value="1" recordCount="93.0"/>
									</Node>
									<Node score="0" recordCount="1084.0">
										<True/>
										<ScoreDistribution value="0" recordCount="646.0"/>
										<ScoreDistribution value="1" recordCount="438.0"/>
									</Node>
								</Node>
								<Node>
									<SimplePredicate field="double(float(DAYS_EMPLOYED))" operator="lessOrEqual" value="401.5"/>
									<Node score="0" recordCount="104.0">
										<SimplePredicate field="double(float(AGE))" operator="lessOrEqual" value="31.89589023590088"/>
										<ScoreDistribution value="0" recordCount="88.0"/>
										<ScoreDistribution value="1" recordCount="16.0"/>
									</Node>
									<Node score="0" recordCount="295.0">
										<True/>
										<ScoreDistribution value="0" recordCount="194.0"/>
										<ScoreDistribution value="1" recordCount="101.0"/>
									</Node>
								</Node>
								<Node score="0" recordCount="457.0">
									<SimplePredicate field="double(float(AMT_INCOME_TOTAL))" operator="lessOrEqual" value="158962.5"/>
									<ScoreDistribution value="0" recordCount="299.0"/>
									<ScoreDistribution value="1" recordCount="158.0"/>
								</Node>
								<Node score="0" recordCount="415.0">
									<True/>
									<ScoreDistribution value="0" recordCount="208.0"/>
									<ScoreDistribution value="1" recordCount="207.0"/>
								</Node>
							</Node>
							<Node>
								<SimplePredicate field="double(float(AGE))" operator="lessOrEqual" value="29.956164360046387"/>
								<Node>
									<SimplePredicate field="double(float(DAYS_EMPLOYED))" operator="lessOrEqual" value="2071.0"/>
									<Node score="0" recordCount="13.0">
										<SimplePredicate field="double(float(AGE))" operator="lessOrEqual" value="23.147944450378418"/>
										<ScoreDistribution value="0" recordCount="13.0"/>
										<ScoreDistribution value="1" recordCount="0.0"/>
									</Node>
									<Node score="0" recordCount="441.0">
										<True/>
										<ScoreDistribution value="0" recordCount="291.0"/>
										<ScoreDistribution value="1" recordCount="150.0"/>
									</Node>
								</Node>
								<Node score="0" recordCount="181.0">
									<SimplePredicate field="double(float(continuous(encoder(FLAG_OWN_REALTY))))" operator="lessOrEqual" value="0.5"/>
									<ScoreDistribution value="0" recordCount="115.0"/>
									<ScoreDistribution value="1" recordCount="66.0"/>
								</Node>
								<Node score="0" recordCount="386.0">
									<True/>
									<ScoreDistribution value="0" recordCount="226.0"/>
									<ScoreDistribution value="1" recordCount="160.0"/>
								</Node>
							</Node>
							<Node>
								<SimplePredicate field="double(float(AGE))" operator="lessOrEqual" value="49.46438407897949"/>
								<Node score="0" recordCount="1453.0">
									<SimplePredicate field="double(float(AGE))" operator="lessOrEqual" value="35.045204162597656"/>
									<ScoreDistribution value="0" recordCount="783.0"/>
									<ScoreDistribution value="1" recordCount="670.0"/>
								</Node>
								<Node score="1" recordCount="3584.0">
									<True/>
									<ScoreDistribution value="0" recordCount="1782.0"/>
									<ScoreDistribution value="1" recordCount="1802.0"/>
								</Node>
							</Node>
							<Node score="0" recordCount="170.0">
								<SimplePredicate field="double(float(AMT_INCOME_TOTAL))" operator="lessOrEqual" value="193500.0"/>
								<ScoreDistribution value="0" recordCount="87.0"/>
								<ScoreDistribution value="1" recordCount="83.0"/>
							</Node>
							<Node score="1" recordCount="105.0">
								<True/>
								<ScoreDistribution value="0" recordCount="26.0"/>
								<ScoreDistribution value="1" recordCount="79.0"/>
							</Node>
						</Node>
						<Node>
							<SimplePredicate field="double(float(continuous(encoder(FLAG_OWN_CAR))))" operator="lessOrEqual" value="0.5"/>
							<Node>
								<SimplePredicate field="double(float(AGE))" operator="lessOrEqual" value="30.0"/>
								<Node>
									<SimplePredicate field="double(float(continuous(encoder(FLAG_WORK_PHONE))))" operator="lessOrEqual" value="0.5"/>
									<Node>
										<SimplePredicate field="double(float(AMT_INCOME_TOTAL))" operator="lessOrEqual" value="198000.0"/>
										<Node score="0" recordCount="97.0">
											<SimplePredicate field="double(float(AMT_INCOME_TOTAL))" operator="lessOrEqual" value="87750.0"/>
											<ScoreDistribution value="0" recordCount="92.0"/>
											<ScoreDistribution value="1" recordCount="5.0"/>
										</Node>
										<Node score="0" recordCount="694.0">
											<True/>
											<ScoreDistribution value="0" recordCount="569.0"/>
											<ScoreDistribution value="1" recordCount="125.0"/>
										</Node>
									</Node>
									<Node score="0" recordCount="206.0">
										<SimplePredicate field="double(float(CNT_CHILDREN))" operator="lessOrEqual" value="2.5"/>
										<ScoreDistribution value="0" recordCount="139.0"/>
										<ScoreDistribution value="1" recordCount="67.0"/>
									</Node>
									<Node score="0" recordCount="10.0">
										<True/>
										<ScoreDistribution value="0" recordCount="8.0"/>
										<ScoreDistribution value="1" recordCount="2.0"/>
									</Node>
								</Node>
								<Node>
									<SimplePredicate field="double(float(CNT_CHILDREN))" operator="lessOrEqual" value="2.5"/>
									<Node score="0" recordCount="172.0">
										<SimplePredicate field="double(float(continuous(encoder(FLAG_OWN_REALTY))))" operator="lessOrEqual" value="0.5"/>
										<ScoreDistribution value="0" recordCount="138.0"/>
										<ScoreDistribution value="1" recordCount="34.0"/>
									</Node>
									<Node score="0" recordCount="247.0">
										<True/>
										<ScoreDistribution value="0" recordCount="192.0"/>
										<ScoreDistribution value="1" recordCount="55.0"/>
									</Node>
								</Node>
								<Node score="0" recordCount="11.0">
									<SimplePredicate field="double(float(DAYS_EMPLOYED))" operator="lessOrEqual" value="1165.0"/>
									<ScoreDistribution value="0" recordCount="11.0"/>
									<ScoreDistribution value="1" recordCount="0.0"/>
								</Node>
								<Node score="0" recordCount="16.0">
									<True/>
									<ScoreDistribution value="0" recordCount="12.0"/>
									<ScoreDistribution value="1" recordCount="4.0"/>
								</Node>
							</Node>
							<Node>
								<SimplePredicate field="double(float(AMT_INCOME_TOTAL))" operator="lessOrEqual" value="200250.0"/>
								<Node>
									<SimplePredicate field="double(float(AMT_INCOME_TOTAL))" operator="lessOrEqual" value="100350.0"/>
									<Node score="0" recordCount="927.0">
										<SimplePredicate field="double(float(DAYS_EMPLOYED))" operator="lessOrEqual" value="2056.5"/>
										<ScoreDistribution value="0" recordCount="768.0"/>
										<ScoreDistribution value="1" recordCount="159.0"/>
									</Node>
									<Node score="0" recordCount="814.0">
										<True/>
										<ScoreDistribution value="0" recordCount="558.0"/>
										<ScoreDistribution value="1" recordCount="256.0"/>
									</Node>
								</Node>
								<Node score="0" recordCount="5168.0">
									<SimplePredicate field="double(float(CNT_CHILDREN))" operator="lessOrEqual" value="4.5"/>
									<ScoreDistribution value="0" recordCount="3422.0"/>
									<ScoreDistribution value="1" recordCount="1746.0"/>
								</Node>
								<Node score="0" recordCount="26.0">
									<True/>
									<ScoreDistribution value="0" recordCount="14.0"/>
									<ScoreDistribution value="1" recordCount="12.0"/>
								</Node>
							</Node>
							<Node>
								<SimplePredicate field="double(float(continuous(encoder(FLAG_OWN_REALTY))))" operator="lessOrEqual" value="0.5"/>
								<Node score="0" recordCount="210.0">
									<SimplePredicate field="double(float(AGE))" operator="lessOrEqual" value="33.820547103881836"/>
									<ScoreDistribution value="0" recordCount="106.0"/>
									<ScoreDistribution value="1" recordCount="104.0"/>
								</Node>
								<Node score="0" recordCount="765.0">
									<True/>
									<ScoreDistribution value="0" recordCount="457.0"/>
									<ScoreDistribution value="1" recordCount="308.0"/>
								</Node>
							</Node>
							<Node score="0" recordCount="73.0">
								<SimplePredicate field="double(float(AGE))" operator="lessOrEqual" value="30.823287963867188"/>
								<ScoreDistribution value="0" recordCount="50.0"/>
								<ScoreDistribution value="1" recordCount="23.0"/>
							</Node>
							<Node score="0" recordCount="2234.0">
								<True/>
								<ScoreDistribution value="0" recordCount="1256.0"/>
								<ScoreDistribution value="1" recordCount="978.0"/>
							</Node>
						</Node>
						<Node>
							<SimplePredicate field="double(float(continuous(encoder(FLAG_OWN_REALTY))))" operator="lessOrEqual" value="0.5"/>
							<Node>
								<SimplePredicate field="double(float(CNT_CHILDREN))" operator="lessOrEqual" value="3.5"/>
								<Node>
									<SimplePredicate field="double(float(DAYS_EMPLOYED))" operator="lessOrEqual" value="2027.0"/>
									<Node score="0" recordCount="1525.0">
										<SimplePredicate field="double(float(CNT_CHILDREN))" operator="lessOrEqual" value="2.5"/>
										<ScoreDistribution value="0" recordCount="1089.0"/>
										<ScoreDistribution value="1" recordCount="436.0"/>
									</Node>
									<Node score="0" recordCount="212.0">
										<True/>
										<ScoreDistribution value="0" recordCount="156.0"/>
										<ScoreDistribution value="1" recordCount="56.0"/>
									</Node>
								</Node>
								<Node score="0" recordCount="130.0">
									<SimplePredicate field="double(float(AGE))" operator="lessOrEqual" value="30.002739906311035"/>
									<ScoreDistribution value="0" recordCount="93.0"/>
									<ScoreDistribution value="1" recordCount="37.0"/>
								</Node>
								<Node score="0" recordCount="1539.0">
									<True/>
									<ScoreDistribution value="0" recordCount="883.0"/>
									<ScoreDistribution value="1" recordCount="656.0"/>
								</Node>
							</Node>
							<Node score="0" recordCount="8.0">
								<SimplePredicate field="double(float(AGE))" operator="lessOrEqual" value="29.80958843231201"/>
								<ScoreDistribution value="0" recordCount="6.0"/>
								<ScoreDistribution value="1" recordCount="2.0"/>
							</Node>
							<Node score="1" recordCount="13.0">
								<SimplePredicate field="double(float(AMT_INCOME_TOTAL))" operator="lessOrEqual" value="213750.0"/>
								<ScoreDistribution value="0" recordCount="3.0"/>
								<ScoreDistribution value="1" recordCount="10.0"/>
							</Node>
							<Node score="0" recordCount="6.0">
								<True/>
								<ScoreDistribution value="0" recordCount="3.0"/>
								<ScoreDistribution value="1" recordCount="3.0"/>
							</Node>
						</Node>
						<Node>
							<SimplePredicate field="double(float(CNT_CHILDREN))" operator="lessOrEqual" value="4.5"/>
							<Node>
								<SimplePredicate field="double(float(AGE))" operator="lessOrEqual" value="30.001370429992676"/>
								<Node score="0" recordCount="861.0">
									<SimplePredicate field="double(float(AGE))" operator="lessOrEqual" value="29.956164360046387"/>
									<ScoreDistribution value="0" recordCount="660.0"/>
									<ScoreDistribution value="1" recordCount="201.0"/>
								</Node>
								<Node score="0" recordCount="17.0">
									<True/>
									<ScoreDistribution value="0" recordCount="17.0"/>
									<ScoreDistribution value="1" recordCount="0.0"/>
								</Node>
							</Node>
							<Node score="0" recordCount="3305.0">
								<SimplePredicate field="double(float(DAYS_EMPLOYED))" operator="lessOrEqual" value="1912.0"/>
								<ScoreDistribution value="0" recordCount="2289.0"/>
								<ScoreDistribution value="1" recordCount="1016.0"/>
							</Node>
							<Node score="0" recordCount="3720.0">
								<True/>
								<ScoreDistribution value="0" recordCount="2111.0"/>
								<ScoreDistribution value="1" recordCount="1609.0"/>
							</Node>
						</Node>
						<Node score="1" recordCount="29.0">
							<True/>
							<ScoreDistribution value="0" recordCount="12.0"/>
							<ScoreDistribution value="1" recordCount="17.0"/>
						</Node>
					</Node>
				</TreeModel>
			</Segment>
			<Segment id="3">
				<True/>
				<TreeModel functionName="classification" missingValueStrategy="nullPrediction">
					<MiningSchema>
						<MiningField name="double(float(CNT_CHILDREN))"/>
						<MiningField name="double(float(DAYS_EMPLOYED))"/>
						<MiningField name="double(float(continuous(encoder(FLAG_WORK_PHONE))))"/>
						<MiningField name="double(float(AGE))"/>
						<MiningField name="double(float(continuous(encoder(FLAG_OWN_REALTY))))"/>
						<MiningField name="double(float(continuous(encoder(FLAG_OWN_CAR))))"/>
						<MiningField name="double(float(AMT_INCOME_TOTAL))"/>
					</MiningSchema>
					<Node>
						<True/>
						<Node>
							<SimplePredicate field="double(float(continuous(encoder(FLAG_OWN_REALTY))))" operator="lessOrEqual" value="0.5"/>
							<Node>
								<SimplePredicate field="double(float(CNT_CHILDREN))" operator="lessOrEqual" value="0.5"/>
								<Node>
									<SimplePredicate field="double(float(DAYS_EMPLOYED))" operator="lessOrEqual" value="1998.0"/>
									<Node>
										<SimplePredicate field="double(float(continuous(encoder(FLAG_WORK_PHONE))))" operator="lessOrEqual" value="0.5"/>
										<Node>
											<SimplePredicate field="double(float(continuous(encoder(FLAG_OWN_CAR))))" operator="lessOrEqual" value="0.5"/>
											<Node>
												<SimplePredicate field="double(float(AMT_INCOME_TOTAL))" operator="lessOrEqual" value="200250.0"/>
												<Node score="0" recordCount="3489.0">
													<SimplePredicate field="double(float(AGE))" operator="lessOrEqual" value="44.910959243774414"/>
													<ScoreDistribution value="0" recordCount="2108.0"/>
													<ScoreDistribution value="1" recordCount="1381.0"/>
												</Node>
												<Node score="1" recordCount="1422.0">
													<True/>
													<ScoreDistribution value="0" recordCount="668.0"/>
													<ScoreDistribution value="1" recordCount="754.0"/>
												</Node>
											</Node>
											<Node score="1" recordCount="420.0">
												<SimplePredicate field="double(float(DAYS_EMPLOYED))" operator="lessOrEqual" value="384.0"/>
												<ScoreDistribution value="0" recordCount="198.0"/>
												<ScoreDistribution value="1" recordCount="222.0"/>
											</Node>
											<Node score="1" recordCount="1930.0">
												<True/>
												<ScoreDistribution value="0" recordCount="778.0"/>
												<ScoreDistribution value="1" recordCount="1152.0"/>
											</Node>
										</Node>
										<Node>
											<SimplePredicate field="double(float(AMT_INCOME_TOTAL))" operator="lessOrEqual" value="195750.0"/>
											<Node score="0" recordCount="2578.0">
												<SimplePredicate field="double(float(DAYS_EMPLOYED))" operator="lessOrEqual" value="1961.5"/>
												<ScoreDistribution value="0" recordCount="1429.0"/>
												<ScoreDistribution value="1" recordCount="1149.0"/>
											</Node>
											<Node score="0" recordCount="33.0">
												<True/>
												<ScoreDistribution value="0" recordCount="27.0"/>
												<ScoreDistribution value="1" recordCount="6.0"/>
											</Node>
										</Node>
										<Node score="0" recordCount="398.0">
											<SimplePredicate field="double(float(DAYS_EMPLOYED))" operator="lessOrEqual" value="361.0"/>
											<ScoreDistribution value="0" recordCount="218.0"/>
											<ScoreDistribution value="1" recordCount="180.0"/>
										</Node>
										<Node score="1" recordCount="2019.0">
											<True/>
											<ScoreDistribution value="0" recordCount="819.0"/>
											<ScoreDistribution value="1" recordCount="1200.0"/>
										</Node>
									</Node>
									<Node>
										<SimplePredicate field="double(float(continuous(encoder(FLAG_OWN_CAR))))" operator="lessOrEqual" value="0.5"/>
										<Node>
											<SimplePredicate field="double(float(DAYS_EMPLOYED))" operator="lessOrEqual" value="367.5"/>
											<Node score="0" recordCount="18.0">
												<SimplePredicate field="double(float(DAYS_EMPLOYED))" operator="lessOrEqual" value="81.5"/>
												<ScoreDistribution value="0" recordCount="15.0"/>
												<ScoreDistribution value="1" recordCount="3.0"/>
											</Node>
											<Node score="0" recordCount="838.0">
												<True/>
												<ScoreDistribution value="0" recordCount="500.0"/>
												<ScoreDistribution value="1" recordCount="338.0"/>
											</Node>
										</Node>
										<Node score="1" recordCount="76.0">
											<SimplePredicate field="double(float(DAYS_EMPLOYED))" operator="lessOrEqual" value="402.5"/>
											<ScoreDistribution value="0" recordCount="27.0"/>
											<ScoreDistribution value="1" recordCount="49.0"/>
										</Node>
										<Node score="0" recordCount="3591.0">
											<True/>
											<ScoreDistribution value="0" recordCount="1797.0"/>
											<ScoreDistribution value="1" recordCount="1794.0"/>
										</Node>
									</Node>
									<Node>
										<SimplePredicate field="double(float(AGE))" operator="lessOrEqual" value="29.898630142211914"/>
										<Node score="0" recordCount="680.0">
											<SimplePredicate field="double(float(AMT_INCOME_TOTAL))" operator="lessOrEqual" value="378000.0"/>
											<ScoreDistribution value="0" recordCount="418.0"/>
											<ScoreDistribution value="1" recordCount="262.0"/>
										</Node>
										<Node score="1" recordCount="16.0">
											<True/>
											<ScoreDistribution value="0" recordCount="3.0"/>
											<ScoreDistribution value="1" recordCount="13.0"/>
										</Node>
									</Node>
									<Node score="1" recordCount="134.0">
										<SimplePredicate field="double(float(AGE))" operator="lessOrEqual" value="31.34383487701416"/>
										<ScoreDistribution value="0" recordCount="47.0"/>
										<ScoreDistribution value="1" recordCount="87.0"/>
									</Node>
									<Node score="1" recordCount="1807.0">
										<True/>
										<ScoreDistribution value="0" recordCount="879.0"/>
										<ScoreDistribution value="1" recordCount="928.0"/>
									</Node>
								</Node>
								<Node>
									<SimplePredicate field="double(float(continuous(encoder(FLAG_OWN_CAR))))" operator="lessOrEqual" value="0.5"/>
									<Node>
										<SimplePredicate field="double(float(AMT_INCOME_TOTAL))" operator="lessOrEqual" value="200250.0"/>
										<Node>
											<SimplePredicate field="double(float(AMT_INCOME_TOTAL))" operator="lessOrEqual" value="100125.0"/>
											<Node score="1" recordCount="1539.0">
												<SimplePredicate field="double(float(DAYS_EMPLOYED))" operator="lessOrEqual" value="9846.5"/>
												<ScoreDistribution value="0" recordCount="724.0"/>
												<ScoreDistribution value="1" recordCount="815.0"/>
											</Node>
											<Node score="1" recordCount="90.0">
												<True/>
												<ScoreDistribution value="0" recordCount="34.0"/>
												<ScoreDistribution value="1" recordCount="56.0"/>
											</Node>
										</Node>
										<Node score="1" recordCount="4036.0">
											<SimplePredicate field="double(float(AGE))" operator="lessOrEqual" value="49.97671318054199"/>
											<ScoreDistribution value="0" recordCount="1673.0"/>
											<ScoreDistribution value="1" recordCount="2363.0"/>
										</Node>
										<Node score="1" recordCount="1776.0">
											<True/>
											<ScoreDistribution value="0" recordCount="539.0"/>
											<ScoreDistribution value="1" recordCount="1237.0"/>
										</Node>
									</Node>
									<Node>
										<SimplePredicate field="double(float(AGE))" operator="lessOrEqual" value="48.95342445373535"/>
										<Node score="1" recordCount="172.0">
											<SimplePredicate field="double(float(DAYS_EMPLOYED))" operator="lessOrEqual" value="2208.5"/>
											<ScoreDistribution value="0" recordCount="71.0"/>
											<ScoreDistribution value="1" recordCount="101.0"/>
										</Node>
										<Node score="1" recordCount="2121.0">
											<True/>
											<ScoreDistribution value="0" recordCount="667.0"/>
											<ScoreDistribution value="1" recordCount="1454.0"/>
										</Node>
									</Node>
									<Node score="1" recordCount="88.0">
										<SimplePredicate field="double(float(DAYS_EMPLOYED))" operator="lessOrEqual" value="2388.0"/>
										<ScoreDistribution value="0" recordCount="14.0"/>
										<ScoreDistribution value="1" recordCount="74.0"/>
									</Node>
									<Node score="1" recordCount="1217.0">
										<True/>
										<ScoreDistribution value="0" recordCount="273.0"/>
										<ScoreDistribution value="1" recordCount="944.0"/>
									</Node>
								</Node>
								<Node>
									<SimplePredicate field="double(float(AMT_INCOME_TOTAL))" operator="lessOrEqual" value="190350.0"/>
									<Node>
										<SimplePredicate field="double(float(AGE))" operator="lessOrEqual" value="52.44520568847656"/>
										<Node score="1" recordCount="611.0">
											<SimplePredicate field="double(float(DAYS_EMPLOYED))" operator="lessOrEqual" value="2622.0"/>
											<ScoreDistribution value="0" recordCount="289.0"/>
											<ScoreDistribution value="1" recordCount="322.0"/>
										</Node>
										<Node score="1" recordCount="1990.0">
											<True/>
											<ScoreDistribution value="0" recordCount="816.0"/>
											<ScoreDistribution value="1" recordCount="1174.0"/>
										</Node>
									</Node>
									<Node score="1" recordCount="395.0">
										<SimplePredicate field="double(float(continuous(encoder(FLAG_WORK_PHONE))))" operator="lessOrEqual" value="0.5"/>
										<ScoreDistribution value="0" recordCount="124.0"/>
										<ScoreDistribution value="1" recordCount="271.0"/>
									</Node>
									<Node score="1" recordCount="267.0">
										<True/>
										<ScoreDistribution value="0" recordCount="66.0"/>
										<ScoreDistribution value="1" recordCount="201.0"/>
									</Node>
								</Node>
								<Node>
									<SimplePredicate field="double(float(AGE))" operator="lessOrEqual" value="50.16986274719238"/>
									<Node score="1" recordCount="1978.0">
										<SimplePredicate field="double(float(DAYS_EMPLOYED))" operator="lessOrEqual" value="5180.5"/>
										<ScoreDistribution value="0" recordCount="631.0"/>
										<ScoreDistribution value="1" recordCount="1347.0"/>
									</Node>
									<Node score="1" recordCount="427.0">
										<True/>
										<ScoreDistribution value="0" recordCount="113.0"/>
										<ScoreDistribution value="1" recordCount="314.0"/>
									</Node>
								</Node>
								<Node score="1" recordCount="763.0">
									<SimplePredicate field="double(float(AGE))" operator="lessOrEqual" value="59.57123374938965"/>
									<ScoreDistribution value="0" recordCount="151.0"/>
									<ScoreDistribution value="1" recordCount="612.0"/>
								</Node>
								<Node score="1" recordCount="127.0">
									<True/>
									<ScoreDistribution value="0" recordCount="35.0"/>
									<ScoreDistribution value="1" recordCount="92.0"/>
								</Node>
							</Node>
							<Node>
								<SimplePredicate field="double(float(AMT_INCOME_TOTAL))" operator="lessOrEqual" value="195975.0"/>
								<Node>
									<SimplePredicate field="double(float(CNT_CHILDREN))" operator="lessOrEqual" value="1.5"/>
									<Node>
										<SimplePredicate field="double(float(continuous(encoder(FLAG_WORK_PHONE))))" operator="lessOrEqual" value="0.5"/>
										<Node>
											<SimplePredicate field="double(float(DAYS_EMPLOYED))" operator="lessOrEqual" value="1923.5"/>
											<Node score="0" recordCount="574.0">
												<SimplePredicate field="double(float(DAYS_EMPLOYED))" operator="lessOrEqual" value="359.0"/>
												<ScoreDistribution value="0" recordCount="428.0"/>
												<ScoreDistribution value="1" recordCount="146.0"/>
											</Node>
											<Node score="0" recordCount="2458.0">
												<True/>
												<ScoreDistribution value="0" recordCount="1557.0"/>
